network unknown {
}
variable AGRESOR_VIVE_CASA_VICTIMA {
    type discrete [ 3 ] { 0, 1, 2 };
}
variable AREA_RESIDENCIA_DOMICILIO {
    type discrete [ 2 ] { 0, 1 };
}
variable CONDICION {
    type discrete [ 5 ] { 0, 1, 2, 3, 4 };
}
variable EDAD_VICTIMA {
    type discrete [ 7 ] { 0, 1, 2, 3, 4, 5, 6 };
}
variable ESTADO_AGRESOR_G {
    type discrete [ 4 ] { 0, 1, 2, 3 };
}
variable ESTADO_AGRESOR_U_A {
    type discrete [ 4 ] { 0, 1, 2, 3 };
}
variable ESTADO_VICTIMA_G {
    type discrete [ 4 ] { 0, 1, 2, 3 };
}
variable ESTADO_VICTIMA_U_A {
    type discrete [ 4 ] { 0, 1, 2, 3 };
}
variable ESTUDIA {
    type discrete [ 2 ] { 0, 1 };
}
variable ETNIA_VICTIMA {
    type discrete [ 5 ] { 0, 1, 2, 3, 4 };
}
variable FRECUENCIA_AGREDE {
    type discrete [ 5 ] { 0, 1, 2, 3, 4 };
}
variable HIJOS_VIVIENTES {
    type discrete [ 2 ] { 0, 1 };
}
variable LENGUA_MATERNA_VICTIMA {
    type discrete [ 4 ] { 0, 1, 2, 3 };
}
variable NIVEL_DE_RIESGO_VICTIMA {
    type discrete [ 3 ] { 0, 1, 2 };
}
variable NIVEL_EDUCATIVO_AGRESOR {
    type discrete [ 8 ] { 0, 1, 2, 3, 4, 5, 6, 7 };
}
variable NIVEL_EDUCATIVO_VICTIMA {
    type discrete [ 8 ] { 0, 1, 2, 3, 4, 5, 6, 7 };
}
variable REDES_FAM_SOC {
    type discrete [ 2 ] { 0, 1 };
}
variable SEGURO_VICTIMA {
    type discrete [ 2 ] { 0, 1 };
}
variable SEXO_AGRESOR {
    type discrete [ 2 ] { 0, 1 };
}
variable TRABAJA_VICTIMA {
    type discrete [ 2 ] { 0, 1 };
}
variable TRATAMIENTO_VICTIMA {
    type discrete [ 2 ] { 0, 1 };
}
variable VINCULO_AFECTIVO {
    type discrete [ 2 ] { 0, 1 };
}
variable VINCULO_AGRESOR_VICTIMA {
    type discrete [ 3 ] { 0, 1, 2 };
}
variable VIOLENCIA_PSICOLOGICA {
    type discrete [ 2 ] { 0, 1 };
}
variable VIOLENCIA_SEXUAL {
    type discrete [ 2 ] { 0, 1 };
}
probability ( AGRESOR_VIVE_CASA_VICTIMA ) {
    table 0.012084350678148652, 0.5767553157789571, 0.41116033354289416 ;
}
probability ( AREA_RESIDENCIA_DOMICILIO ) {
    table 0.14785297600771963, 0.8521470239922804 ;
}
probability ( CONDICION | SEXO_AGRESOR, TRATAMIENTO_VICTIMA ) {
    ( 0, 0 ) 0.0024101666984612763, 0.03924537185487046, 0.7373997962439066, 0.14874113640699266, 0.07220352879576902;
    ( 0, 1 ) 0.01027384465946875, 0.0667613105689842, 0.5455598311353532, 0.2952516157955692, 0.08215339784062466;
    ( 1, 0 ) 0.001768296161086076, 0.046869355237389006, 0.620405757420189, 0.0662635711976879, 0.264693019983648;
    ( 1, 1 ) 0.011631562401760453, 0.07324740647595096, 0.4542596667714555, 0.1512103112228859, 0.30965105312794716;

}
probability ( EDAD_VICTIMA | TRABAJA_VICTIMA, VIOLENCIA_PSICOLOGICA ) {
    ( 0, 0 ) 0.6229449588865893, 0.06970397337321307, 0.08883148620909008, 0.01838396350398042, 0.05325525226127953, 0.13648578108766327, 0.010394584678184125;
    ( 0, 1 ) 0.12311468868918213, 0.2922960616553802, 0.2843364785122423, 0.055105435519042935, 0.025222956969222048, 0.21066391385223443, 0.00926046480269593;
    ( 1, 0 ) 0.04755638370222106, 0.33845703006209255, 0.3423274484543207, 0.016593036564395466, 0.0006469127884152848, 0.25439154258289604, 2.7645845658772853e-05;
    ( 1, 1 ) 0.006301877744834885, 0.4779380478705051, 0.34644187528873754, 0.02931714648281024, 8.631427518815457e-05, 0.13990046958240496, 1.426875551890902e-05;

}
probability ( ESTADO_AGRESOR_G | ESTADO_VICTIMA_G ) {
    ( 0 ) 0.29225352112676056, 0.12323943661971831, 0.02665995975855131, 0.5578470824949698;
    ( 1 ) 0.011959183673469388, 0.778, 0.010653061224489797, 0.19938775510204082;
    ( 2 ) 0.05118694362017804, 0.12240356083086053, 0.46661721068249257, 0.35979228486646886;
    ( 3 ) 0.007151642822346528, 0.19912787173369798, 0.007498451484627633, 0.7862220339593279;

}
probability ( ESTADO_AGRESOR_U_A | AGRESOR_VIVE_CASA_VICTIMA, ESTADO_AGRESOR_G ) {
    ( 0, 0 ) 0.6368921775898521, 0.2309725158562368, 0.0026427061310782245, 0.129492600422833;
    ( 0, 1 ) 0.0049542299567447955, 0.7473342722060156, 0.0037471079368272815, 0.24396438990041247;
    ( 0, 2 ) 0.05995475113122172, 0.05995475113122172, 0.6572398190045248, 0.2228506787330317;
    ( 0, 3 ) 0.0018802782555124883, 0.16944964961367662, 0.0018802782555124883, 0.8267897938752984;
    ( 1, 0 ) 0.49867196128964386, 0.17804922947457003, 0.057500131488981227, 0.2657786777468048;
    ( 1, 1 ) 0.005466217544138975, 0.7422394513009709, 0.0027197370941540264, 0.24957459406073598;
    ( 1, 2 ) 0.06272665731831151, 0.0725907838112277, 0.5408466708573086, 0.32383588801315216;
    ( 1, 3 ) 0.0021011698819418077, 0.15709091919592238, 0.0032418086708285786, 0.8375661022513072;
    ( 2, 0 ) 0.6219412724306689, 0.1843633048651761, 0.03927166298819691, 0.15442375971595818;
    ( 2, 1 ) 0.0031204822465066714, 0.8479274561544882, 0.0012730894037106615, 0.14767897219529444;
    ( 2, 2 ) 0.08187793877746859, 0.0841809807120238, 0.577031954706842, 0.25690912580366565;
    ( 2, 3 ) 0.001929419195452383, 0.2432697189320136, 0.001881448553485267, 0.7529194133190488;

}
probability ( ESTADO_VICTIMA_G ) {
    table 0.0003633200286562276, 0.00447753556442534, 0.00024635583432021873, 0.9949127885725982 ;
}
probability ( ESTADO_VICTIMA_U_A | ESTADO_VICTIMA_G ) {
    ( 0 ) 0.24396378269617705, 0.05080482897384306, 0.0025150905432595573, 0.7027162977867203;
    ( 1 ) 0.002163265306122449, 0.6552244897959184, 0.0028163265306122448, 0.33979591836734696;
    ( 2 ) 0.039317507418397624, 0.07492581602373888, 0.44287833827893175, 0.44287833827893175;
    ( 3 ) 0.00023310391548449243, 0.023269428449037864, 0.00029482410114468904, 0.976202643534333;

}
probability ( ESTUDIA | EDAD_VICTIMA ) {
    ( 0 ) 0.20575941222863312, 0.794240587771367;
    ( 1 ) 0.9723948668326668, 0.02760513316733309;
    ( 2 ) 0.9191305252931788, 0.08086947470682118;
    ( 3 ) 0.9971640039528946, 0.002835996047105328;
    ( 4 ) 0.08694641880809184, 0.9130535811919082;
    ( 5 ) 0.7898135393678832, 0.2101864606321168;
    ( 6 ) 0.4398155839840505, 0.5601844160159495;

}
probability ( ETNIA_VICTIMA ) {
    table 0.017222977615977308, 0.01090983522669123, 0.006880418731815723, 0.8455809465327426, 0.11940582189277307 ;
}
probability ( FRECUENCIA_AGREDE ) {
    table 0.04745237364211881, 0.7619807886310803, 0.05458718949661535, 0.032931268915303305, 0.10304837931488223 ;
}
probability ( HIJOS_VIVIENTES | FRECUENCIA_AGREDE, SEGURO_VICTIMA ) {
    ( 0, 0 ) 0.46910179640718563, 0.5308982035928144;
    ( 0, 1 ) 0.2678299918673314, 0.7321700081326685;
    ( 1, 0 ) 0.3969517314645054, 0.6030482685354946;
    ( 1, 1 ) 0.2033756760319007, 0.7966243239680992;
    ( 2, 0 ) 0.4395546129374337, 0.5604453870625663;
    ( 2, 1 ) 0.25322644921982773, 0.7467735507801723;
    ( 3, 0 ) 0.4670522257273046, 0.5329477742726955;
    ( 3, 1 ) 0.2570535305780082, 0.7429464694219917;
    ( 4, 0 ) 0.45770392749244715, 0.5422960725075529;
    ( 4, 1 ) 0.2621577707368592, 0.7378422292631408;

}
probability ( LENGUA_MATERNA_VICTIMA | ETNIA_VICTIMA ) {
    ( 0 ) 0.7435059422750424, 0.2518251273344652, 0.0007215619694397284, 0.003947368421052632;
    ( 1 ) 0.0003350308228357009, 0.977552934870008, 0.003283302063789869, 0.01882873224336639;
    ( 2 ) 0.0013812154696132596, 0.6167658308542286, 0.3583722906927327, 0.023480662983425413;
    ( 3 ) 0.0028261335657177636, 0.9661737142778101, 0.0011662447782665227, 0.02983390737820566;
    ( 4 ) 0.000618342108485368, 0.2552773356189543, 0.0005203869229827354, 0.7435839353495776;

}
probability ( NIVEL_DE_RIESGO_VICTIMA | VIOLENCIA_SEXUAL ) {
    ( 0 ) 0.2105564274322169, 0.5449548963317384, 0.24448867623604464;
    ( 1 ) 0.09783325228291997, 0.43604041713946073, 0.46612633057761926;

}
probability ( NIVEL_EDUCATIVO_AGRESOR | AREA_RESIDENCIA_DOMICILIO ) {
    ( 0 ) 0.00014462013112225222, 0.16381999861560217, 0.14301447684594618, 0.3488546580042916, 0.1981530649579242, 0.02955318559830708, 0.08542352685237375, 0.031036468994432742;
    ( 1 ) 0.0017888608081421584, 0.06679435971608134, 0.05175085743502109, 0.432374799045369, 0.15934415442923738, 0.010703783008460255, 0.20092653596251478, 0.076316649595174;

}
probability ( NIVEL_EDUCATIVO_VICTIMA | AREA_RESIDENCIA_DOMICILIO, ESTUDIA, LENGUA_MATERNA_VICTIMA, NIVEL_EDUCATIVO_AGRESOR, TRABAJA_VICTIMA ) {
    ( 0, 0, 0, 0, 0 ) 0.0023946360153256703, 0.9832375478927203, 0.0023946360153256703, 0.0023946360153256703, 0.0023946360153256703, 0.0023946360153256703, 0.0023946360153256703, 0.0023946360153256703;
    ( 0, 0, 0, 0, 1 ) 0.125, 0.125, 0.125, 0.125, 0.125, 0.125, 0.125, 0.125;
    ( 0, 0, 0, 1, 0 ) 3.486750348675035e-05, 0.25710599721059973, 0.29995118549511857, 0.028598326359832636, 0.12857043235704324, 0.27138772663877264, 3.486750348675035e-05, 0.014316596931659693;
    ( 0, 0, 0, 1, 1 ) 2.1601631355199944e-05, 0.38048681436422077, 0.2831585041302319, 0.07965385545916427, 0.13274202467770366, 0.09734991186534407, 0.026565686240624893, 2.1601631355199944e-05;
    ( 0, 0, 0, 2, 0 ) 5.305152363975893e-05, 0.17389228418640185, 0.3694614209320092, 0.0869726678550208, 0.1304324760207113, 0.2390819964349376, 5.305152363975893e-05, 5.305152363975893e-05;
    ( 0, 0, 0, 2, 1 ) 4.437344692935747e-05, 0.1999733759318424, 0.3817270145544906, 0.18179801206957757, 0.1272719204827831, 0.10909655662051829, 4.437344692935747e-05, 4.437344692935747e-05;
    ( 0, 0, 0, 3, 0 ) 8.004098098226292e-06, 0.1573749759877057, 0.09508388294806941, 0.3934254338221169, 0.213109111865275, 0.09508388294806941, 0.032792789908433116, 0.013121918422232183;
    ( 0, 0, 0, 3, 1 ) 7.375414498294804e-06, 0.1691816830105852, 0.21449622968810847, 0.3443979301636752, 0.19637041101709915, 0.054384831427526224, 0.018133194085507606, 0.0030283451929998466;
    ( 0, 0, 0, 4, 0 ) 2.3698479505554924e-05, 0.25240302582186325, 0.17474784817806088, 0.2232823342054374, 0.2232823342054374, 0.11650646494520911, 0.009730595684980851, 2.3698479505554924e-05;
    ( 0, 0, 0, 4, 1 ) 2.0008323462560426e-05, 0.21310064987034608, 0.22129605916061082, 0.3114455613535231, 0.18851442199955182, 0.05738787335531581, 0.008215417613727311, 2.0008323462560426e-05;
    ( 0, 0, 0, 5, 0 ) 0.0004055807916937054, 0.0004055807916937054, 0.16653147306943544, 0.0004055807916937054, 0.33265736534717716, 0.4987832576249189, 0.0004055807916937054, 0.0004055807916937054;
    ( 0, 0, 0, 5, 1 ) 0.00013548666811185779, 0.1666215044439627, 0.11112616518534577, 0.1666215044439627, 0.05563082592672881, 0.4995935399956644, 0.00013548666811185779, 0.00013548666811185779;
    ( 0, 0, 0, 6, 0 ) 4.001024262211126e-05, 0.08198098713270598, 0.09836918251072274, 0.40974489469304143, 0.1803101594008066, 0.049204596376672426, 0.14753376864477305, 0.032816400998655654;
    ( 0, 0, 0, 6, 1 ) 4.358134021337424e-05, 0.17855275085419428, 0.08929816609720383, 0.3035091695139809, 0.1607018339027962, 0.03574541524300955, 0.19640366780559235, 0.03574541524300955;
    ( 0, 0, 0, 7, 0 ) 0.00010605803495672833, 0.08698880027150857, 0.17387154250806042, 0.39107839809944, 0.26075428474461226, 0.00010605803495672833, 0.08698880027150857, 0.00010605803495672833;
    ( 0, 0, 0, 7, 1 ) 0.00013548666811185779, 0.05563082592672881, 0.22211684370257967, 0.4440982007370475, 0.11112616518534577, 0.00013548666811185779, 0.11112616518534577, 0.05563082592672881;
    ( 0, 0, 1, 0, 0 ) 0.0008085381630012937, 0.0008085381630012937, 0.0008085381630012937, 0.0008085381630012937, 0.0008085381630012937, 0.0008085381630012937, 0.663163001293661, 0.33198576972833116;
    ( 0, 0, 1, 0, 1 ) 0.0008085381630012937, 0.0008085381630012937, 0.0008085381630012937, 0.33198576972833116, 0.0008085381630012937, 0.0008085381630012937, 0.663163001293661, 0.0008085381630012937;
    ( 0, 0, 1, 1, 0 ) 7.049934971399824e-07, 0.30464813492560344, 0.2549804970598951, 0.13803053580633773, 0.19405101107347386, 0.0805662338570589, 0.01530526782420959, 0.012417614459924222;
    ( 0, 0, 1, 1, 1 ) 1.2808925669291983e-06, 0.3132194773548441, 0.24239124197392717, 0.15372478434892742, 0.16893973861593922, 0.06400901953309929, 0.04092426133487451, 0.016790195945821318;
    ( 0, 0, 1, 2, 0 ) 9.282844560624401e-07, 0.1764254736107295, 0.3501884417445807, 0.13231933727916112, 0.20342147084815493, 0.10912559317376742, 0.01711106737859896, 0.011407687680551327;
    ( 0, 0, 1, 2, 1 ) 1.5710267476729952e-06, 0.18597091966648988, 0.36421835763606975, 0.12934357475196628, 0.18404044199894928, 0.09073402140115477, 0.02509778070477517, 0.020593332813847155;
    ( 0, 0, 1, 3, 0 ) 0.0003105995563599216, 0.13959976963676893, 0.11245544361887184, 0.3655956725400606, 0.2515895032648929, 0.031332686433956584, 0.05956278549256954, 0.039553539456519696;
    ( 0, 0, 1, 3, 1 ) 0.00022986400291646252, 0.12199038266030467, 0.11809221162984215, 0.356797861201106, 0.2125655330739927, 0.021555152581329087, 0.11992664505594215, 0.048842349794566746;
    ( 0, 0, 1, 4, 0 ) 6.587677775072438e-07, 0.15893128366962112, 0.1721530164713025, 0.23637286150804065, 0.340257904949823, 0.038586532046153796, 0.02725361821614118, 0.02644412437114028;
    ( 0, 0, 1, 4, 1 ) 1.0180927295147525e-06, 0.1492908780520384, 0.16096717994829718, 0.26355183232257084, 0.3090060075615783, 0.03127682674342271, 0.05546345209995879, 0.030442805179404227;
    ( 0, 0, 1, 5, 0 ) 4.703881266510623e-06, 0.15992161452257486, 0.2851577493621537, 0.11753399965379434, 0.18304213172372788, 0.21579619775869466, 0.025051930849182277, 0.01349167224860577;
    ( 0, 0, 1, 5, 1 ) 8.056927023577792e-06, 0.1848146262230415, 0.30031873203305276, 0.11221204542817732, 0.15841368775218181, 0.188114743531899, 0.03300923001559821, 0.02310887808902582;
    ( 0, 0, 1, 6, 0 ) 1.801749859463511e-06, 0.06715950531155858, 0.06273152485694106, 0.3453842772100264, 0.15129113394929156, 0.018451720310765817, 0.24501672023869583, 0.10996331637286132;
    ( 0, 0, 1, 6, 1 ) 0.002533664068036853, 0.04472706146061675, 0.03628838198210077, 0.24050442536218747, 0.09873461012311902, 0.004221399963740049, 0.4894454699784088, 0.08354498706179025;
    ( 0, 0, 1, 7, 0 ) 4.512602797091718e-06, 0.06654554840759272, 0.049910289456393815, 0.3659802095291731, 0.18299236106598507, 0.016639771553996, 0.15526692948065357, 0.16266037790340865;
    ( 0, 0, 1, 7, 1 ) 5.486065393899496e-06, 0.051688610928242264, 0.05618279569892473, 0.29437458854509546, 0.14606649111257405, 0.004499670836076366, 0.29437458854509546, 0.15280776826859777;
    ( 0, 0, 2, 0, 0 ) 0.125, 0.125, 0.125, 0.125, 0.125, 0.125, 0.125, 0.125;
    ( 0, 0, 2, 0, 1 ) 0.125, 0.125, 0.125, 0.125, 0.125, 0.125, 0.125, 0.125;
    ( 0, 0, 2, 1, 0 ) 4.51948803239569e-05, 0.2777225395907152, 0.14813977872586592, 0.0926043097837877, 0.22218707064863694, 0.24069889362932967, 0.018557017861016704, 4.51948803239569e-05;
    ( 0, 0, 2, 1, 1 ) 6.971556051310653e-05, 0.19995817066369215, 0.3998466257668712, 6.971556051310653e-05, 0.1714026770775237, 0.22851366424986058, 6.971556051310653e-05, 6.971556051310653e-05;
    ( 0, 0, 2, 2, 0 ) 5.305152363975893e-05, 0.15216238010355657, 0.3694614209320092, 0.021782955606485018, 0.32600161276631867, 0.10870257193786606, 0.021782955606485018, 5.305152363975893e-05;
    ( 0, 0, 2, 2, 1 ) 5.422993492407809e-05, 0.17775488069414316, 0.4220932754880694, 0.04447939262472885, 0.1333297180043384, 0.22218004338394795, 5.422993492407809e-05, 5.422993492407809e-05;
    ( 0, 0, 2, 3, 0 ) 2.034174125305126e-05, 0.1083360455655004, 0.1583279088689992, 0.24164768104149714, 0.3249674532139951, 0.09167209113100082, 0.02501627339300244, 0.05001220504475183;
    ( 0, 0, 2, 3, 1 ) 5.5461886591534295e-05, 0.15907578312183868, 0.18179297186973112, 0.15907578312183868, 0.20451016061762356, 0.06820702813026888, 0.18179297186973112, 0.04548983938237643;
    ( 0, 0, 2, 4, 0 ) 3.3899224385746056e-05, 0.23608097846721268, 0.16665536692520475, 0.13888512230840158, 0.291621467700819, 0.11111487769159842, 3.3899224385746056e-05, 0.055574388457992084;
    ( 0, 0, 2, 4, 1 ) 6.1005368472425575e-05, 0.125, 0.37487798926305516, 0.07502440214738897, 0.2749267935578331, 0.050036603221083456, 0.07502440214738897, 0.02504880429477794;
    ( 0, 0, 2, 5, 0 ) 0.00016254876462938882, 0.26648244473342003, 0.3330624187256177, 0.00016254876462938882, 0.06674252275682704, 0.3330624187256177, 0.00016254876462938882, 0.00016254876462938882;
    ( 0, 0, 2, 5, 1 ) 0.00022155264090747962, 0.09096951435661113, 0.5447093229351294, 0.00022155264090747962, 0.00022155264090747962, 0.3632133995037221, 0.00022155264090747962, 0.00022155264090747962;
    ( 0, 0, 2, 6, 0 ) 4.51948803239569e-05, 0.0555806638224022, 0.0555806638224022, 0.2777225395907152, 0.3517698315134862, 0.018557017861016704, 0.18516342468725142, 0.0555806638224022;
    ( 0, 0, 2, 6, 1 ) 0.04354742915323265, 0.04354742915323265, 0.04354742915323265, 0.08698880027150857, 0.00010605803495672833, 0.00010605803495672833, 0.6951679959273714, 0.08698880027150857;
    ( 0, 0, 2, 7, 0 ) 0.0003044325377496347, 0.125, 0.125, 0.49908670238675107, 0.24969556746225036, 0.0003044325377496347, 0.0003044325377496347, 0.0003044325377496347;
    ( 0, 0, 2, 7, 1 ) 0.00048638132295719845, 0.00048638132295719845, 0.00048638132295719845, 0.1997081712062257, 0.1997081712062257, 0.00048638132295719845, 0.5981517509727626, 0.00048638132295719845;
    ( 0, 0, 3, 0, 0 ) 0.125, 0.125, 0.125, 0.125, 0.125, 0.125, 0.125, 0.125;
    ( 0, 0, 3, 0, 1 ) 0.125, 0.125, 0.125, 0.125, 0.125, 0.125, 0.125, 0.125;
    ( 0, 0, 3, 1, 0 ) 2.4511630278334463e-06, 0.22489763943195767, 0.34336921182362606, 0.08935812864487942, 0.11345404167369333, 0.21586167204615245, 0.00803442217263247, 0.005022433044030732;
    ( 0, 0, 3, 1, 1 ) 3.7046037852159635e-06, 0.2564452696655187, 0.3899769721828711, 0.07435658441458369, 0.08953064151882828, 0.18512720127556917, 0.0030385160246341335, 0.0015211103142096746;
    ( 0, 0, 3, 2, 0 ) 2.1119074410102015e-06, 0.11851222034121667, 0.4498215015830858, 0.06834005764662551, 0.10380658644797443, 0.2534580372439101, 0.004327298346629903, 0.001732186483116567;
    ( 0, 0, 3, 2, 1 ) 3.259469410531476e-06, 0.08678337305540056, 0.5246891769970117, 0.049401170279897155, 0.08678337305540056, 0.2403174201690752, 0.005343574151625302, 0.006678652822178994;
    ( 0, 0, 3, 3, 0 ) 1.0509624293543056e-06, 0.14550133430190032, 0.2006020333180313, 0.2935844629077524, 0.23202665072566853, 0.08006925422024473, 0.03142566837006657, 0.016789545193906772;
    ( 0, 0, 3, 3, 1 ) 1.928411205149012e-06, 0.153238110959238, 0.22748657054436736, 0.2851476083072869, 0.19905099027772208, 0.06635161570004412, 0.04423505327043113, 0.024488122529705246;
    ( 0, 0, 3, 4, 0 ) 1.752600157593806e-06, 0.15218913780484727, 0.2785333821257217, 0.1651107082467549, 0.2749440570029696, 0.10481004618451935, 0.013641188066615632, 0.010769727968413939;
    ( 0, 0, 3, 4, 1 ) 2.9845329564067178e-06, 0.17603790118092, 0.3215112003552788, 0.15036614250309197, 0.24327345962285055, 0.08190811936221724, 0.01833995501711928, 0.008560237425565748;
    ( 0, 0, 3, 5, 0 ) 9.804075358044831e-06, 0.07229329087515099, 0.3453642410077021, 0.04016729674190968, 0.08032478940846131, 0.4537894712073915, 0.008041302608668371, 9.804075358044831e-06;
    ( 0, 0, 3, 5, 1 ) 1.3637653014466823e-05, 0.11731927382225228, 0.31282866743764864, 0.02794355102664252, 0.0726314124244474, 0.4636501996552401, 0.005599620327740077, 1.3637653014466823e-05;
    ( 0, 0, 3, 6, 0 ) 5.717317526093837e-06, 0.09367824766504752, 0.12880544654536805, 0.33722682656860326, 0.1451981393561843, 0.06791830181947912, 0.16393264542568858, 0.06323467530210305;
    ( 0, 0, 3, 6, 1 ) 9.498913324315699e-06, 0.09727837135431706, 0.08560610666139794, 0.29181611623630255, 0.10895063604723619, 0.027244783196802284, 0.3151606456221408, 0.07393384196847881;
    ( 0, 0, 3, 7, 0 ) 1.6273922666319488e-05, 0.10000325478453326, 0.1466638458534045, 0.3599694050253873, 0.15999544330165344, 0.05334266371566202, 0.07334005988803541, 0.10666905350865773;
    ( 0, 0, 3, 7, 1 ) 2.347065229636862e-05, 0.13461357918059258, 0.10577284163881483, 0.3076580044312592, 0.15384073754177777, 0.038477787374666714, 0.13461357918059258, 0.125;
    ( 0, 1, 0, 0, 0 ) 0.125, 0.125, 0.125, 0.125, 0.125, 0.125, 0.125, 0.125;
    ( 0, 1, 0, 0, 1 ) 0.125, 0.125, 0.125, 0.125, 0.125, 0.125, 0.125, 0.125;
    ( 0, 1, 0, 1, 0 ) 0.0008085381630012937, 0.0008085381630012937, 0.33198576972833116, 0.0008085381630012937, 0.663163001293661, 0.0008085381630012937, 0.0008085381630012937, 0.0008085381630012937;
    ( 0, 1, 0, 1, 1 ) 0.0023946360153256703, 0.0023946360153256703, 0.0023946360153256703, 0.0023946360153256703, 0.9832375478927203, 0.0023946360153256703, 0.0023946360153256703, 0.0023946360153256703;
    ( 0, 1, 0, 2, 0 ) 0.0012088974854932303, 0.0012088974854932303, 0.4963733075435203, 0.0012088974854932303, 0.4963733075435203, 0.0012088974854932303, 0.0012088974854932303, 0.0012088974854932303;
    ( 0, 1, 0, 2, 1 ) 0.0023946360153256703, 0.0023946360153256703, 0.0023946360153256703, 0.0023946360153256703, 0.0023946360153256703, 0.0023946360153256703, 0.0023946360153256703, 0.9832375478927203;
    ( 0, 1, 0, 3, 0 ) 0.0001283631135756829, 0.0001283631135756829, 0.1052834257547751, 0.1052834257547751, 0.3681710823577737, 0.0001283631135756829, 0.0001283631135756829, 0.4207486136783734;
    ( 0, 1, 0, 3, 1 ) 0.0008085381630012937, 0.33198576972833116, 0.0008085381630012937, 0.33198576972833116, 0.33198576972833116, 0.0008085381630012937, 0.0008085381630012937, 0.0008085381630012937;
    ( 0, 1, 0, 4, 0 ) 0.00027067994802945, 0.11114118666089216, 0.11114118666089216, 0.00027067994802945, 0.7763642269380684, 0.00027067994802945, 0.00027067994802945, 0.00027067994802945;
    ( 0, 1, 0, 4, 1 ) 0.0023946360153256703, 0.0023946360153256703, 0.0023946360153256703, 0.0023946360153256703, 0.9832375478927203, 0.0023946360153256703, 0.0023946360153256703, 0.0023946360153256703;
    ( 0, 1, 0, 5, 0 ) 0.125, 0.125, 0.125, 0.125, 0.125, 0.125, 0.125, 0.125;
    ( 0, 1, 0, 5, 1 ) 0.125, 0.125, 0.125, 0.125, 0.125, 0.125, 0.125, 0.125;
    ( 0, 1, 0, 6, 0 ) 0.0003478018920422927, 0.0003478018920422927, 0.0003478018920422927, 0.0003478018920422927, 0.7126460767946577, 0.0003478018920422927, 0.0003478018920422927, 0.2852671118530885;
    ( 0, 1, 0, 6, 1 ) 0.33198576972833116, 0.0008085381630012937, 0.0008085381630012937, 0.0008085381630012937, 0.0008085381630012937, 0.0008085381630012937, 0.33198576972833116, 0.33198576972833116;
    ( 0, 1, 0, 7, 0 ) 0.0006073858114674441, 0.0006073858114674441, 0.0006073858114674441, 0.0006073858114674441, 0.7469630709426628, 0.0006073858114674441, 0.0006073858114674441, 0.24939261418853256;
    ( 0, 1, 0, 7, 1 ) 0.125, 0.125, 0.125, 0.125, 0.125, 0.125, 0.125, 0.125;
    ( 0, 1, 1, 0, 0 ) 0.125, 0.125, 0.125, 0.125, 0.125, 0.125, 0.125, 0.125;
    ( 0, 1, 1, 0, 1 ) 0.125, 0.125, 0.125, 0.125, 0.125, 0.125, 0.125, 0.125;
    ( 0, 1, 1, 1, 0 ) 3.014009114363562e-06, 0.030866467340197237, 0.25678694572372385, 0.01605200974127746, 0.6283829238299616, 0.03210100547344055, 0.004941166542087623, 0.030866467340197237;
    ( 0, 1, 1, 1, 1 ) 4.785238496286655e-05, 0.07844919990812342, 4.785238496286655e-05, 0.1176498736697037, 0.23525189495444454, 0.019648189265753006, 0.21565155807365438, 0.3332535793583952;
    ( 0, 1, 1, 2, 0 ) 3.312539419219089e-06, 0.024426003169437716, 0.2862915193690805, 0.0203555547311013, 0.5929319683904238, 0.03392371619222269, 0.0013601286855313578, 0.04070779692278338;
    ( 0, 1, 1, 2, 1 ) 5.422993492407809e-05, 5.422993492407809e-05, 0.022266811279826465, 0.04447939262472885, 0.4443058568329718, 0.022266811279826465, 0.1333297180043384, 0.3332429501084599;
    ( 0, 1, 1, 3, 0 ) 1.3421550500462775e-06, 0.01814298353551557, 0.14843295344976798, 0.047279559085960196, 0.6206653760503705, 0.02254095720350721, 0.007148049365536465, 0.135788779154292;
    ( 0, 1, 1, 3, 1 ) 9.498913324315699e-06, 0.007791008708603736, 0.011681763606243446, 0.19065648889767012, 0.2645808319528246, 9.498913324315699e-06, 0.11673214584251562, 0.40853876316549387;
    ( 0, 1, 1, 4, 0 ) 2.28591910406601e-06, 0.01498328535951107, 0.1844558415291153, 0.032773222194994386, 0.6722746358073683, 0.029964284799918074, 0.004683848244231254, 0.060862596145757515;
    ( 0, 1, 1, 4, 1 ) 2.3247163846010787e-05, 0.019067323786498048, 0.019067323786498048, 0.13333178352241026, 0.3523386646829087, 2.3247163846010787e-05, 0.07619955365445416, 0.3999488562395388;
    ( 0, 1, 1, 5, 0 ) 1.585127697887342e-05, 0.013001217378071977, 0.2142743919450151, 0.01949390042861853, 0.6817475715843668, 0.032479266529711635, 1.585127697887342e-05, 0.03897194958025819;
    ( 0, 1, 1, 5, 1 ) 0.0003044325377496347, 0.0003044325377496347, 0.0003044325377496347, 0.125, 0.6237822698490014, 0.0003044325377496347, 0.0003044325377496347, 0.24969556746225036;
    ( 0, 1, 1, 6, 0 ) 0.0015860924491801454, 0.011079469953089366, 0.11075993374413617, 0.04430629121677163, 0.5601131355958392, 0.022155077040983455, 0.03797737288083215, 0.21202262711916783;
    ( 0, 1, 1, 6, 1 ) 0.007263040217360541, 1.7688846121189823e-05, 0.007263040217360541, 0.09420725667223276, 0.05073514844479665, 1.7688846121189823e-05, 0.37677596015056747, 0.4637201766054397;
    ( 0, 1, 1, 7, 0 ) 1.2518778167250876e-05, 0.015395593390085128, 0.0820555833750626, 0.04616174261392088, 0.4717601402103155, 0.030778668002003004, 0.025650976464697047, 0.3281847771657486;
    ( 0, 1, 1, 7, 1 ) 5.951814112941625e-05, 0.024438148747738312, 5.951814112941625e-05, 0.097574040567565, 0.024438148747738312, 0.024438148747738312, 0.19508856299400057, 0.6339039139129606;
    ( 0, 1, 2, 0, 0 ) 0.125, 0.125, 0.125, 0.125, 0.125, 0.125, 0.125, 0.125;
    ( 0, 1, 2, 0, 1 ) 0.125, 0.125, 0.125, 0.125, 0.125, 0.125, 0.125, 0.125;
    ( 0, 1, 2, 1, 0 ) 0.0001283631135756829, 0.1052834257547751, 0.26301601971657423, 0.0001283631135756829, 0.6310587389607722, 0.0001283631135756829, 0.0001283631135756829, 0.0001283631135756829;
    ( 0, 1, 2, 1, 1 ) 0.0008085381630012937, 0.0008085381630012937, 0.33198576972833116, 0.0008085381630012937, 0.0008085381630012937, 0.0008085381630012937, 0.33198576972833116, 0.33198576972833116;
    ( 0, 1, 2, 2, 0 ) 0.0001875187518751875, 0.0001875187518751875, 0.5378412841284128, 0.0001875187518751875, 0.38422592259225924, 0.076995199519952, 0.0001875187518751875, 0.0001875187518751875;
    ( 0, 1, 2, 2, 1 ) 0.125, 0.125, 0.125, 0.125, 0.125, 0.125, 0.125, 0.125;
    ( 0, 1, 2, 3, 0 ) 9.38297552919982e-05, 9.38297552919982e-05, 0.15382450082570184, 0.038526497522894464, 0.6918818495721363, 9.38297552919982e-05, 9.38297552919982e-05, 0.11539183305809939;
    ( 0, 1, 2, 3, 1 ) 0.00024366471734892786, 0.00024366471734892786, 0.10004873294346979, 0.10004873294346979, 0.39946393762183235, 0.00024366471734892786, 0.10004873294346979, 0.2996588693957115;
    ( 0, 1, 2, 4, 0 ) 0.0001283631135756829, 0.1052834257547751, 0.05270589443417539, 0.0001283631135756829, 0.841368864243171, 0.0001283631135756829, 0.0001283631135756829, 0.0001283631135756829;
    ( 0, 1, 2, 4, 1 ) 0.0012088974854932303, 0.0012088974854932303, 0.0012088974854932303, 0.0012088974854932303, 0.9915377176015474, 0.0012088974854932303, 0.0012088974854932303, 0.0012088974854932303;
    ( 0, 1, 2, 5, 0 ) 0.0012088974854932303, 0.0012088974854932303, 0.9915377176015474, 0.0012088974854932303, 0.0012088974854932303, 0.0012088974854932303, 0.0012088974854932303, 0.0012088974854932303;
    ( 0, 1, 2, 5, 1 ) 0.125, 0.125, 0.125, 0.125, 0.125, 0.125, 0.125, 0.125;
    ( 0, 1, 2, 6, 0 ) 8.132726089785297e-05, 8.132726089785297e-05, 0.10001626545217956, 0.033392973324658425, 0.7995608327911516, 8.132726089785297e-05, 8.132726089785297e-05, 0.066704619388419;
    ( 0, 1, 2, 6, 1 ) 0.0012088974854932303, 0.0012088974854932303, 0.0012088974854932303, 0.0012088974854932303, 0.0012088974854932303, 0.0012088974854932303, 0.4963733075435203, 0.4963733075435203;
    ( 0, 1, 2, 7, 0 ) 0.00027067994802945, 0.00027067994802945, 0.00027067994802945, 0.11114118666089216, 0.4437527067994803, 0.00027067994802945, 0.00027067994802945, 0.4437527067994803;
    ( 0, 1, 2, 7, 1 ) 0.0023946360153256703, 0.0023946360153256703, 0.0023946360153256703, 0.0023946360153256703, 0.0023946360153256703, 0.0023946360153256703, 0.0023946360153256703, 0.9832375478927203;
    ( 0, 1, 3, 0, 0 ) 0.125, 0.125, 0.125, 0.125, 0.125, 0.125, 0.125, 0.125;
    ( 0, 1, 3, 0, 1 ) 0.125, 0.125, 0.125, 0.125, 0.125, 0.125, 0.125, 0.125;
    ( 0, 1, 3, 1, 0 ) 2.5693730729701953e-05, 0.010549845837615621, 0.12631551901336074, 0.0526464542651593, 0.7051438848920863, 0.04212230215827338, 2.5693730729701953e-05, 0.06317060637204522;
    ( 0, 1, 3, 1, 1 ) 0.00048638132295719845, 0.00048638132295719845, 0.00048638132295719845, 0.3989299610894942, 0.3989299610894942, 0.00048638132295719845, 0.00048638132295719845, 0.1997081712062257;
    ( 0, 1, 3, 2, 0 ) 1.7312539818841584e-05, 0.014199745159413867, 0.21984501814354174, 0.02129096146921138, 0.6949565108999751, 0.02129096146921138, 1.7312539818841584e-05, 0.02838217777900889;
    ( 0, 1, 3, 2, 1 ) 0.00022155264090747962, 0.00022155264090747962, 0.27246543778801846, 0.09096951435661113, 0.45396136121942576, 0.00022155264090747962, 0.00022155264090747962, 0.18171747607231478;
    ( 0, 1, 3, 3, 0 ) 8.845048895430294e-06, 0.010877641131600176, 0.13043439804135237, 0.05072989343485091, 0.6159072897354977, 0.018123505186736673, 0.014500573159168424, 0.15941785426189836;
    ( 0, 1, 3, 3, 1 ) 7.6247407588142e-05, 0.06253812370379407, 7.6247407588142e-05, 0.125, 0.21869281444430888, 7.6247407588142e-05, 0.06253812370379407, 0.5310021959253386;
    ( 0, 1, 3, 4, 0 ) 1.605981961610607e-05, 0.019750366163887246, 0.17762481691805637, 0.03290657039340134, 0.6578262712953208, 0.05264087673767248, 1.605981961610607e-05, 0.05921897885242953;
    ( 0, 1, 3, 4, 1 ) 0.00022155264090747962, 0.00022155264090747962, 0.09096951435661113, 0.00022155264090747962, 0.3632133995037221, 0.00022155264090747962, 0.18171747607231478, 0.3632133995037221;
    ( 0, 1, 3, 5, 0 ) 8.713230168688136e-05, 8.713230168688136e-05, 0.28560225846925974, 8.713230168688136e-05, 0.6424961661787257, 0.03577652307263349, 8.713230168688136e-05, 0.03577652307263349;
    ( 0, 1, 3, 5, 1 ) 0.0012088974854932303, 0.0012088974854932303, 0.0012088974854932303, 0.0012088974854932303, 0.4963733075435203, 0.0012088974854932303, 0.0012088974854932303, 0.4963733075435203;
    ( 0, 1, 3, 6, 0 ) 3.5892723827025784e-05, 0.014737552403376788, 0.11764917016022512, 0.014737552403376788, 0.49989232182851895, 0.014737552403376788, 0.04414087176247631, 0.29406908631482226;
    ( 0, 1, 3, 6, 1 ) 0.00011614941460695038, 0.00011614941460695038, 0.00011614941460695038, 0.047690949637613826, 0.1428405500836276, 0.00011614941460695038, 0.047690949637613826, 0.761312952982717;
    ( 0, 1, 3, 7, 0 ) 0.00011614941460695038, 0.047690949637613826, 0.0952657498606207, 0.047690949637613826, 0.38071455119866193, 0.00011614941460695038, 0.00011614941460695038, 0.42828935142166885;
    ( 0, 1, 3, 7, 1 ) 0.0006073858114674441, 0.0006073858114674441, 0.0006073858114674441, 0.0006073858114674441, 0.24939261418853256, 0.0006073858114674441, 0.0006073858114674441, 0.7469630709426628;
    ( 1, 0, 0, 0, 0 ) 0.125, 0.125, 0.125, 0.125, 0.125, 0.125, 0.125, 0.125;
    ( 1, 0, 0, 0, 1 ) 0.125, 0.125, 0.125, 0.125, 0.125, 0.125, 0.125, 0.125;
    ( 1, 0, 0, 1, 0 ) 2.712085050987199e-05, 0.22220112822738122, 0.26663592970275546, 0.14444022564547623, 0.1555489260143198, 0.1888750271208505, 2.712085050987199e-05, 0.022244521588197005;
    ( 1, 0, 0, 1, 1 ) 1.671972392391857e-05, 0.27395267649340577, 0.2397106818972205, 0.22601388405874642, 0.19862028838179824, 0.04110711323934619, 1.671972392391857e-05, 0.020561916481635054;
    ( 1, 0, 0, 2, 0 ) 3.8135334675697115e-05, 0.15624046616633108, 0.4061641954969797, 0.125, 0.15624046616633108, 0.125, 0.015658368417841236, 0.015658368417841236;
    ( 1, 0, 0, 2, 1 ) 2.6246168059463318e-05, 0.12903141141393357, 0.35479045059421327, 0.17203313316255828, 0.18278356359971445, 0.12903141141393357, 0.010776676605215639, 0.021527107042371815;
    ( 1, 0, 0, 3, 0 ) 0.0014279394826310255, 0.11823380648463974, 0.159543198473155, 0.3689390820011462, 0.22221951735228165, 0.061255334776342804, 0.04131286967843888, 0.027068251751364646;
    ( 1, 0, 0, 3, 1 ) 2.009355559484962e-06, 0.12510287900464562, 0.14567867993377165, 0.4008186114549342, 0.22386672346445047, 0.024692970470510698, 0.051029995659791993, 0.0288081306563359;
    ( 1, 0, 0, 4, 0 ) 1.4192610759134364e-05, 0.15115982015123647, 0.23254592728841655, 0.24998580738924087, 0.24998580738924087, 0.0755870063809978, 0.040707246179349184, 1.4192610759134364e-05;
    ( 1, 0, 0, 4, 1 ) 7.055689143270001e-06, 0.19941776453189736, 0.15028758988947968, 0.28900808299748254, 0.2572179699935652, 0.040467199512310766, 0.03179716869306059, 0.03179716869306059;
    ( 1, 0, 0, 5, 0 ) 0.000152401853206535, 0.3122713972201902, 0.125, 0.06257620092660326, 0.18742379907339674, 0.3122713972201902, 0.000152401853206535, 0.000152401853206535;
    ( 1, 0, 0, 5, 1 ) 0.00011614941460695038, 0.0952657498606207, 0.2855649507526482, 0.2855649507526482, 0.23799015052964134, 0.047690949637613826, 0.047690949637613826, 0.00011614941460695038;
    ( 1, 0, 0, 6, 0 ) 1.0996358006228337e-05, 0.07207672818762426, 0.11711781058113553, 0.35583554726674527, 0.07207672818762426, 0.054060295230219754, 0.25224105776166933, 0.07658083642697538;
    ( 1, 0, 0, 6, 1 ) 7.353200701201219e-06, 0.05120916032330553, 0.05723290233772957, 0.29818258291469113, 0.12048219348918197, 0.018078579243973318, 0.3433606480228714, 0.11144658046754591;
    ( 1, 0, 0, 7, 0 ) 2.6531391942946896e-05, 0.06523008023092923, 0.07609733837076028, 0.31517701744704335, 0.11956637093008447, 0.06523008023092923, 0.17390266162923973, 0.18476991976907076;
    ( 1, 0, 0, 7, 1 ) 0.006111719736121365, 0.048789563933411134, 0.0914674081307009, 0.3292439686584582, 0.19511360118126175, 0.030499059277429803, 0.18291993141060753, 0.11585474767200933;
    ( 1, 0, 1, 0, 0 ) 0.10119324390300607, 0.00596621951503034, 0.02382128658777579, 0.059531420733266685, 0.011917908539278823, 0.011917908539278823, 0.5356665426731453, 0.24998546950921816;
    ( 1, 0, 1, 0, 1 ) 0.3062903566338829, 1.0996358006228337e-05, 1.0996358006228337e-05, 0.045052078751517496, 0.009019212836708482, 0.009019212836708482, 0.5134793356440347, 0.11711781058113553;
    ( 1, 0, 1, 1, 0 ) 0.0001403582560736224, 0.23354772891727382, 0.16087920739768, 0.23130746621146744, 0.23760820507154784, 0.05516681096744235, 0.047605924335345884, 0.033744298843169034;
    ( 1, 0, 1, 1, 1 ) 0.00014210924733183485, 0.20144577642733613, 0.14105467627333484, 0.2811166644239294, 0.21363740697485753, 0.031046475053839537, 0.08562528622588296, 0.04593160537348774;
    ( 1, 0, 1, 2, 0 ) 4.637912597980542e-07, 0.12310031099986717, 0.261967576909577, 0.22986283280733222, 0.24050109120807606, 0.06667954769592213, 0.04597293759447428, 0.031915238993491336;
    ( 1, 0, 1, 2, 1 ) 0.0003804738694888346, 0.1121034109607647, 0.22173629310645548, 0.2665774719390084, 0.23807672268102986, 0.03762145289991413, 0.07771250685613727, 0.04579166768720131;
    ( 1, 0, 1, 3, 0 ) 0.0003298105088712667, 0.06903620437730552, 0.07492465088642741, 0.43181161691128717, 0.20126715918614677, 0.023059214034081777, 0.12052478065306736, 0.07904656344281275;
    ( 1, 0, 1, 3, 1 ) 0.0013818820243114553, 0.051513949101289, 0.053159955357160574, 0.42605149603917836, 0.16100384671407983, 0.008575538994416867, 0.20847385429082063, 0.08983947747874325;
    ( 1, 0, 1, 4, 0 ) 5.948847215985865e-05, 0.08741325346366051, 0.1064032023748563, 0.3209896250713688, 0.34324347145167633, 0.0287817862003435, 0.05732605315748467, 0.055783119808450014;
    ( 1, 0, 1, 4, 1 ) 0.0007547264142964778, 0.07580688186690786, 0.08259814419324624, 0.34809586966907335, 0.29777087448159145, 0.01184131704960102, 0.11527746632767795, 0.06785471999760564;
    ( 1, 0, 1, 5, 0 ) 2.250103504761219e-06, 0.14009189422713444, 0.19723372275124657, 0.2082934314978489, 0.23870763055100536, 0.10783441038287761, 0.0691254297697694, 0.03871123071661296;
    ( 1, 0, 1, 5, 1 ) 0.0018592433545990999, 0.10492144118788468, 0.16527317865782667, 0.22191096305269534, 0.21726852170885363, 0.07520981658729785, 0.15041736635753328, 0.06313946909330945;
    ( 1, 0, 1, 6, 0 ) 0.001639207200485405, 0.031524986378400253, 0.02780975240381486, 0.2861824210187313, 0.08577832956609575, 0.013822989205375735, 0.3962189096189516, 0.15702340460814504;
    ( 1, 0, 1, 6, 1 ) 0.007800664041005838, 0.015312317567276714, 0.012093037484589196, 0.1950141826957569, 0.045936751174381056, 0.002806652630682893, 0.6033262065166238, 0.11771018788968356;
    ( 1, 0, 1, 7, 0 ) 0.0010471692767646274, 0.02901179523996175, 0.029161338694310396, 0.31179846741325457, 0.10602667422951532, 0.014057449805096978, 0.2551214982151171, 0.25377560712597924;
    ( 1, 0, 1, 7, 1 ) 0.0038800981734932434, 0.018069181741774094, 0.01906685168016884, 0.22946435646608335, 0.06617904321547635, 0.003547541527361661, 0.40760386657723435, 0.2521890606184081;
    ( 1, 0, 2, 0, 0 ) 0.125, 0.125, 0.125, 0.125, 0.125, 0.125, 0.125, 0.125;
    ( 1, 0, 2, 0, 1 ) 0.125, 0.125, 0.125, 0.125, 0.125, 0.125, 0.125, 0.125;
    ( 1, 0, 2, 1, 0 ) 9.38297552919982e-05, 0.23068983636090676, 0.23068983636090676, 0.1922571685933043, 0.23068983636090676, 0.11539183305809939, 9.38297552919982e-05, 9.38297552919982e-05;
    ( 1, 0, 2, 1, 1 ) 0.0001283631135756829, 0.31559355103717396, 0.1578609570753748, 0.1578609570753748, 0.1052834257547751, 0.26301601971657423, 0.0001283631135756829, 0.0001283631135756829;
    ( 1, 0, 2, 2, 0 ) 9.75800156128025e-05, 0.23991022638563622, 0.19994145199063232, 0.15997267759562842, 0.27987900078064015, 0.08003512880562061, 0.040066354410616706, 9.75800156128025e-05;
    ( 1, 0, 2, 2, 1 ) 0.00011087457867660103, 0.27259623913429126, 0.4542531488380344, 0.09093932943054817, 0.09093932943054817, 0.09093932943054817, 0.00011087457867660103, 0.00011087457867660103;
    ( 1, 0, 2, 3, 0 ) 2.7425512308569925e-05, 0.13482930361139145, 0.0898953442450305, 0.2583976918688841, 0.3819660801263768, 0.0898953442450305, 0.03372789503707929, 0.011260915353898811;
    ( 1, 0, 2, 3, 1 ) 4.207904127112368e-05, 0.15516225678314147, 0.1379266814784892, 0.27581128391570725, 0.20686898269709822, 0.017277654345923384, 0.17239783208779372, 0.03451322965057564;
    ( 1, 0, 2, 4, 0 ) 3.698006035145849e-05, 0.22724247085971244, 0.24238950357966985, 0.04547807822022366, 0.40900686349920123, 0.04547807822022366, 3.698006035145849e-05, 0.030331045500266256;
    ( 1, 0, 2, 4, 1 ) 5.951814112941625e-05, 0.17070993238739168, 0.19508856299400057, 0.19508856299400057, 0.34136034663365394, 0.0731954099609561, 5.951814112941625e-05, 0.024438148747738312;
    ( 1, 0, 2, 5, 0 ) 0.0006073858114674441, 0.0006073858114674441, 0.49817784256559766, 0.24939261418853256, 0.0006073858114674441, 0.24939261418853256, 0.0006073858114674441, 0.0006073858114674441;
    ( 1, 0, 2, 5, 1 ) 0.0008085381630012937, 0.0008085381630012937, 0.33198576972833116, 0.0008085381630012937, 0.0008085381630012937, 0.663163001293661, 0.0008085381630012937, 0.0008085381630012937;
    ( 1, 0, 2, 6, 0 ) 7.8705452713764e-05, 0.0323164588842715, 0.0323164588842715, 0.22574297947361793, 0.22574297947361793, 0.06455421231582924, 0.1935052260420602, 0.22574297947361793;
    ( 1, 0, 2, 6, 1 ) 9.38297552919982e-05, 9.38297552919982e-05, 0.038526497522894464, 0.23068983636090676, 0.11539183305809939, 9.38297552919982e-05, 0.499718510734124, 0.11539183305809939;
    ( 1, 0, 2, 7, 0 ) 0.00022155264090747962, 0.00022155264090747962, 0.00022155264090747962, 0.09096951435661113, 0.5447093229351294, 0.27246543778801846, 0.00022155264090747962, 0.09096951435661113;
    ( 1, 0, 2, 7, 1 ) 0.0003044325377496347, 0.0003044325377496347, 0.0003044325377496347, 0.125, 0.49908670238675107, 0.0003044325377496347, 0.24969556746225036, 0.125;
    ( 1, 0, 3, 0, 0 ) 0.0012088974854932303, 0.0012088974854932303, 0.0012088974854932303, 0.0012088974854932303, 0.0012088974854932303, 0.0012088974854932303, 0.9915377176015474, 0.0012088974854932303;
    ( 1, 0, 3, 0, 1 ) 0.125, 0.0003044325377496347, 0.125, 0.125, 0.0003044325377496347, 0.0003044325377496347, 0.6237822698490014, 0.0003044325377496347;
    ( 1, 0, 3, 1, 0 ) 2.0260304390813166e-06, 0.22904395675640632, 0.31286002560902476, 0.12946050861468142, 0.14356816376809245, 0.16597443959998054, 0.014109681183850106, 0.004981198437525325;
    ( 1, 0, 3, 1, 1 ) 1.7977696151047165e-06, 0.2724573784779651, 0.30338476872053455, 0.12371135873989295, 0.1465387182046466, 0.11782042726511781, 0.022092790800021862, 0.01399276002220605;
    ( 1, 0, 3, 2, 0 ) 2.4462509736078873e-06, 0.10120287052874247, 0.4408755817184815, 0.12124255850453829, 0.13527034008759536, 0.17735368483676656, 0.006014352643712352, 0.018038165429189842;
    ( 1, 0, 3, 2, 1 ) 1.9118002428751027e-06, 0.12607672589678726, 0.4353907107920359, 0.10884911154819113, 0.13860589996849354, 0.15505044093760803, 0.02349411318469214, 0.01253108587194915;
    ( 1, 0, 3, 3, 0 ) 0.0002013735382027083, 0.12454801302287478, 0.16552816561556152, 0.35476004670532096, 0.19787034486763294, 0.06388131653762281, 0.05845747281212016, 0.03475326690066409;
    ( 1, 0, 3, 3, 1 ) 0.00016626939107662226, 0.12058385905668483, 0.17183597366642717, 0.34781815360473334, 0.1899151985611259, 0.04063719484342979, 0.08624991820161472, 0.04279343267490762;
    ( 1, 0, 3, 4, 0 ) 1.2176471161245702e-06, 0.14912694701773868, 0.22693167538502002, 0.2099742345870228, 0.2678290326037192, 0.09177089725980693, 0.03441484750187518, 0.019951147997701084;
    ( 1, 0, 3, 4, 1 ) 9.592878247189287e-07, 0.1426324776485937, 0.24597156670887532, 0.206679137408388, 0.27622673727025054, 0.06561931621963854, 0.03811461570929742, 0.02475518974713173;
    ( 1, 0, 3, 5, 0 ) 1.3124461897062221e-05, 0.12365605510174082, 0.26880210411373134, 0.08602559795048403, 0.12365605510174082, 0.37094191638142837, 0.021516242834043804, 0.005388904054933748;
    ( 1, 0, 3, 5, 1 ) 1.1249707507604803e-05, 0.17511069712187483, 0.28109194160951817, 0.10599249419515093, 0.12903189517072555, 0.2534446604388286, 0.032266411073312094, 0.02305065068308224;
    ( 1, 0, 3, 6, 0 ) 0.0006376774501350522, 0.06297786982807246, 0.0935118416050214, 0.3008883999234663, 0.10368983219733773, 0.05916112335595385, 0.2964355290393279, 0.08269772660068532;
    ( 1, 0, 3, 6, 1 ) 1.2355172666009043e-06, 0.047571615522841254, 0.06022331233283451, 0.2565776468239299, 0.08147816297362319, 0.01417113594445905, 0.4600169315286215, 0.079959959356424;
    ( 1, 0, 3, 7, 0 ) 4.3209236406374226e-06, 0.06902848352863908, 0.08495713643748487, 0.3061884268381209, 0.14690189774966297, 0.03363147706453731, 0.17521950292094438, 0.18406875453696983;
    ( 1, 0, 3, 7, 1 ) 3.0478735595749558e-06, 0.05867827134364896, 0.0848948605536889, 0.2671625760139666, 0.1548057651137954, 0.024971228073597612, 0.2571753039339514, 0.1523089470937916;
    ( 1, 1, 0, 0, 0 ) 0.125, 0.125, 0.125, 0.125, 0.125, 0.125, 0.125, 0.125;
    ( 1, 1, 0, 0, 1 ) 0.125, 0.125, 0.125, 0.125, 0.125, 0.125, 0.125, 0.125;
    ( 1, 1, 0, 1, 0 ) 0.0012088974854932303, 0.0012088974854932303, 0.0012088974854932303, 0.0012088974854932303, 0.0012088974854932303, 0.0012088974854932303, 0.0012088974854932303, 0.9915377176015474;
    ( 1, 1, 0, 1, 1 ) 0.0023946360153256703, 0.0023946360153256703, 0.0023946360153256703, 0.0023946360153256703, 0.0023946360153256703, 0.0023946360153256703, 0.9832375478927203, 0.0023946360153256703;
    ( 1, 1, 0, 2, 0 ) 0.0003478018920422927, 0.0003478018920422927, 0.0003478018920422927, 0.0003478018920422927, 0.7126460767946577, 0.14280745687256538, 0.0003478018920422927, 0.14280745687256538;
    ( 1, 1, 0, 2, 1 ) 0.0023946360153256703, 0.0023946360153256703, 0.0023946360153256703, 0.0023946360153256703, 0.0023946360153256703, 0.0023946360153256703, 0.9832375478927203, 0.0023946360153256703;
    ( 1, 1, 0, 3, 0 ) 6.59491400232141e-05, 0.0540914846470402, 0.10811702015405719, 0.1351297879075657, 0.5403213042101931, 6.59491400232141e-05, 6.59491400232141e-05, 0.1621425556610742;
    ( 1, 1, 0, 3, 1 ) 8.412976174451474e-05, 0.03454368017229775, 0.06900323058285099, 0.24130098263561717, 0.06900323058285099, 8.412976174451474e-05, 0.13792233140395746, 0.4480582850989366;
    ( 1, 1, 0, 4, 0 ) 0.00016254876462938882, 0.00016254876462938882, 0.06674252275682704, 0.19990247074122236, 0.5328023407022107, 0.00016254876462938882, 0.00016254876462938882, 0.19990247074122236;
    ( 1, 1, 0, 4, 1 ) 0.0004055807916937054, 0.0004055807916937054, 0.0004055807916937054, 0.33265736534717716, 0.16653147306943544, 0.0004055807916937054, 0.0004055807916937054, 0.4987832576249189;
    ( 1, 1, 0, 5, 0 ) 0.0023946360153256703, 0.0023946360153256703, 0.0023946360153256703, 0.9832375478927203, 0.0023946360153256703, 0.0023946360153256703, 0.0023946360153256703, 0.0023946360153256703;
    ( 1, 1, 0, 5, 1 ) 0.0023946360153256703, 0.9832375478927203, 0.0023946360153256703, 0.0023946360153256703, 0.0023946360153256703, 0.0023946360153256703, 0.0023946360153256703, 0.0023946360153256703;
    ( 1, 1, 0, 6, 0 ) 0.030359044126345675, 7.393824677629244e-05, 0.030359044126345675, 0.06064415000591506, 0.42406542056074764, 7.393824677629244e-05, 0.24235478528333138, 0.21206967940376198;
    ( 1, 1, 0, 6, 1 ) 0.047690949637613826, 0.047690949637613826, 0.00011614941460695038, 0.047690949637613826, 0.0952657498606207, 0.00011614941460695038, 0.2855649507526482, 0.4758641516446757;
    ( 1, 1, 0, 7, 0 ) 0.0003044325377496347, 0.0003044325377496347, 0.0003044325377496347, 0.125, 0.24969556746225036, 0.0003044325377496347, 0.0003044325377496347, 0.6237822698490014;
    ( 1, 1, 0, 7, 1 ) 0.0003478018920422927, 0.0003478018920422927, 0.0003478018920422927, 0.14280745687256538, 0.0003478018920422927, 0.0003478018920422927, 0.42772676683361155, 0.42772676683361155;
    ( 1, 1, 1, 0, 0 ) 0.03411108152487463, 0.011388851906093286, 0.06819442595304664, 0.03411108152487463, 0.2726944925220787, 0.03411108152487463, 0.10227777038121866, 0.4431112146629388;
    ( 1, 1, 1, 0, 1 ) 0.25798073290517565, 7.8705452713764e-05, 7.8705452713764e-05, 0.0323164588842715, 7.8705452713764e-05, 7.8705452713764e-05, 0.4191695000629644, 0.2902184863367334;
    ( 1, 1, 1, 1, 0 ) 1.1932467958937037e-06, 0.024927641514297005, 0.18866019385964744, 0.040079012029836894, 0.5899271355776555, 0.03568022704145435, 0.010753778773953237, 0.10997081795635963;
    ( 1, 1, 1, 1, 1 ) 8.418075291265404e-06, 0.024144723550407435, 0.031040810829012055, 0.14137820728668596, 0.23447538554784833, 0.0034564617145935754, 0.12758603272947674, 0.4379099602666846;
    ( 1, 1, 1, 2, 0 ) 1.4202318272816307e-06, 0.026760860228736857, 0.24490846889919535, 0.024433952402918634, 0.5782380149476559, 0.027924314141645968, 0.00756387066573651, 0.09016909848228347;
    ( 1, 1, 1, 2, 1 ) 0.004320504402579255, 0.017250450359445762, 0.021560432345067933, 0.125, 0.29739927942488675, 1.0522416957085375e-05, 0.12069001801437783, 0.41376879303668535;
    ( 1, 1, 1, 3, 0 ) 6.084614372374843e-05, 0.018513024572002358, 0.15028828565026833, 0.05942344648206743, 0.5285579434299799, 0.03350541954497872, 0.018877212304139433, 0.19077382187284014;
    ( 1, 1, 1, 3, 1 ) 0.002501849060032653, 0.007254202031669977, 0.005503335147382542, 0.1470734289340523, 0.11430720581381602, 0.005253211306770051, 0.1580788779210019, 0.5600278897852745;
    ( 1, 1, 1, 4, 0 ) 4.2173052566517027e-07, 0.019520134764832938, 0.17066835516322995, 0.0409399968555772, 0.598201892861553, 0.030575547456829978, 0.00950116701271062, 0.1305924841547407;
    ( 1, 1, 1, 4, 1 ) 0.0009179702171650146, 0.004580908365735789, 0.013738253737162726, 0.1336994781028556, 0.23900894987426535, 0.012822519200020031, 0.10531170745143209, 0.4899202130513634;
    ( 1, 1, 1, 5, 0 ) 5.868489497751195e-06, 0.019235734875728865, 0.22114933193115557, 0.028850668068844423, 0.5648831935850368, 0.04086933456023887, 0.016832001577449976, 0.10817386691204778;
    ( 1, 1, 1, 5, 1 ) 3.537268662629464e-05, 0.029012677570886863, 0.01452402512875658, 0.11594459222366857, 0.26083111664497144, 3.537268662629464e-05, 0.18838785443432, 0.39122898862414396;
    ( 1, 1, 1, 6, 0 ) 0.0008726849902319647, 0.013335266818521927, 0.11665007017504572, 0.05047376066682602, 0.41076700132268884, 0.03040900392327918, 0.06231321340370148, 0.31517899869970484;
    ( 1, 1, 1, 6, 1 ) 0.020346809598428495, 0.0018227773474430405, 0.0012154320277385996, 0.05314345686246831, 0.027331280775029568, 0.004555831286113025, 0.39598988983562533, 0.49559452226715367;
    ( 1, 1, 1, 7, 0 ) 0.0006298927661707803, 0.011325014222889574, 0.09405492431456731, 0.04183756661411672, 0.35388346323367686, 0.03397350671947055, 0.037433693073114865, 0.42686193905599334;
    ( 1, 1, 1, 7, 1 ) 0.008559759199113327, 0.00263488475553464, 0.0019765653729147863, 0.04674228339106486, 0.040159089564866315, 0.003293204138154494, 0.20144733830673053, 0.695186875271621;
    ( 1, 1, 2, 0, 0 ) 0.125, 0.125, 0.125, 0.125, 0.125, 0.125, 0.125, 0.125;
    ( 1, 1, 2, 0, 1 ) 0.125, 0.125, 0.125, 0.125, 0.125, 0.125, 0.125, 0.125;
    ( 1, 1, 2, 1, 0 ) 0.00048638132295719845, 0.00048638132295719845, 0.1997081712062257, 0.1997081712062257, 0.3989299610894942, 0.1997081712062257, 0.00048638132295719845, 0.00048638132295719845;
    ( 1, 1, 2, 1, 1 ) 0.125, 0.125, 0.125, 0.125, 0.125, 0.125, 0.125, 0.125;
    ( 1, 1, 2, 2, 0 ) 0.0003044325377496347, 0.125, 0.24969556746225036, 0.0003044325377496347, 0.49908670238675107, 0.125, 0.0003044325377496347, 0.0003044325377496347;
    ( 1, 1, 2, 2, 1 ) 0.0012088974854932303, 0.0012088974854932303, 0.0012088974854932303, 0.4963733075435203, 0.0012088974854932303, 0.0012088974854932303, 0.0012088974854932303, 0.4963733075435203;
    ( 1, 1, 2, 3, 0 ) 0.000152401853206535, 0.06257620092660326, 0.06257620092660326, 0.125, 0.37469519629358694, 0.125, 0.000152401853206535, 0.24984759814679347;
    ( 1, 1, 2, 3, 1 ) 0.00048638132295719845, 0.00048638132295719845, 0.00048638132295719845, 0.1997081712062257, 0.00048638132295719845, 0.00048638132295719845, 0.3989299610894942, 0.3989299610894942;
    ( 1, 1, 2, 4, 0 ) 0.0001875187518751875, 0.0001875187518751875, 0.1538028802880288, 0.0001875187518751875, 0.5378412841284128, 0.0001875187518751875, 0.0001875187518751875, 0.3074182418241824;
    ( 1, 1, 2, 4, 1 ) 0.0006073858114674441, 0.0006073858114674441, 0.0006073858114674441, 0.0006073858114674441, 0.49817784256559766, 0.0006073858114674441, 0.0006073858114674441, 0.49817784256559766;
    ( 1, 1, 2, 5, 0 ) 0.0008085381630012937, 0.0008085381630012937, 0.33198576972833116, 0.0008085381630012937, 0.663163001293661, 0.0008085381630012937, 0.0008085381630012937, 0.0008085381630012937;
    ( 1, 1, 2, 5, 1 ) 0.125, 0.125, 0.125, 0.125, 0.125, 0.125, 0.125, 0.125;
    ( 1, 1, 2, 6, 0 ) 0.00027067994802945, 0.11114118666089216, 0.00027067994802945, 0.11114118666089216, 0.11114118666089216, 0.00027067994802945, 0.11114118666089216, 0.554623213512343;
    ( 1, 1, 2, 6, 1 ) 0.0008085381630012937, 0.0008085381630012937, 0.0008085381630012937, 0.0008085381630012937, 0.0008085381630012937, 0.0008085381630012937, 0.33198576972833116, 0.663163001293661;
    ( 1, 1, 2, 7, 0 ) 0.00048638132295719845, 0.1997081712062257, 0.00048638132295719845, 0.00048638132295719845, 0.1997081712062257, 0.00048638132295719845, 0.00048638132295719845, 0.5981517509727626;
    ( 1, 1, 2, 7, 1 ) 0.0003478018920422927, 0.0003478018920422927, 0.0003478018920422927, 0.0003478018920422927, 0.0003478018920422927, 0.0003478018920422927, 0.14280745687256538, 0.8551057317751809;
    ( 1, 1, 3, 0, 0 ) 0.0023946360153256703, 0.0023946360153256703, 0.0023946360153256703, 0.0023946360153256703, 0.0023946360153256703, 0.0023946360153256703, 0.0023946360153256703, 0.9832375478927203;
    ( 1, 1, 3, 0, 1 ) 0.0023946360153256703, 0.0023946360153256703, 0.0023946360153256703, 0.0023946360153256703, 0.0023946360153256703, 0.0023946360153256703, 0.0023946360153256703, 0.9832375478927203;
    ( 1, 1, 3, 1, 0 ) 3.698006035145849e-05, 0.04547807822022366, 0.15150730725992545, 0.07577214366013846, 0.5453301579788178, 0.07577214366013846, 3.698006035145849e-05, 0.10606620910005325;
    ( 1, 1, 3, 1, 1 ) 0.00016254876462938882, 0.06674252275682704, 0.06674252275682704, 0.26648244473342003, 0.26648244473342003, 0.00016254876462938882, 0.00016254876462938882, 0.3330624187256177;
    ( 1, 1, 3, 2, 0 ) 3.0133551902029795e-05, 0.037058242129116244, 0.2098560821561159, 0.049400944988187645, 0.5677944650691866, 3.0133551902029795e-05, 0.02471553927004484, 0.11111445928354467;
    ( 1, 1, 3, 2, 1 ) 0.040066354410616706, 0.040066354410616706, 0.12000390320062451, 0.15997267759562842, 0.27987900078064015, 9.75800156128025e-05, 0.12000390320062451, 0.23991022638563622;
    ( 1, 1, 3, 3, 0 ) 5.1180425329806665e-06, 0.010486869150077386, 0.08176277668137934, 0.10901532956099479, 0.4297569134518536, 0.016775919814604027, 0.03354672158667507, 0.3186503517118829;
    ( 1, 1, 3, 3, 1 ) 0.008743539886404339, 0.013109979702877415, 0.017476419519350493, 0.16593537327943508, 0.17030181309590817, 0.004377100069931262, 0.10480521584881203, 0.5152505585972812;
    ( 1, 1, 3, 4, 0 ) 1.4110581807509087e-05, 0.0231328878152304, 0.11560799674892196, 0.10404860813221051, 0.5953226243424469, 0.02891258212358612, 0.017353193506874677, 0.11560799674892196;
    ( 1, 1, 3, 4, 1 ) 2.712085050987199e-05, 0.022244521588197005, 0.04446192232588414, 0.1222228249077891, 0.42215773486656544, 2.712085050987199e-05, 0.055570622694727706, 0.33328813191581685;
    ( 1, 1, 3, 5, 0 ) 0.0001283631135756829, 0.0001283631135756829, 0.05270589443417539, 0.05270589443417539, 0.7362138016019717, 0.0001283631135756829, 0.1052834257547751, 0.05270589443417539;
    ( 1, 1, 3, 5, 1 ) 0.0023946360153256703, 0.0023946360153256703, 0.0023946360153256703, 0.0023946360153256703, 0.9832375478927203, 0.0023946360153256703, 0.0023946360153256703, 0.0023946360153256703;
    ( 1, 1, 3, 6, 0 ) 9.687369220515522e-06, 0.015881473100113147, 0.055560937427344734, 0.07540066959096052, 0.2460223661980563, 0.01191352666738999, 0.10714424105274578, 0.48806709859416897;
    ( 1, 1, 3, 6, 1 ) 0.004396296232847378, 0.013167474688640296, 0.004396296232847378, 0.09210808079077656, 0.057023366967604884, 1.0707004950919089e-05, 0.3552434344645641, 0.4736543436177685;
    ( 1, 1, 3, 7, 0 ) 2.4907344677798588e-05, 0.0102269557247041, 0.020429004104730402, 0.061237197624835614, 0.17345972980512495, 0.020429004104730402, 0.061237197624835614, 0.6529560036663611;
    ( 1, 1, 3, 7, 1 ) 3.5892723827025784e-05, 3.5892723827025784e-05, 3.5892723827025784e-05, 0.11764917016022512, 0.07354419112157583, 3.5892723827025784e-05, 0.17645580887842416, 0.6322072589444668;

}
probability ( REDES_FAM_SOC | VINCULO_AFECTIVO ) {
    ( 0 ) 0.7598950151346795, 0.2401049848653205;
    ( 1 ) 0.03927289696612254, 0.9607271030338774;

}
probability ( SEGURO_VICTIMA ) {
    table 0.11556208605640599, 0.8844379139435941 ;
}
probability ( SEXO_AGRESOR ) {
    table 0.9592277439068965, 0.0407722560931035 ;
}
probability ( TRABAJA_VICTIMA ) {
    table 0.5346564907817595, 0.4653435092182406 ;
}
probability ( TRATAMIENTO_VICTIMA ) {
    table 0.9389724695527581, 0.06102753044724184 ;
}
probability ( VINCULO_AFECTIVO ) {
    table 0.0381581063496937, 0.9618418936503063 ;
}
probability ( VINCULO_AGRESOR_VICTIMA | EDAD_VICTIMA, ESTUDIA, SEXO_AGRESOR, VIOLENCIA_PSICOLOGICA, VIOLENCIA_SEXUAL ) {
    ( 0, 0, 0, 0, 0 ) 0.22671037545685205, 0.22949184392319505, 0.5437977806199529;
    ( 0, 0, 0, 0, 1 ) 0.35725109331515875, 0.10229794967910491, 0.5404509570057363;
    ( 0, 0, 0, 1, 0 ) 0.028025084263250483, 0.6084036381086867, 0.3635712776280629;
    ( 0, 0, 0, 1, 1 ) 0.1977743036293644, 0.32203674752466926, 0.4801889488459664;
    ( 0, 0, 1, 0, 0 ) 0.008977700550246163, 0.00013163783798014902, 0.9908906616117737;
    ( 0, 0, 1, 0, 1 ) 0.7991681521093286, 0.0005941770647653, 0.20023767082590613;
    ( 0, 0, 1, 1, 0 ) 0.009606230082037774, 2.8505133774592802e-05, 0.9903652647841876;
    ( 0, 0, 1, 1, 1 ) 0.7454010301692421, 0.0036791758646063273, 0.25091979396615155;
    ( 0, 1, 0, 0, 0 ) 0.3053172291858763, 0.022088731052825376, 0.6725940397612983;
    ( 0, 1, 0, 0, 1 ) 0.39734727279548876, 0.03536563558110085, 0.5672870916234104;
    ( 0, 1, 0, 1, 0 ) 0.027331256089634475, 0.09985133936727879, 0.8728174045430868;
    ( 0, 1, 0, 1, 1 ) 0.29874456626004275, 0.08806753045000022, 0.613187903289957;
    ( 0, 1, 1, 0, 0 ) 0.021836256456412625, 4.054262245899113e-05, 0.9781232009211284;
    ( 0, 1, 1, 0, 1 ) 0.6661713719663199, 0.0004952947003467063, 0.3333333333333333;
    ( 0, 1, 1, 1, 0 ) 0.006450151319581658, 4.567448887963219e-06, 0.9935452812315304;
    ( 0, 1, 1, 1, 1 ) 0.1440642163075623, 0.1440642163075623, 0.7118715673848753;
    ( 1, 0, 0, 0, 0 ) 0.0681515461227578, 0.8307725087649136, 0.10107594511232879;
    ( 1, 0, 0, 0, 1 ) 0.31693447607762215, 0.5606291222729579, 0.12243640164941993;
    ( 1, 0, 0, 1, 0 ) 0.014802918164310282, 0.8967527414642068, 0.08844434037148294;
    ( 1, 0, 0, 1, 1 ) 0.08708347692743355, 0.8814861121129304, 0.03143041095963603;
    ( 1, 0, 1, 0, 0 ) 0.035038566635536644, 0.00017294455397599527, 0.9647884888104873;
    ( 1, 0, 1, 0, 1 ) 0.49636098981077154, 0.0072780203784570605, 0.49636098981077154;
    ( 1, 0, 1, 1, 0 ) 0.010650168163155388, 0.0016682656274906416, 0.987681566209354;
    ( 1, 0, 1, 1, 1 ) 0.4981604120676968, 0.0036791758646063273, 0.4981604120676968;
    ( 1, 1, 0, 0, 0 ) 0.10621423099454735, 0.7572889910324005, 0.13649677797305215;
    ( 1, 1, 0, 0, 1 ) 0.5765055422237458, 0.3077362587132899, 0.11575819906296424;
    ( 1, 1, 0, 1, 0 ) 0.017951536380512226, 0.9096266601446282, 0.07242180347485971;
    ( 1, 1, 0, 1, 1 ) 0.15234955723611923, 0.8256092043177559, 0.022041238446125013;
    ( 1, 1, 1, 0, 0 ) 0.6617790811339198, 0.004887585532746822, 0.33333333333333326;
    ( 1, 1, 1, 0, 1 ) 0.33333333333333337, 0.33333333333333337, 0.33333333333333337;
    ( 1, 1, 1, 1, 0 ) 0.01974509289234987, 0.00014582786478840377, 0.9801090792428616;
    ( 1, 1, 1, 1, 1 ) 0.33333333333333337, 0.33333333333333337, 0.33333333333333337;
    ( 2, 0, 0, 0, 0 ) 0.05813976796420612, 0.8830115068400659, 0.058848725195728126;
    ( 2, 0, 0, 0, 1 ) 0.3428894190241189, 0.44036149307013145, 0.2167490879057497;
    ( 2, 0, 0, 1, 0 ) 0.007705469606378305, 0.9565728531802089, 0.035721677213412725;
    ( 2, 0, 0, 1, 1 ) 0.08154345836878002, 0.8929027693728933, 0.025553772258326682;
    ( 2, 0, 1, 0, 0 ) 0.08602972399150745, 0.0004246284501061571, 0.9135456475583864;
    ( 2, 0, 1, 0, 1 ) 0.9902248289345063, 0.004887585532746822, 0.004887585532746822;
    ( 2, 0, 1, 1, 0 ) 0.029343328123167232, 0.0009301919577949267, 0.9697264799190378;
    ( 2, 0, 1, 1, 1 ) 0.014245014245014247, 0.9715099715099716, 0.014245014245014247;
    ( 2, 1, 0, 0, 0 ) 0.11697443096600793, 0.7862087997792255, 0.09681676925476644;
    ( 2, 1, 0, 0, 1 ) 0.38459582475144305, 0.36750832761207314, 0.24789584763648387;
    ( 2, 1, 0, 1, 0 ) 0.012294815227316404, 0.9333557470607016, 0.05434943771198207;
    ( 2, 1, 0, 1, 1 ) 0.03275455103954474, 0.9236266045849906, 0.04361884437546481;
    ( 2, 1, 1, 0, 0 ) 0.0036791758646063273, 0.0036791758646063273, 0.9926416482707873;
    ( 2, 1, 1, 0, 1 ) 0.014245014245014247, 0.014245014245014247, 0.9715099715099716;
    ( 2, 1, 1, 1, 0 ) 0.02249161837518595, 0.00011101489819933834, 0.9773973667266148;
    ( 2, 1, 1, 1, 1 ) 0.33333333333333337, 0.33333333333333337, 0.33333333333333337;
    ( 3, 0, 0, 0, 0 ) 0.054007840914458455, 0.26667611355155635, 0.6793160455339852;
    ( 3, 0, 0, 0, 1 ) 0.5301698886936146, 0.24248569239781897, 0.22734441890856658;
    ( 3, 0, 0, 1, 0 ) 0.03393301683293149, 0.38377645907272717, 0.5822905240943415;
    ( 3, 0, 0, 1, 1 ) 0.25589435110281405, 0.5114429924635275, 0.23266265643365827;
    ( 3, 0, 1, 0, 0 ) 0.00012713911562031174, 0.00012713911562031174, 0.9997457217687594;
    ( 3, 0, 1, 0, 1 ) 0.33333333333333337, 0.33333333333333337, 0.33333333333333337;
    ( 3, 0, 1, 1, 0 ) 0.006025060939219777, 0.0003818148634591979, 0.993593124197321;
    ( 3, 0, 1, 1, 1 ) 0.33333333333333337, 0.33333333333333337, 0.33333333333333337;
    ( 3, 1, 0, 0, 0 ) 0.33333333333333337, 0.33333333333333337, 0.33333333333333337;
    ( 3, 1, 0, 0, 1 ) 0.33333333333333337, 0.33333333333333337, 0.33333333333333337;
    ( 3, 1, 0, 1, 0 ) 0.10380161901834205, 0.5169587047853264, 0.3792396761963316;
    ( 3, 1, 0, 1, 1 ) 0.33333333333333337, 0.33333333333333337, 0.33333333333333337;
    ( 3, 1, 1, 0, 0 ) 0.33333333333333337, 0.33333333333333337, 0.33333333333333337;
    ( 3, 1, 1, 0, 1 ) 0.33333333333333337, 0.33333333333333337, 0.33333333333333337;
    ( 3, 1, 1, 1, 0 ) 0.10103703703703702, 0.0014814814814814814, 0.8974814814814814;
    ( 3, 1, 1, 1, 1 ) 0.33333333333333337, 0.33333333333333337, 0.33333333333333337;
    ( 4, 0, 0, 0, 0 ) 0.23293810862567738, 0.0002037240761113148, 0.7668581672982112;
    ( 4, 0, 0, 0, 1 ) 0.23094503485315965, 0.0005713632727688264, 0.7684836018740715;
    ( 4, 0, 0, 1, 0 ) 0.011332237026098823, 5.59340425769932e-05, 0.9886118289313242;
    ( 4, 0, 0, 1, 1 ) 0.3333333333333333, 0.004887585532746823, 0.6617790811339199;
    ( 4, 0, 1, 0, 0 ) 0.0010595465140919686, 0.0010595465140919686, 0.9978809069718161;
    ( 4, 0, 1, 0, 1 ) 0.33333333333333337, 0.33333333333333337, 0.33333333333333337;
    ( 4, 0, 1, 1, 0 ) 0.00020655182385260465, 0.00020655182385260465, 0.9995868963522949;
    ( 4, 0, 1, 1, 1 ) 0.33333333333333337, 0.33333333333333337, 0.33333333333333337;
    ( 4, 1, 0, 0, 0 ) 0.2863738076682937, 2.2787036910442385e-05, 0.7136034052947958;
    ( 4, 1, 0, 0, 1 ) 0.36712759205501966, 5.202318152968962e-05, 0.6328203847634506;
    ( 4, 1, 0, 1, 0 ) 0.016365325661931662, 4.968524397939056e-06, 0.9836297058136704;
    ( 4, 1, 0, 1, 1 ) 0.2750650315867707, 0.00037160906726124113, 0.7245633593459679;
    ( 4, 1, 1, 0, 0 ) 0.00017919220155538832, 0.00017919220155538832, 0.9996416155968894;
    ( 4, 1, 1, 0, 1 ) 0.49636098981077154, 0.0072780203784570605, 0.49636098981077154;
    ( 4, 1, 1, 1, 0 ) 0.004246044220894897, 2.0957770093262074e-05, 0.9957329980090118;
    ( 4, 1, 1, 1, 1 ) 0.007278020378457059, 0.007278020378457059, 0.9854439592430859;
    ( 5, 0, 0, 0, 0 ) 0.08438948281510925, 0.7851502568388113, 0.13046026034607927;
    ( 5, 0, 0, 0, 1 ) 0.32318315631915756, 0.23281383838649605, 0.4440030052943464;
    ( 5, 0, 0, 1, 0 ) 0.005351293349821008, 0.9426045832164025, 0.05204412343377645;
    ( 5, 0, 0, 1, 1 ) 0.10696988504649595, 0.7557596108449904, 0.13727050410851355;
    ( 5, 0, 1, 0, 0 ) 0.0971143706260186, 0.0004793404275716614, 0.9024062889464097;
    ( 5, 0, 1, 0, 1 ) 0.7476877543470218, 0.0018497965223825377, 0.2504624491305956;
    ( 5, 0, 1, 1, 0 ) 0.022111772930281076, 0.0014945717679337653, 0.9763936553017851;
    ( 5, 0, 1, 1, 1 ) 0.0072780203784570605, 0.49636098981077154, 0.49636098981077154;
    ( 5, 1, 0, 0, 0 ) 0.22964569948227703, 0.42055554893336355, 0.34979875158435947;
    ( 5, 1, 0, 0, 1 ) 0.37042430511135005, 0.20122850234313686, 0.4283471925455131;
    ( 5, 1, 0, 1, 0 ) 0.016438398773899555, 0.7807106914771031, 0.20285090974899717;
    ( 5, 1, 0, 1, 1 ) 0.18044755287657788, 0.6133376278777283, 0.20621481924569396;
    ( 5, 1, 1, 0, 0 ) 0.0009891196834817012, 0.26686449060336304, 0.7321463897131553;
    ( 5, 1, 1, 0, 1 ) 0.37476877543470216, 0.0018497965223825377, 0.6233814280429153;
    ( 5, 1, 1, 1, 0 ) 0.008921072644909565, 0.0022550672882981184, 0.9888238600667922;
    ( 5, 1, 1, 1, 1 ) 0.49636098981077154, 0.0072780203784570605, 0.49636098981077154;
    ( 6, 0, 0, 0, 0 ) 0.0626887866536549, 0.00023235280449835028, 0.9370788605418466;
    ( 6, 0, 0, 0, 1 ) 0.07226107226107226, 0.0010595465140919686, 0.9266793812248357;
    ( 6, 0, 0, 1, 0 ) 0.001835079618777008, 2.690732578851918e-05, 0.9981380130554345;
    ( 6, 0, 0, 1, 1 ) 0.33333333333333337, 0.33333333333333337, 0.33333333333333337;
    ( 6, 0, 1, 0, 0 ) 0.0006457445434586077, 0.0006457445434586077, 0.9987085109130828;
    ( 6, 0, 1, 0, 1 ) 0.33333333333333337, 0.33333333333333337, 0.33333333333333337;
    ( 6, 0, 1, 1, 0 ) 0.009945460378569138, 0.00014582786478840377, 0.9899087117566425;
    ( 6, 0, 1, 1, 1 ) 0.33333333333333337, 0.33333333333333337, 0.33333333333333337;
    ( 6, 1, 0, 0, 0 ) 0.10600174978127734, 0.00017497812773403323, 0.8938232720909886;
    ( 6, 1, 0, 0, 1 ) 0.2502318679280282, 0.0009274717121127804, 0.748840660359859;
    ( 6, 1, 0, 1, 0 ) 0.0014456074306765526, 2.1196589892618075e-05, 0.9985331959794308;
    ( 6, 1, 0, 1, 1 ) 0.002949852507374631, 0.002949852507374631, 0.9941002949852507;
    ( 6, 1, 1, 0, 0 ) 0.0008246742536698004, 0.0008246742536698004, 0.9983506514926603;
    ( 6, 1, 1, 0, 1 ) 0.014245014245014247, 0.014245014245014247, 0.9715099715099716;
    ( 6, 1, 1, 1, 0 ) 0.0074599111811161425, 0.00010938286189319857, 0.9924307059569907;
    ( 6, 1, 1, 1, 1 ) 0.33333333333333337, 0.33333333333333337, 0.33333333333333337;

}
probability ( VIOLENCIA_PSICOLOGICA ) {
    table 0.08110735850987616, 0.9188926414901238 ;
}
probability ( VIOLENCIA_SEXUAL | VIOLENCIA_PSICOLOGICA ) {
    ( 0 ) 0.5864713835060839, 0.4135286164939162;
    ( 1 ) 0.987423129857835, 0.012576870142165013;

}
