network unknown {
}
variable AGRESOR_VIVE_CASA_VICTIMA {
    type discrete [ 3 ] { 0, 1, 2 };
}
variable AREA_RESIDENCIA_DOMICILIO {
    type discrete [ 2 ] { 0, 1 };
}
variable CONDICION {
    type discrete [ 5 ] { 0, 1, 2, 3, 4 };
}
variable EDAD_AGRESOR {
    type discrete [ 5 ] { 0, 1, 2, 3, 4 };
}
variable EDAD_VICTIMA {
    type discrete [ 7 ] { 0, 1, 2, 3, 4, 5, 6 };
}
variable ESTADO_AGRESOR_G {
    type discrete [ 4 ] { 0, 1, 2, 3 };
}
variable ESTADO_AGRESOR_U_A {
    type discrete [ 4 ] { 0, 1, 2, 3 };
}
variable ESTADO_CIVIL_VICTIMA {
    type discrete [ 4 ] { 0, 1, 2, 3 };
}
variable ESTADO_VICTIMA_G {
    type discrete [ 4 ] { 0, 1, 2, 3 };
}
variable ESTADO_VICTIMA_U_A {
    type discrete [ 4 ] { 0, 1, 2, 3 };
}
variable ESTUDIA {
    type discrete [ 2 ] { 0, 1 };
}
variable ETNIA_VICTIMA {
    type discrete [ 5 ] { 0, 1, 2, 3, 4 };
}
variable HIJOS_VIVIENTES {
    type discrete [ 2 ] { 0, 1 };
}
variable LENGUA_MATERNA_VICTIMA {
    type discrete [ 4 ] { 0, 1, 2, 3 };
}
variable NIVEL_DE_RIESGO_VICTIMA {
    type discrete [ 3 ] { 0, 1, 2 };
}
variable NIVEL_EDUCATIVO_AGRESOR {
    type discrete [ 8 ] { 0, 1, 2, 3, 4, 5, 6, 7 };
}
variable NIVEL_EDUCATIVO_VICTIMA {
    type discrete [ 8 ] { 0, 1, 2, 3, 4, 5, 6, 7 };
}
variable REDES_FAM_SOC {
    type discrete [ 2 ] { 0, 1 };
}
variable SEGURO_VICTIMA {
    type discrete [ 2 ] { 0, 1 };
}
variable SEXO_AGRESOR {
    type discrete [ 2 ] { 0, 1 };
}
variable TRABAJA_VICTIMA {
    type discrete [ 2 ] { 0, 1 };
}
variable VINCULO_AFECTIVO {
    type discrete [ 2 ] { 0, 1 };
}
variable VINCULO_AGRESOR_VICTIMA {
    type discrete [ 3 ] { 0, 1, 2 };
}
variable VIOLENCIA_FISICA {
    type discrete [ 2 ] { 0, 1 };
}
variable VIOLENCIA_PSICOLOGICA {
    type discrete [ 2 ] { 0, 1 };
}
variable VIOLENCIA_SEXUAL {
    type discrete [ 2 ] { 0, 1 };
}
probability ( AGRESOR_VIVE_CASA_VICTIMA | ESTADO_AGRESOR_U_A ) {
    ( 0 ) 0.015331719468126162, 0.5971652106795776, 0.3875030698522962;
    ( 1 ) 0.011062156139524014, 0.4734076021156676, 0.5155302417448083;
    ( 2 ) 0.008808911739503, 0.6722536418166238, 0.3189374464438732;
    ( 3 ) 0.012558123564417987, 0.6233285804386759, 0.3641132959969061;

}
probability ( AREA_RESIDENCIA_DOMICILIO | NIVEL_EDUCATIVO_VICTIMA ) {
    ( 0 ) 0.017669736560291284, 0.9823302634397088;
    ( 1 ) 0.27861479920327564, 0.7213852007967244;
    ( 2 ) 0.27551233195545494, 0.724487668044545;
    ( 3 ) 0.11413185147359402, 0.8858681485264059;
    ( 4 ) 0.1734929053622093, 0.8265070946377907;
    ( 5 ) 0.3202802777360583, 0.6797197222639417;
    ( 6 ) 0.05461186917206717, 0.9453881308279328;
    ( 7 ) 0.06154192175541469, 0.9384580782445853;

}
probability ( CONDICION | SEXO_AGRESOR ) {
    ( 0 ) 0.0028914024597497573, 0.04092927266824472, 0.7256597107378182, 0.15770718034151165, 0.07281243379267562;
    ( 1 ) 0.0023308351561659555, 0.04837379424104422, 0.6109298239322982, 0.07110840176426292, 0.2672571449062287;

}
probability ( EDAD_AGRESOR ) {
    table 0.002619997953126599, 0.5390002485489129, 0.30620348845709605, 0.04549029928213226, 0.10668596575873211 ;
}
probability ( EDAD_VICTIMA | EDAD_AGRESOR ) {
    ( 0 ) 0.6006058673469389, 0.07828443877551022, 0.02248086734693878, 0.006855867346938778, 0.014668367346938778, 0.27582908163265313, 0.001275510204081633;
    ( 1 ) 0.1059195077152002, 0.5533995706458136, 0.22522727096589185, 0.04119862668661018, 0.015760553665398233, 0.05491316040331391, 0.003581309917771697;
    ( 2 ) 0.07390531486905524, 0.116410352255535, 0.5310230703433336, 0.014382983251457331, 0.017715775443747025, 0.23918888869183477, 0.007373615145037169;
    ( 3 ) 0.09533604532640337, 0.4942561456028063, 0.06763147503650171, 0.2863754488103656, 0.012929411656672697, 0.041469618637453055, 0.0020018549297973354;
    ( 4 ) 0.14063705240901347, 0.05232678791675639, 0.12992031950508034, 0.00866500910354549, 0.006883455040231798, 0.6545742868889368, 0.006993089136435717;

}
probability ( ESTADO_AGRESOR_G ) {
    table 0.007287600333347954, 0.20167331900521954, 0.00763264470663918, 0.7834064359547933 ;
}
probability ( ESTADO_AGRESOR_U_A | ESTADO_AGRESOR_G ) {
    ( 0 ) 0.543810813521918, 0.18108636773999398, 0.05028087069916742, 0.22482194803892067;
    ( 1 ) 0.004281799497602192, 0.7953879808755351, 0.0020054227064960108, 0.1983247969203667;
    ( 2 ) 0.06907863231491236, 0.07635762857963796, 0.5537065415190116, 0.3008571975864381;
    ( 3 ) 0.002031674431928992, 0.1907681404335172, 0.0026960685968312505, 0.8045041165377226;

}
probability ( ESTADO_CIVIL_VICTIMA | EDAD_VICTIMA ) {
    ( 0 ) 5.188659665435225e-06, 5.188659665435225e-06, 0.9999844340210036, 5.188659665435225e-06;
    ( 1 ) 0.3035535316186639, 0.0193367409900273, 0.6689301403467091, 0.008179587044599784;
    ( 2 ) 0.14539344944833807, 0.005927763513982376, 0.8478707237526889, 0.0008080632849906323;
    ( 3 ) 0.40324930000823517, 0.03517715968047435, 0.3503587457794614, 0.21121479453182904;
    ( 4 ) 3.417167851284855e-05, 3.417167851284855e-05, 0.9998974849644614, 3.417167851284855e-05;
    ( 5 ) 0.03667071014237165, 0.0005868600544320148, 0.962539263022931, 0.00020316678026529648;
    ( 6 ) 0.00010383784681840838, 0.00010383784681840838, 0.9996884864595448, 0.00010383784681840838;

}
probability ( ESTADO_VICTIMA_G | ESTADO_VICTIMA_U_A ) {
    ( 0 ) 0.260752688172043, 0.02849462365591398, 0.02849462365591398, 0.682258064516129;
    ( 1 ) 0.0007066297260235636, 0.11231214843422047, 0.0007066297260235636, 0.8862745921137324;
    ( 2 ) 0.0021968365553602814, 0.03031634446397188, 0.2623022847100176, 0.7051845342706503;
    ( 3 ) 0.0002623625929912941, 0.0015634707134234243, 0.00011211916107072485, 0.9980620475325146;

}
probability ( ESTADO_VICTIMA_U_A | ESTADO_AGRESOR_U_A ) {
    ( 0 ) 0.028760130512577625, 0.03423323860646248, 0.004341648247552889, 0.932664982633407;
    ( 1 ) 0.00014362122452042235, 0.07229892442358062, 8.73451528716038e-05, 0.9274701091990274;
    ( 2 ) 0.0021850899742930593, 0.02480719794344473, 0.027275064267352184, 0.9457326478149101;
    ( 3 ) 0.00011846092957945015, 0.0046985887697954445, 0.0002442409554944727, 0.9949387093451306;

}
probability ( ESTUDIA | EDAD_VICTIMA ) {
    ( 0 ) 0.20575941222863312, 0.794240587771367;
    ( 1 ) 0.9723948668326668, 0.02760513316733309;
    ( 2 ) 0.9191305252931788, 0.08086947470682118;
    ( 3 ) 0.9971640039528946, 0.002835996047105328;
    ( 4 ) 0.08694641880809184, 0.9130535811919082;
    ( 5 ) 0.7898135393678832, 0.2101864606321168;
    ( 6 ) 0.4398155839840505, 0.5601844160159495;

}
probability ( ETNIA_VICTIMA | AREA_RESIDENCIA_DOMICILIO ) {
    ( 0 ) 0.03165326767332167, 0.0075251910963442005, 0.016444668585046524, 0.72084606484915, 0.22353080779613754;
    ( 1 ) 0.014719229706799258, 0.01149709269906304, 0.005220960018392603, 0.8672232487994194, 0.1013394687763257;

}
probability ( HIJOS_VIVIENTES | EDAD_VICTIMA ) {
    ( 0 ) 0.32314764849943967, 0.6768523515005604;
    ( 1 ) 0.14401251575714447, 0.8559874842428555;
    ( 2 ) 0.22766983554229406, 0.7723301644577059;
    ( 3 ) 0.09953779955529934, 0.9004622004447006;
    ( 4 ) 0.9999316566429742, 6.83433570256971e-05;
    ( 5 ) 0.353070499468549, 0.6469295005314509;
    ( 6 ) 0.9997923243063631, 0.00020767569363681673;

}
probability ( LENGUA_MATERNA_VICTIMA | ETNIA_VICTIMA ) {
    ( 0 ) 0.7435059422750424, 0.2518251273344652, 0.0007215619694397284, 0.003947368421052632;
    ( 1 ) 0.0003350308228357009, 0.977552934870008, 0.003283302063789869, 0.01882873224336639;
    ( 2 ) 0.0013812154696132596, 0.6167658308542286, 0.3583722906927327, 0.023480662983425413;
    ( 3 ) 0.0028261335657177636, 0.9661737142778101, 0.0011662447782665227, 0.02983390737820566;
    ( 4 ) 0.000618342108485368, 0.2552773356189543, 0.0005203869229827354, 0.7435839353495776;

}
probability ( NIVEL_DE_RIESGO_VICTIMA | VIOLENCIA_FISICA, VIOLENCIA_SEXUAL ) {
    ( 0, 0 ) 0.2873218334174201, 0.5395999441722926, 0.1730782224102873;
    ( 0, 1 ) 0.10726213789126122, 0.44979117947157954, 0.4429466826371593;
    ( 1, 0 ) 0.12824661847206073, 0.5506966114126138, 0.32105677011532546;
    ( 1, 1 ) 0.04329337585688625, 0.3565013380255874, 0.6002052861175263;

}
probability ( NIVEL_EDUCATIVO_AGRESOR | AREA_RESIDENCIA_DOMICILIO ) {
    ( 0 ) 0.00014462013112225222, 0.16381999861560217, 0.14301447684594618, 0.3488546580042916, 0.1981530649579242, 0.02955318559830708, 0.08542352685237375, 0.031036468994432742;
    ( 1 ) 0.0017888608081421584, 0.06679435971608134, 0.05175085743502109, 0.432374799045369, 0.15934415442923738, 0.010703783008460255, 0.20092653596251478, 0.076316649595174;

}
probability ( NIVEL_EDUCATIVO_VICTIMA | ESTUDIA ) {
    ( 0 ) 0.0016212941534125157, 0.0879450486498075, 0.10614325729659249, 0.3163575202919867, 0.18402863810412481, 0.0328162149623858, 0.18872755756352064, 0.08236046897816952;
    ( 1 ) 0.002128969652663551, 0.015583796767708415, 0.12120331932151467, 0.06082195417003908, 0.4328923091651219, 0.025801110501901602, 0.067471040790928, 0.2740974996301228;

}
probability ( REDES_FAM_SOC | VINCULO_AFECTIVO ) {
    ( 0 ) 0.7598950151346795, 0.2401049848653205;
    ( 1 ) 0.03927289696612254, 0.9607271030338774;

}
probability ( SEGURO_VICTIMA | HIJOS_VIVIENTES ) {
    ( 0 ) 0.1991836161469369, 0.8008163838530631;
    ( 1 ) 0.08923604236071196, 0.9107639576392881;

}
probability ( SEXO_AGRESOR | VINCULO_AGRESOR_VICTIMA ) {
    ( 0 ) 0.9808795131371056, 0.01912048686289426;
    ( 1 ) 0.9999363065358324, 6.36934641676967e-05;
    ( 2 ) 0.7932479375820065, 0.20675206241799343;

}
probability ( TRABAJA_VICTIMA | EDAD_VICTIMA ) {
    ( 0 ) 0.9631169316342202, 0.03688306836577975;
    ( 1 ) 0.3932320109057316, 0.6067679890942683;
    ( 2 ) 0.4646526958573312, 0.5353473041426688;
    ( 3 ) 0.6697325619698592, 0.3302674380301408;
    ( 4 ) 0.996678512848551, 0.0033214871514488787;
    ( 5 ) 0.6162507209143816, 0.38374927908561834;
    ( 6 ) 0.998629340421997, 0.0013706595780029905;

}
probability ( VINCULO_AFECTIVO | ESTUDIA ) {
    ( 0 ) 0.04081505341198839, 0.9591849465880116;
    ( 1 ) 0.024999347275528053, 0.9750006527244719;

}
probability ( VINCULO_AGRESOR_VICTIMA | EDAD_VICTIMA ) {
    ( 0 ) 0.15406445007125757, 0.13079019827598135, 0.7151453516527609;
    ( 1 ) 0.018965854618693444, 0.8698078310749535, 0.11122631430635312;
    ( 2 ) 0.014020771170170936, 0.9349256355099115, 0.05105359331991766;
    ( 3 ) 0.03201089791100497, 0.30417387246424554, 0.6638152296247495;
    ( 4 ) 0.07333697831237469, 4.55622380171314e-05, 0.9266174594496082;
    ( 5 ) 0.024159965936298974, 0.8605779389872087, 0.11526209507649242;
    ( 6 ) 0.012931273190452458, 0.00013845046242454452, 0.986930276347123;

}
probability ( VIOLENCIA_FISICA | VINCULO_AGRESOR_VICTIMA ) {
    ( 0 ) 0.8638744221428989, 0.13612557785710103;
    ( 1 ) 0.48113979769442267, 0.5188602023055773;
    ( 2 ) 0.6804973933851808, 0.3195026066148192;

}
probability ( VIOLENCIA_PSICOLOGICA | VINCULO_AGRESOR_VICTIMA, VIOLENCIA_SEXUAL ) {
    ( 0, 0 ) 0.40258003718513613, 0.5974199628148639;
    ( 0, 1 ) 0.8885470731791152, 0.11145292682088473;
    ( 1, 0 ) 0.027705126684342312, 0.9722948733156578;
    ( 1, 1 ) 0.38119380141572606, 0.618806198584274;
    ( 2, 0 ) 0.10703359249099237, 0.8929664075090077;
    ( 2, 1 ) 0.8847803361299488, 0.11521966387005118;

}
probability ( VIOLENCIA_SEXUAL | VINCULO_AGRESOR_VICTIMA ) {
    ( 0 ) 0.5743899584528059, 0.4256100415471941;
    ( 1 ) 0.9835185278611608, 0.01648147213883914;
    ( 2 ) 0.906224706787253, 0.09377529321274701;

}
