network unknown {
}
variable AGRESOR_VIVE_CASA_VICTIMA {
    type discrete [ 3 ] { 0, 1, 2 };
}
variable AREA_RESIDENCIA_DOMICILIO {
    type discrete [ 2 ] { 0, 1 };
}
variable CONDICION {
    type discrete [ 5 ] { 0, 1, 2, 3, 4 };
}
variable EDAD_AGRESOR {
    type discrete [ 5 ] { 0, 1, 2, 3, 4 };
}
variable EDAD_VICTIMA {
    type discrete [ 7 ] { 0, 1, 2, 3, 4, 5, 6 };
}
variable ESTADO_AGRESOR_G {
    type discrete [ 4 ] { 0, 1, 2, 3 };
}
variable ESTADO_AGRESOR_U_A {
    type discrete [ 4 ] { 0, 1, 2, 3 };
}
variable ESTADO_CIVIL_VICTIMA {
    type discrete [ 4 ] { 0, 1, 2, 3 };
}
variable ESTADO_VICTIMA_G {
    type discrete [ 4 ] { 0, 1, 2, 3 };
}
variable ESTADO_VICTIMA_U_A {
    type discrete [ 4 ] { 0, 1, 2, 3 };
}
variable ESTUDIA {
    type discrete [ 2 ] { 0, 1 };
}
variable ETNIA_VICTIMA {
    type discrete [ 7 ] { 0, 1, 2, 3, 4, 5, 6 };
}
variable FRECUENCIA_AGREDE {
    type discrete [ 5 ] { 0, 1, 2, 3, 4 };
}
variable HIJOS_VIVIENTES {
    type discrete [ 2 ] { 0, 1 };
}
variable LENGUA_MATERNA_VICTIMA {
    type discrete [ 4 ] { 0, 1, 2, 3 };
}
variable NIVEL_DE_RIESGO_VICTIMA {
    type discrete [ 3 ] { 0, 1, 2 };
}
variable NIVEL_EDUCATIVO_AGRESOR {
    type discrete [ 12 ] { 0, 1, 2, 3, 4, 5, 6, 7, 8, 9, 10, 11 };
}
variable NIVEL_EDUCATIVO_VICTIMA {
    type discrete [ 12 ] { 0, 1, 2, 3, 4, 5, 6, 7, 8, 9, 10, 11 };
}
variable REDES_FAM_SOC {
    type discrete [ 2 ] { 0, 1 };
}
variable SEGURO_VICTIMA {
    type discrete [ 2 ] { 0, 1 };
}
variable SEXO_AGRESOR {
    type discrete [ 2 ] { 0, 1 };
}
variable TRABAJA_VICTIMA {
    type discrete [ 2 ] { 0, 1 };
}
variable TRATAMIENTO_VICTIMA {
    type discrete [ 2 ] { 0, 1 };
}
variable VINCULO_AFECTIVO {
    type discrete [ 2 ] { 0, 1 };
}
variable VINCULO_AGRESOR_VICTIMA {
    type discrete [ 3 ] { 0, 1, 2 };
}
variable VIOLENCIA_ECONOMICA {
    type discrete [ 2 ] { 0, 1 };
}
variable VIOLENCIA_FISICA {
    type discrete [ 2 ] { 0, 1 };
}
variable VIOLENCIA_PSICOLOGICA {
    type discrete [ 2 ] { 0, 1 };
}
variable VIOLENCIA_SEXUAL {
    type discrete [ 2 ] { 0, 1 };
}
probability ( AGRESOR_VIVE_CASA_VICTIMA | ESTADO_AGRESOR_U_A, NIVEL_DE_RIESGO_VICTIMA, VIOLENCIA_FISICA ) {
    ( 0, 0, 0 ) 0.05966198330278966, 0.49949093870902056, 0.4408470779881898;
    ( 0, 0, 1 ) 0.0018175209014903674, 0.7084696474009452, 0.28971283169756457;
    ( 0, 1, 0 ) 0.01282615714243785, 0.5707199671274691, 0.416453875730093;
    ( 0, 1, 1 ) 0.015241882041086811, 0.6104077290642111, 0.37435038889470196;
    ( 0, 2, 0 ) 0.013086514976218022, 0.5980460213395038, 0.38886746368427816;
    ( 0, 2, 1 ) 0.015246520520423208, 0.607867917497043, 0.37688556198253376;
    ( 1, 0, 0 ) 0.010787412302533161, 0.5201982391036615, 0.4690143485938055;
    ( 1, 0, 1 ) 0.011533112903698396, 0.5295292317193286, 0.458937655376973;
    ( 1, 1, 0 ) 0.012378141575961775, 0.4763430649258587, 0.5112787934981795;
    ( 1, 1, 1 ) 0.010252129479240138, 0.4595425906632931, 0.5302052798574667;
    ( 1, 2, 0 ) 0.010741407890224845, 0.4910673503217001, 0.4981912417880751;
    ( 1, 2, 1 ) 0.010834087078534808, 0.443977367800133, 0.5451885451213322;
    ( 2, 0, 0 ) 0.01226309921962096, 0.7461379200509636, 0.24159898072941552;
    ( 2, 0, 1 ) 0.0017271157167530228, 0.7975820379965458, 0.20069084628670122;
    ( 2, 1, 0 ) 0.011735008995945111, 0.6478423158516609, 0.340422675152394;
    ( 2, 1, 1 ) 0.011335755768812695, 0.6978167023820615, 0.29084754184912576;
    ( 2, 2, 0 ) 0.004001181556969844, 0.6903783667660248, 0.3056204516770053;
    ( 2, 2, 1 ) 0.008598118211456274, 0.6483386543691616, 0.3430632274193821;
    ( 3, 0, 0 ) 0.012834534033187898, 0.6865679459718462, 0.30059751999496587;
    ( 3, 0, 1 ) 0.01258649575332877, 0.6381103571784688, 0.34930314706820237;
    ( 3, 1, 0 ) 0.013099893200822287, 0.6559449329250032, 0.33095517387417434;
    ( 3, 1, 1 ) 0.012557591162510887, 0.5610029066400061, 0.426439502197483;
    ( 3, 2, 0 ) 0.012331869358510193, 0.6612216153983268, 0.326446515243163;
    ( 3, 2, 1 ) 0.011022885911551605, 0.5361213921732407, 0.45285572191520757;

}
probability ( AREA_RESIDENCIA_DOMICILIO | AGRESOR_VIVE_CASA_VICTIMA, ESTADO_AGRESOR_U_A, NIVEL_DE_RIESGO_VICTIMA, VIOLENCIA_FISICA ) {
    ( 0, 0, 0, 0 ) 0.25426621160409557, 0.7457337883959044;
    ( 0, 0, 0, 1 ) 0.5, 0.5;
    ( 0, 0, 1, 0 ) 0.17048054919908467, 0.8295194508009153;
    ( 0, 0, 1, 1 ) 0.005720823798627002, 0.994279176201373;
    ( 0, 0, 2, 0 ) 0.004911591355599214, 0.9950884086444007;
    ( 0, 0, 2, 1 ) 0.0026567481402763023, 0.9973432518597237;
    ( 0, 1, 0, 0 ) 0.1263598849568588, 0.8736401150431411;
    ( 0, 1, 0, 1 ) 0.23969122532734025, 0.7603087746726598;
    ( 0, 1, 1, 0 ) 0.13672430893958343, 0.8632756910604166;
    ( 0, 1, 1, 1 ) 0.19400378708184307, 0.8059962129181569;
    ( 0, 1, 2, 0 ) 0.20018927444794948, 0.7998107255520505;
    ( 0, 1, 2, 1 ) 0.2511373707533235, 0.7488626292466765;
    ( 0, 2, 0, 0 ) 0.032467532467532464, 0.9675324675324675;
    ( 0, 2, 0, 1 ) 0.5, 0.5;
    ( 0, 2, 1, 0 ) 0.005720823798627002, 0.994279176201373;
    ( 0, 2, 1, 1 ) 0.2041095890410959, 0.7958904109589041;
    ( 0, 2, 2, 0 ) 0.016778523489932886, 0.9832214765100671;
    ( 0, 2, 2, 1 ) 0.1463654223968566, 0.8536345776031434;
    ( 0, 3, 0, 0 ) 0.13614451231203265, 0.8638554876879674;
    ( 0, 3, 0, 1 ) 0.28257118205349435, 0.7174288179465056;
    ( 0, 3, 1, 0 ) 0.12638991845811715, 0.8736100815418829;
    ( 0, 3, 1, 1 ) 0.18835276229092757, 0.8116472377090725;
    ( 0, 3, 2, 0 ) 0.19119946921946826, 0.8088005307805317;
    ( 0, 3, 2, 1 ) 0.24132686797443245, 0.7586731320255675;
    ( 1, 0, 0, 0 ) 0.11842641663269467, 0.8815735833673054;
    ( 1, 0, 0, 1 ) 0.03822473063109287, 0.9617752693689071;
    ( 1, 0, 1, 0 ) 0.029750578554898426, 0.9702494214451015;
    ( 1, 0, 1, 1 ) 0.04951145648820067, 0.9504885435117993;
    ( 1, 0, 2, 0 ) 0.049632431967671205, 0.9503675680323288;
    ( 1, 0, 2, 1 ) 0.03844923634618973, 0.9615507636538103;
    ( 1, 1, 0, 0 ) 0.12808547934975117, 0.8719145206502488;
    ( 1, 1, 0, 1 ) 0.1639666980220566, 0.8360333019779435;
    ( 1, 1, 1, 0 ) 0.1282092802000957, 0.8717907197999043;
    ( 1, 1, 1, 1 ) 0.1408600838304803, 0.8591399161695197;
    ( 1, 1, 2, 0 ) 0.1556088863373529, 0.8443911136626471;
    ( 1, 1, 2, 1 ) 0.1500077135907702, 0.8499922864092297;
    ( 1, 2, 0, 0 ) 0.10811099252934898, 0.891889007470651;
    ( 1, 2, 0, 1 ) 0.03226504980511044, 0.9677349501948895;
    ( 1, 2, 1, 0 ) 0.03293264248704663, 0.9670673575129534;
    ( 1, 2, 1, 1 ) 0.03215541412612933, 0.9678445858738707;
    ( 1, 2, 2, 0 ) 0.061709907036446375, 0.9382900929635536;
    ( 1, 2, 2, 1 ) 0.05259112581746176, 0.9474088741825383;
    ( 1, 3, 0, 0 ) 0.12542031382408134, 0.8745796861759186;
    ( 1, 3, 0, 1 ) 0.16887857798186426, 0.8311214220181357;
    ( 1, 3, 1, 0 ) 0.11722920559724098, 0.8827707944027591;
    ( 1, 3, 1, 1 ) 0.14367014360819855, 0.8563298563918015;
    ( 1, 3, 2, 0 ) 0.17074092307583524, 0.8292590769241647;
    ( 1, 3, 2, 1 ) 0.15074551382039691, 0.8492544861796031;
    ( 2, 0, 0, 0 ) 0.13418013856812935, 0.8658198614318707;
    ( 2, 0, 0, 1 ) 0.09347553324968634, 0.9065244667503137;
    ( 2, 0, 1, 0 ) 0.020473606314750863, 0.9795263936852491;
    ( 2, 0, 1, 1 ) 0.0740240380136029, 0.9259759619863971;
    ( 2, 0, 2, 0 ) 0.0572892561983471, 0.9427107438016529;
    ( 2, 0, 2, 1 ) 0.07129960018915782, 0.9287003998108422;
    ( 2, 1, 0, 0 ) 0.14806884234080062, 0.8519311576591992;
    ( 2, 1, 0, 1 ) 0.20191679640115703, 0.798083203598843;
    ( 2, 1, 1, 0 ) 0.15793608617894156, 0.8420639138210584;
    ( 2, 1, 1, 1 ) 0.2003527128786985, 0.7996472871213015;
    ( 2, 1, 2, 0 ) 0.18472515065362585, 0.8152748493463741;
    ( 2, 1, 2, 1 ) 0.22893049490837658, 0.7710695050916234;
    ( 2, 2, 0, 0 ) 0.0016479894528675018, 0.9983520105471325;
    ( 2, 2, 0, 1 ) 0.2521514629948365, 0.7478485370051635;
    ( 2, 2, 1, 0 ) 0.0399542478504378, 0.9600457521495621;
    ( 2, 2, 1, 1 ) 0.09252536038441002, 0.9074746396155899;
    ( 2, 2, 2, 0 ) 0.05715666461646603, 0.9428433353835339;
    ( 2, 2, 2, 1 ) 0.07811807572997193, 0.921881924270028;
    ( 2, 3, 0, 0 ) 0.11350849104817459, 0.8864915089518254;
    ( 2, 3, 0, 1 ) 0.15527552690262933, 0.8447244730973706;
    ( 2, 3, 1, 0 ) 0.11886808948408148, 0.8811319105159185;
    ( 2, 3, 1, 1 ) 0.16351544734279674, 0.8364845526572032;
    ( 2, 3, 2, 0 ) 0.16190042267817914, 0.8380995773218208;
    ( 2, 3, 2, 1 ) 0.18456596918580256, 0.8154340308141974;

}
probability ( CONDICION | EDAD_VICTIMA, NIVEL_DE_RIESGO_VICTIMA, VINCULO_AGRESOR_VICTIMA ) {
    ( 0, 0, 0 ) 0.011518815803189825, 0.11331178984676327, 0.77989158761597, 0.019727926613155426, 0.07554988012092151;
    ( 0, 0, 1 ) 0.0015748031496062992, 0.07598425196850395, 0.8324803149606299, 0.03412893700787402, 0.055831692913385834;
    ( 0, 0, 2 ) 0.009647975945890503, 0.08931496615094443, 0.7469052073350337, 0.05382168237920128, 0.1003101681889301;
    ( 0, 1, 0 ) 0.00599177872221835, 0.0989656897829405, 0.7864937960388386, 0.013573342285109858, 0.09497539317089235;
    ( 0, 1, 1 ) 0.0012735523396497062, 0.04899154763420896, 0.8162800206449538, 0.05279209593200571, 0.08066278344918192;
    ( 0, 1, 2 ) 0.002297362682937558, 0.09065785256913768, 0.7218494523655421, 0.06595491991278066, 0.11924041246960206;
    ( 0, 2, 0 ) 0.0032078730785420873, 0.055332181789151294, 0.8143352735401276, 0.02424048887405107, 0.10288418271812812;
    ( 0, 2, 1 ) 0.0020266882846750366, 0.04503514704156844, 0.7466106305133922, 0.10820382084075564, 0.09812371331960874;
    ( 0, 2, 2 ) 0.002650141613294138, 0.07634742772818655, 0.726531069699892, 0.06560910060964933, 0.12886226034897813;
    ( 1, 0, 0 ) 0.008937836053202529, 0.054994811810206594, 0.7265352325252334, 0.04013772285633431, 0.1693943967550231;
    ( 1, 0, 1 ) 0.007722371513404033, 0.046426918987489164, 0.7425296531099379, 0.15211639401024035, 0.0512046623789286;
    ( 1, 0, 2 ) 0.001882590019621361, 0.024016280426366866, 0.6729927878241503, 0.05241422283502148, 0.24869411889484014;
    ( 1, 1, 0 ) 0.0008245191378621764, 0.049522680717846976, 0.6744824209943185, 0.07630666958683861, 0.19886370956313368;
    ( 1, 1, 1 ) 0.0029120349059479516, 0.0311376679195541, 0.6933039493872304, 0.21149895794567425, 0.06114738984159332;
    ( 1, 1, 2 ) 0.001113148822486929, 0.023054304028496612, 0.6493493038962413, 0.09137739492315969, 0.23510584832961554;
    ( 1, 2, 0 ) 3.5743646566822746e-05, 0.036065339385924156, 0.6598277156235479, 0.11262823033205849, 0.19144297101190264;
    ( 1, 2, 1 ) 0.0021740880445282676, 0.028437370624223746, 0.6024621647729886, 0.2989310685864115, 0.06799530797184783;
    ( 1, 2, 2 ) 0.0016875988133515712, 0.02127262714724744, 0.6133000550690139, 0.15109338638907147, 0.21264633258131563;
    ( 2, 0, 0 ) 0.005476734658674372, 0.09513131226012335, 0.7009789124153694, 0.024494372331709, 0.17391866833412395;
    ( 2, 0, 1 ) 0.0045640502935653, 0.050525694817752154, 0.7871215241659045, 0.11276084027394775, 0.04502789044883028;
    ( 2, 0, 2 ) 0.003483263790599783, 0.039382019373931584, 0.6884546808080437, 0.04169806812124331, 0.22698196790618164;
    ( 2, 1, 0 ) 0.005418951336531871, 0.05534612748457848, 0.7192426319396847, 0.04859921178889651, 0.17139307745030843;
    ( 2, 1, 1 ) 0.00183145247897039, 0.037119233339277705, 0.7483492251978069, 0.15782251835766944, 0.05487757062627561;
    ( 2, 1, 2 ) 0.0017887771217670403, 0.03673785924135472, 0.6750935428542317, 0.059205126318232514, 0.2271746944644141;
    ( 2, 2, 0 ) 4.751270964983133e-05, 0.05093362474461919, 0.7274195847389177, 0.06290682757637668, 0.15869245023043665;
    ( 2, 2, 1 ) 0.0012885711789992636, 0.03262872857053471, 0.6666912403798559, 0.23280764172269577, 0.06658381814791435;
    ( 2, 2, 2 ) 0.0014029857290045378, 0.022118946883837167, 0.6546462941447267, 0.10636385558015651, 0.21546791766227502;
    ( 3, 0, 0 ) 0.0001258970162407151, 0.01598892106257082, 0.7774140752864158, 0.05564648117839608, 0.1508246254563767;
    ( 3, 0, 1 ) 0.005487349575425009, 0.04049525066421241, 0.7340892909858128, 0.1608349106569191, 0.05909319811763072;
    ( 3, 0, 2 ) 0.0030770168169631977, 0.031866926639044606, 0.6832866195466732, 0.07562758956860834, 0.20614184742871072;
    ( 3, 1, 0 ) 6.450364445591176e-05, 0.05289298845384765, 0.747790750177385, 0.040701799651680325, 0.15854995807263114;
    ( 3, 1, 1 ) 0.0038676817061379025, 0.020169142981655754, 0.7022566016151658, 0.21492870664179006, 0.058777867055250656;
    ( 3, 1, 2 ) 0.0023840642469096923, 0.02361388867018345, 0.6622943075348399, 0.1130966065664121, 0.198611132981655;
    ( 3, 2, 0 ) 0.00022021581149526536, 0.04184100418410042, 0.7632680026425899, 0.0973353886809073, 0.0973353886809073;
    ( 3, 2, 1 ) 0.0020652757224399526, 0.023579919665653003, 0.6259899500756184, 0.28585367440196446, 0.06251118013432423;
    ( 3, 2, 2 ) 0.0019245183639568098, 0.02170654133662865, 0.597299596864048, 0.19336345035755526, 0.18570589307781132;
    ( 4, 0, 0 ) 0.0002598752598752599, 0.09849272349272349, 0.818866943866944, 0.016632016632016633, 0.06574844074844075;
    ( 4, 0, 1 ) 0.2, 0.2, 0.2, 0.2, 0.2;
    ( 4, 0, 2 ) 0.008047712195951693, 0.045554090831774106, 0.8365368259908148, 0.04756336111583603, 0.0622980098656234;
    ( 4, 1, 0 ) 0.005518668621195137, 0.0544106234370958, 0.8312494610675175, 0.005518668621195137, 0.10330257825299648;
    ( 4, 1, 1 ) 0.2, 0.2, 0.2, 0.2, 0.2;
    ( 4, 1, 2 ) 0.0008115171536834572, 0.03744480724870126, 0.8115746627730884, 0.06683195205019905, 0.08333706077432795;
    ( 4, 2, 0 ) 0.00011495574203931487, 0.058052649729854015, 0.8257270950683987, 0.0073571674905161515, 0.10874813196919188;
    ( 4, 2, 1 ) 0.2, 0.2, 0.2, 0.2, 0.2;
    ( 4, 2, 2 ) 0.0034862385321100917, 0.030073394495412846, 0.7941651376146789, 0.06937614678899083, 0.10289908256880734;
    ( 5, 0, 0 ) 0.02894097142595056, 0.1011787368710728, 0.7426500940237583, 0.02027243957253589, 0.10695775810668258;
    ( 5, 0, 1 ) 0.002835492967493037, 0.055914052903828525, 0.8248447312423232, 0.07073681296818506, 0.045668909918170346;
    ( 5, 0, 2 ) 0.016112539894029068, 0.042953862361726526, 0.7549809438230101, 0.045393982586062656, 0.14055867133517183;
    ( 5, 1, 0 ) 0.012555538362916953, 0.10585998806339662, 0.7255686465218064, 0.0236963681778996, 0.13231945887398042;
    ( 5, 1, 1 ) 0.0010779596862458957, 0.04000763863553448, 0.8024762860269975, 0.10202936884348779, 0.05440874680773441;
    ( 5, 1, 2 ) 0.003792092006544902, 0.05655069936827097, 0.7443064937965155, 0.06439685123232254, 0.1309538635963462;
    ( 5, 2, 0 ) 0.010455841633260321, 0.07815018390709592, 0.7446790924494773, 0.03649212712319709, 0.13022275488696947;
    ( 5, 2, 1 ) 0.0008249215670676491, 0.036386996097695995, 0.7267580800359174, 0.1675135643476963, 0.06851643795162277;
    ( 5, 2, 2 ) 0.0017317315952384198, 0.04382508147319907, 0.7602710773552231, 0.07990509565430819, 0.11426701392203117;
    ( 6, 0, 0 ) 0.002242152466367713, 0.002242152466367713, 0.9910313901345292, 0.002242152466367713, 0.002242152466367713;
    ( 6, 0, 1 ) 0.2, 0.2, 0.2, 0.2, 0.2;
    ( 6, 0, 2 ) 2.7083389757061994e-05, 0.03585840803835008, 0.8923976924951927, 0.02050212604609593, 0.051214690030604235;
    ( 6, 1, 0 ) 0.0014326647564469914, 0.0014326647564469914, 0.994269340974212, 0.0014326647564469914, 0.0014326647564469914;
    ( 6, 1, 1 ) 0.2, 0.2, 0.2, 0.2, 0.2;
    ( 6, 1, 2 ) 1.964289221945039e-05, 0.053232237914710566, 0.8390461411538235, 0.03590720697715532, 0.07179477106209119;
    ( 6, 2, 0 ) 0.0038910505836575876, 0.0038910505836575876, 0.7392996108949417, 0.0038910505836575876, 0.2490272373540856;
    ( 6, 2, 1 ) 0.2, 0.2, 0.2, 0.2, 0.2;
    ( 6, 2, 2 ) 5.237247302817639e-05, 0.0330470304807793, 0.7985230962606055, 0.04954435948465487, 0.11883314130093225;

}
probability ( EDAD_AGRESOR | EDAD_VICTIMA, VINCULO_AGRESOR_VICTIMA, VIOLENCIA_FISICA ) {
    ( 0, 0, 0 ) 0.01862920383622906, 0.4543233056104614, 0.26233258954896477, 0.09292901655352652, 0.17178588445081824;
    ( 0, 0, 1 ) 0.0863275781614559, 0.23919738684087727, 0.2156789547363509, 0.07456836210919272, 0.38422771815212314;
    ( 0, 1, 0 ) 0.059518667611133176, 0.0733055752319414, 0.22496155906083168, 0.0029197836941310617, 0.6392944144019626;
    ( 0, 1, 1 ) 0.09286351403892629, 0.02594323440394599, 0.16138475730153767, 0.0009682018129007174, 0.7188402924426893;
    ( 0, 2, 0 ) 0.0019698688638033496, 0.6831833301398208, 0.2211670611458875, 0.04666617959855479, 0.047013560251933685;
    ( 0, 2, 1 ) 0.0021830449097426092, 0.7068037692395025, 0.23514929367306234, 0.024798481924193528, 0.031065410253499202;
    ( 1, 0, 0 ) 1.407083257116323e-05, 0.6666338347240005, 0.1341653885660414, 0.16962388664537276, 0.02956281923201395;
    ( 1, 0, 1 ) 0.003079821732671474, 0.655929562665314, 0.19330410522120367, 0.10047465487879995, 0.047211855502010944;
    ( 1, 1, 0 ) 1.6897859512767902e-05, 0.868173903338742, 0.06575585893981258, 0.06382478727363254, 0.0022285525883001577;
    ( 1, 1, 1 ) 2.171290589879059e-05, 0.8508636434559069, 0.10090795293247942, 0.04224675051214686, 0.005959940193568032;
    ( 1, 2, 0 ) 0.003669671369948911, 0.5660580533015137, 0.21691276659355552, 0.11956990499070018, 0.09378960374428187;
    ( 1, 2, 1 ) 0.006911466456714886, 0.5512679326891933, 0.23901116697644523, 0.08392922100248654, 0.11888021287516008;
    ( 2, 0, 0 ) 2.1199465773462505e-05, 0.6081490746433189, 0.25912107014903224, 0.08727820058934514, 0.04543045515253016;
    ( 2, 0, 1 ) 0.006322052807735218, 0.5280029750836742, 0.3312011900334697, 0.05005578281889179, 0.08441799925622909;
    ( 2, 1, 0 ) 9.065264000334718e-05, 0.4217670398801883, 0.5399770096322453, 0.004934400209412963, 0.03323089763815007;
    ( 2, 1, 1 ) 7.760463423650127e-05, 0.3639919089132826, 0.5781669234354515, 0.002931985737278465, 0.05483157727975094;
    ( 2, 2, 0 ) 0.0006607022098545676, 0.6206170181343323, 0.2063334136539941, 0.13026715688179646, 0.042121709120022374;
    ( 2, 2, 1 ) 0.0036602982545699413, 0.5332848189944497, 0.28831637141708927, 0.07664903496290823, 0.0980894763709826;
    ( 3, 0, 0 ) 7.168972686214065e-05, 0.5540898989174852, 0.15062011613735754, 0.24697110904007455, 0.04824718617822067;
    ( 3, 0, 1 ) 0.00021235931195582924, 0.5531960076449353, 0.2053514546612869, 0.2053514546612869, 0.03588872372053514;
    ( 3, 1, 0 ) 8.190075266791702e-06, 0.2060541036372124, 0.0037920048485245578, 0.7901375113637295, 8.190075266791702e-06;
    ( 3, 1, 1 ) 1.8118239631837368e-05, 0.2671172068921783, 0.002301016433243346, 0.7297845741307774, 0.0007790843041690068;
    ( 3, 2, 0 ) 0.00043822570349027806, 0.7121650765169685, 0.14420386121702528, 0.11246527837683963, 0.030727558185676584;
    ( 3, 2, 1 ) 0.001307808750991154, 0.6418457609490366, 0.18339185863308236, 0.13754646840148696, 0.03590810326540279;
    ( 4, 0, 0 ) 0.00814781548726503, 0.5497529992942837, 0.1752101109899275, 0.1859883236030025, 0.08090075062552128;
    ( 4, 0, 1 ) 0.0019646365422396855, 0.5795677799607073, 0.3320235756385069, 0.0019646365422396855, 0.08447937131630648;
    ( 4, 1, 0 ) 0.2, 0.2, 0.2, 0.2, 0.2;
    ( 4, 1, 1 ) 0.2, 0.2, 0.2, 0.2, 0.2;
    ( 4, 2, 0 ) 0.0011659434137995266, 0.5914092737345374, 0.33468095234809964, 0.03217037951803072, 0.04057345098553263;
    ( 4, 2, 1 ) 0.004330189809505879, 0.4694233830249713, 0.4536087767641672, 0.015112875896417752, 0.05752477450493778;
    ( 5, 0, 0 ) 0.0016085993830548247, 0.5389186427206146, 0.2599307356030355, 0.10732196589769306, 0.0922200563956019;
    ( 5, 0, 1 ) 0.005385097056981841, 0.3735754539762054, 0.3788353162179086, 0.02642454602379462, 0.2157795867251096;
    ( 5, 1, 0 ) 0.0029066635094669438, 0.10509617264916107, 0.48686813325688655, 0.0016774840665619295, 0.40345154651792353;
    ( 5, 1, 1 ) 0.005343836777272756, 0.07480452695983678, 0.44152135025701444, 0.00074280815406873, 0.47758747785180733;
    ( 5, 2, 0 ) 0.0007178832054898281, 0.7416750984969673, 0.14363881995828362, 0.07526468410312646, 0.0387035142361327;
    ( 5, 2, 1 ) 0.0033457216253674547, 0.6851843677998569, 0.1687073508770381, 0.04932070374915032, 0.0934418559485871;
    ( 6, 0, 0 ) 0.0013140604467805517, 0.7187910643889618, 0.11169513797634689, 0.11169513797634689, 0.05650459921156372;
    ( 6, 0, 1 ) 0.005780346820809249, 0.49132947976878616, 0.2485549132947977, 0.005780346820809249, 0.2485549132947977;
    ( 6, 1, 0 ) 0.2, 0.2, 0.2, 0.2, 0.2;
    ( 6, 1, 1 ) 0.2, 0.2, 0.2, 0.2, 0.2;
    ( 6, 2, 0 ) 0.0008370481400011678, 0.3965466897665998, 0.44968951353876696, 0.01882385003211929, 0.1341028985225127;
    ( 6, 2, 1 ) 5.021845025862502e-05, 0.33751820418821876, 0.46195952392909156, 0.01270526791543213, 0.18776678551699894;

}
probability ( EDAD_VICTIMA | AGRESOR_VIVE_CASA_VICTIMA, NIVEL_DE_RIESGO_VICTIMA, TRABAJA_VICTIMA, VIOLENCIA_FISICA ) {
    ( 0, 0, 0, 0 ) 0.12572108573695248, 0.30279367597891993, 0.23424944749815835, 0.1371451238170794, 0.051464838216127386, 0.13143310477701595, 0.017192723975746588;
    ( 0, 0, 0, 1 ) 0.12677629191211368, 0.3237667159887211, 0.23934224852731792, 0.02828107987380999, 0.06345794131606132, 0.2041653870850666, 0.014210335296909462;
    ( 0, 0, 1, 0 ) 0.0110560648544987, 0.5602272231988494, 0.29296392613793204, 0.05132861646641776, 7.26416876116866e-05, 0.08427888596707879, 7.26416876116866e-05;
    ( 0, 0, 1, 1 ) 0.00018693685273114743, 0.48068942311287255, 0.2922570755598759, 0.019030171608030808, 0.00018693685273114743, 0.20746251916102743, 0.00018693685273114743;
    ( 0, 1, 0, 0 ) 0.1968135016845618, 0.33170439875310925, 0.23966119840045336, 0.08413992883906922, 0.030183570011650233, 0.10159639787146947, 0.015901004439686384;
    ( 0, 1, 0, 1 ) 0.11511484369982945, 0.28773359401200166, 0.3093109378010232, 0.043190364403091035, 0.023411132596487975, 0.2140110027328448, 0.007228124754721827;
    ( 0, 1, 1, 0 ) 0.0032466082829970835, 0.5626072369386204, 0.30703729453562006, 0.03378641272109146, 3.1892026355570564e-05, 0.09325866346895946, 3.1892026355570564e-05;
    ( 0, 1, 1, 1 ) 0.0021692340156151085, 0.5126566786241823, 0.3254779489343744, 0.027693606246043473, 4.22029964127453e-05, 0.13191812618695928, 4.22029964127453e-05;
    ( 0, 2, 0, 0 ) 0.38221326090216795, 0.28563096765592977, 0.1260602222925797, 0.0378763893286231, 0.05467330989318626, 0.11346253186915733, 8.331805835596808e-05;
    ( 0, 2, 0, 1 ) 0.09193776520509195, 0.3491593636535966, 0.3087388267545459, 0.025795068461190746, 0.011096691406990478, 0.20217559311159397, 0.011096691406990478;
    ( 0, 2, 1, 0 ) 0.005856482008978421, 0.5284278650046715, 0.3274388715447896, 0.02882665269010779, 0.00011393933869607822, 0.10922225007406058, 0.00011393933869607822;
    ( 0, 2, 1, 1 ) 0.0034206918582209743, 0.499833623936857, 0.32206412798977785, 0.016837257590076003, 6.65504252572174e-05, 0.1577111977745538, 6.65504252572174e-05;
    ( 1, 0, 0, 0 ) 0.18652844456977224, 0.2580674156450648, 0.2508358237485649, 0.0650257476641166, 0.03807163241352601, 0.186408914125202, 0.015062021833753549;
    ( 1, 0, 0, 1 ) 0.1306863974412457, 0.2257703460029425, 0.2890582221656079, 0.032407628207875856, 0.018563405297292796, 0.2962085350974475, 0.007305465787587894;
    ( 1, 0, 1, 0 ) 0.00523845997639801, 0.4642197984791665, 0.3676153952281714, 0.033191269016365904, 1.251962137660248e-06, 0.12973257337562297, 1.251962137660248e-06;
    ( 1, 0, 1, 1 ) 0.010481729911634687, 0.38228549529552247, 0.3730296946542138, 0.022182459024232375, 0.00017810278263075135, 0.21183905329708444, 3.4650346815321275e-06;
    ( 1, 1, 0, 0 ) 0.26028726690521387, 0.23554457373179163, 0.2374002757197983, 0.05056038608523233, 0.0329149391115549, 0.17450174517894076, 0.00879081326746823;
    ( 1, 1, 0, 1 ) 0.12185347681938836, 0.21376035446577638, 0.3086237952717449, 0.029228576691387943, 0.012756296230868028, 0.3097219473024462, 0.004055553218388281;
    ( 1, 1, 1, 0 ) 0.007221138935117618, 0.45354322900770544, 0.37383527128816, 0.02728970555455912, 0.00017767375474926162, 0.1378968848945145, 3.609656519411876e-05;
    ( 1, 1, 1, 1 ) 0.00956140371188579, 0.36657699752223905, 0.39346313540159555, 0.013780597302302336, 9.066065254652237e-05, 0.21652631483327614, 8.905761546809663e-07;
    ( 1, 2, 0, 0 ) 0.40870897974287074, 0.18355625591250485, 0.19172876857422413, 0.03138407015129202, 0.03236477167069834, 0.14588097254197901, 0.0063761814064310545;
    ( 1, 2, 0, 1 ) 0.11015551865818482, 0.21331926667644144, 0.3245486837504813, 0.021740422627646225, 0.0072990342230056906, 0.3192483869423951, 0.0036886871218455575;
    ( 1, 2, 1, 0 ) 0.013930131287201818, 0.44504439929790174, 0.3652849953474113, 0.018282622635113984, 2.1589738828929387e-06, 0.15745353348460545, 2.1589738828929387e-06;
    ( 1, 2, 1, 1 ) 0.009314134352348966, 0.3497245646435497, 0.4069085912558857, 0.008852352172437775, 1.527057473251298e-06, 0.22519730346083147, 1.527057473251298e-06;
    ( 2, 0, 0, 0 ) 0.16806062686816792, 0.3363309465888352, 0.19135796502961963, 0.0996511702668142, 0.06639951489092401, 0.11214701528068376, 0.02605276107495532;
    ( 2, 0, 0, 1 ) 0.13439662302328, 0.2772167059110651, 0.2849613356051396, 0.03326087054771923, 0.03143860473734877, 0.22983779484143307, 0.008888065334014273;
    ( 2, 0, 1, 0 ) 0.006566242211371034, 0.6192990328887289, 0.24299003044639708, 0.06235623966648418, 0.0002761934786867082, 0.06850954820932754, 2.7130990047810238e-06;
    ( 2, 0, 1, 1 ) 0.007421777059469562, 0.46186760397256343, 0.34499315501449623, 0.023736738208438336, 5.885628120118605e-06, 0.16196895448879198, 5.885628120118605e-06;
    ( 2, 1, 0, 0 ) 0.1599918406201129, 0.3746529222723355, 0.2054666250057078, 0.10436688336613105, 0.04135541417327357, 0.10004552263998612, 0.01412079192245319;
    ( 2, 1, 0, 1 ) 0.11670261373114556, 0.28725979352640435, 0.3107432761890089, 0.030149206203260465, 0.02178461333105658, 0.2263816603763002, 0.006978836642824039;
    ( 2, 1, 1, 0 ) 0.004420957466437087, 0.6395150580313516, 0.24008406483946235, 0.060463871973000474, 0.00023689129402278602, 0.05521905663011495, 6.009976561091412e-05;
    ( 2, 1, 1, 1 ) 0.008107504805143629, 0.48638616901107834, 0.3432640721752896, 0.022238963275726675, 0.00011063295744934739, 0.1398915710075576, 1.0867677549051807e-06;
    ( 2, 2, 0, 0 ) 0.2599765478201141, 0.33913953413474823, 0.17708824450243843, 0.08967634196678366, 0.03552619838685749, 0.08581797792791915, 0.012775155261139128;
    ( 2, 2, 0, 1 ) 0.11073309652217508, 0.28963464667912187, 0.3251737730187849, 0.030078432553718126, 0.016174902089498632, 0.22238695851544799, 0.005818190621253497;
    ( 2, 2, 1, 0 ) 0.009102113226150264, 0.6437323594046723, 0.2316688827709752, 0.05686998121808203, 3.4717038775460615e-06, 0.058619719972365245, 3.4717038775460615e-06;
    ( 2, 2, 1, 1 ) 0.009220686164257171, 0.4843500195402708, 0.35094150335913266, 0.019148761787039545, 9.040233259123689e-05, 0.1362468680164638, 1.7588002449656983e-06;

}
probability ( ESTADO_AGRESOR_G | FRECUENCIA_AGREDE, NIVEL_DE_RIESGO_VICTIMA ) {
    ( 0, 0 ) 0.0009742790335151987, 0.09637568199532345, 0.0056508183943881525, 0.8969992205767731;
    ( 0, 1 ) 0.006734041670125343, 0.15988420353615007, 0.008726238897650868, 0.8246555158960737;
    ( 0, 2 ) 0.02724896836313618, 0.2332462173314993, 0.024442916093535078, 0.7150618982118294;
    ( 1, 0 ) 0.0012034740185131718, 0.11972430575605271, 0.0014332683231497137, 0.8776389519022844;
    ( 1, 1 ) 0.004516804505900865, 0.1881552444174524, 0.0054031651045928965, 0.801924785972054;
    ( 1, 2 ) 0.016037730765500222, 0.2499393785901346, 0.015714416579551454, 0.7183084740648137;
    ( 2, 0 ) 0.0004583455558814901, 0.1606226166031094, 0.0017783807568201818, 0.8371406570841888;
    ( 2, 1 ) 0.004359631665935845, 0.2378065234256417, 0.004966775727729618, 0.7528670691806928;
    ( 2, 2 ) 0.012754500432355948, 0.2757055262951026, 0.015584466629981919, 0.6959555066425597;
    ( 3, 0 ) 0.0019838056680161944, 0.19048582995951419, 0.0010121457489878545, 0.8065182186234818;
    ( 3, 1 ) 0.005058861823902783, 0.24951174523951608, 0.006035371344870613, 0.7393940215917105;
    ( 3, 2 ) 0.018985617781651778, 0.31120614512965794, 0.0235617781651776, 0.6462464589235127;
    ( 4, 0 ) 0.0030444728520487114, 0.18813496602301014, 0.0026407858440422524, 0.8061797752808988;
    ( 4, 1 ) 0.005850459195640799, 0.2767127365895026, 0.005958717499954892, 0.7114780867149019;
    ( 4, 2 ) 0.02142534638936705, 0.33135564522956235, 0.01702316787538449, 0.6301958405056862;

}
probability ( ESTADO_AGRESOR_U_A | ESTADO_AGRESOR_G, NIVEL_DE_RIESGO_VICTIMA, VIOLENCIA_FISICA ) {
    ( 0, 0, 0 ) 0.46900566393958465, 0.18203272498426687, 0.04609817495280051, 0.30286343612334804;
    ( 0, 0, 1 ) 0.3194214876033058, 0.24008264462809914, 0.04173553719008264, 0.3987603305785124;
    ( 0, 1, 0 ) 0.5556535582135789, 0.1632604767231736, 0.02902073831856123, 0.2520652267446864;
    ( 0, 1, 1 ) 0.4770373110664835, 0.23351125673818834, 0.06355036465489906, 0.22590106754042913;
    ( 0, 2, 0 ) 0.5923646928249656, 0.1614709146699745, 0.04865508911666775, 0.19750930338839195;
    ( 0, 2, 1 ) 0.5440483483341972, 0.17988077847415296, 0.05773761839687103, 0.21833325479477875;
    ( 1, 0, 0 ) 0.0009981651628332086, 0.7728667440917557, 0.0006683067957695665, 0.22546678394964165;
    ( 1, 0, 1 ) 0.00203759556708985, 0.8083783404643332, 0.000354211966051764, 0.18922985200252504;
    ( 1, 1, 0 ) 0.002547458181531069, 0.7846176838828293, 0.0013563508803591366, 0.21147850705528046;
    ( 1, 1, 1 ) 0.00329011629081911, 0.8086809446074875, 0.0014578454201087236, 0.18657109368158453;
    ( 1, 2, 0 ) 0.006177492298617029, 0.7792702971145654, 0.00315239915095719, 0.21139981143586048;
    ( 1, 2, 1 ) 0.008470489494573024, 0.807912855456136, 0.003759050884106007, 0.17985760416518484;
    ( 2, 0, 0 ) 0.03853235139400316, 0.051157285639137295, 0.5435297211993688, 0.3667806417674908;
    ( 2, 0, 1 ) 0.10890257558790592, 0.10890257558790592, 0.5389137737961925, 0.2432810750279955;
    ( 2, 1, 0 ) 0.06446986066612026, 0.06268161835928768, 0.5347775873630877, 0.33807093361150437;
    ( 2, 1, 1 ) 0.05061376589215256, 0.07165716790881192, 0.4988382288469969, 0.37889083735203855;
    ( 2, 2, 0 ) 0.06696854146806483, 0.05816895211556794, 0.605503409840874, 0.2693590965754931;
    ( 2, 2, 1 ) 0.0842138482397494, 0.09992285754359717, 0.5633386320071064, 0.25252466220954695;
    ( 3, 0, 0 ) 0.0006411727676092755, 0.12786051623336117, 0.0008468813718478252, 0.8706514296271818;
    ( 3, 0, 1 ) 0.001160676170745413, 0.21712241546056835, 0.0010449100280009356, 0.7806719983406852;
    ( 3, 1, 0 ) 0.0015603877162669714, 0.14711672682996785, 0.002308020347208758, 0.8490148651065564;
    ( 3, 1, 1 ) 0.00183443649105993, 0.2503043896285041, 0.002318526020729056, 0.745542647859707;
    ( 3, 2, 0 ) 0.002853685253938517, 0.14340490672725884, 0.004533424699005991, 0.8492079833197966;
    ( 3, 2, 1 ) 0.0049818803410786915, 0.27060400426289744, 0.006022984004755311, 0.7183911313912685;

}
probability ( ESTADO_CIVIL_VICTIMA | AGRESOR_VIVE_CASA_VICTIMA, EDAD_VICTIMA, VINCULO_AGRESOR_VICTIMA ) {
    ( 0, 0, 0 ) 0.0007327080890973036, 0.0007327080890973036, 0.9978018757327081, 0.0007327080890973036;
    ( 0, 0, 1 ) 0.0005351027397260274, 0.0005351027397260274, 0.9983946917808219, 0.0005351027397260274;
    ( 0, 0, 2 ) 6.39877143588431e-05, 6.39877143588431e-05, 0.9998080368569235, 6.39877143588431e-05;
    ( 0, 1, 0 ) 0.20078125, 0.00390625, 0.79140625, 0.00390625;
    ( 0, 1, 1 ) 0.3231344386166721, 0.01530493789377038, 0.6568934221218485, 0.004667201367708982;
    ( 0, 1, 2 ) 0.2843472702662055, 0.033256880733944956, 0.6301887501879982, 0.05220709881185141;
    ( 0, 2, 0 ) 0.2853139013452915, 0.002802690582959641, 0.7090807174887892, 0.002802690582959641;
    ( 0, 2, 1 ) 0.14580212118964622, 0.003756582362975599, 0.8504227545798414, 1.8541867536898314e-05;
    ( 0, 2, 2 ) 0.1191712289975458, 0.012129507268265055, 0.8565697564659241, 0.012129507268265055;
    ( 0, 3, 0 ) 0.01838235294117647, 0.01838235294117647, 0.9448529411764706, 0.01838235294117647;
    ( 0, 3, 1 ) 0.6423011604868384, 0.05384941975658081, 0.3034956127936597, 0.00035380696292103026;
    ( 0, 3, 2 ) 0.2972719476899989, 0.013640261550005358, 0.3648033015328545, 0.32428448922714115;
    ( 0, 4, 0 ) 0.25, 0.25, 0.25, 0.25;
    ( 0, 4, 1 ) 0.25, 0.25, 0.25, 0.25;
    ( 0, 4, 2 ) 0.0002642706131078224, 0.0002642706131078224, 0.9992071881606766, 0.0002642706131078224;
    ( 0, 5, 0 ) 0.0032637075718015664, 0.0032637075718015664, 0.9902088772845953, 0.0032637075718015664;
    ( 0, 5, 1 ) 0.044980385164051354, 0.002291369472182596, 0.9526836661911555, 4.457917261055635e-05;
    ( 0, 5, 2 ) 0.008493060145406477, 0.00016523463317911433, 0.9911764705882353, 0.00016523463317911433;
    ( 0, 6, 0 ) 0.25, 0.25, 0.25, 0.25;
    ( 0, 6, 1 ) 0.25, 0.25, 0.25, 0.25;
    ( 0, 6, 2 ) 0.0007911392405063291, 0.0007911392405063291, 0.997626582278481, 0.0007911392405063291;
    ( 1, 0, 0 ) 3.939042529054377e-06, 3.939042529054377e-06, 0.9999881828724129, 3.939042529054377e-06;
    ( 1, 0, 1 ) 6.194435909888301e-06, 6.194435909888301e-06, 0.9999814166922704, 6.194435909888301e-06;
    ( 1, 0, 2 ) 1.4311278317726408e-06, 1.4311278317726408e-06, 0.9999957066165047, 1.4311278317726408e-06;
    ( 1, 1, 0 ) 0.2981783370613418, 0.035005629045876716, 0.6332102596767741, 0.033605774216007224;
    ( 1, 1, 1 ) 0.25347268390151906, 0.028684846292815203, 0.7129428665008484, 0.004899603304817308;
    ( 1, 1, 2 ) 0.3028424976700839, 0.02608377887869721, 0.632629126404081, 0.03844459704713788;
    ( 1, 2, 0 ) 0.1310932112709547, 0.004508976340506479, 0.859139816906432, 0.005257995482106765;
    ( 1, 2, 1 ) 0.13001484384293488, 0.008587168557283061, 0.8607660132900898, 0.0006319743096922057;
    ( 1, 2, 2 ) 0.14690029881872468, 0.004567967984397704, 0.8430513784763625, 0.005480354720515184;
    ( 1, 3, 0 ) 0.3215046203294496, 0.04054841301727601, 0.4303435114503817, 0.20760345520289272;
    ( 1, 3, 1 ) 0.5151359626483976, 0.05322662005537046, 0.399843390737178, 0.031794026559054014;
    ( 1, 3, 2 ) 0.33020621442898557, 0.04063777987256452, 0.3505228894826743, 0.27863311621577563;
    ( 1, 4, 0 ) 5.541025754687708e-05, 5.541025754687708e-05, 0.9998337692273594, 5.541025754687708e-05;
    ( 1, 4, 1 ) 0.25, 0.25, 0.25, 0.25;
    ( 1, 4, 2 ) 8.965457883865043e-06, 8.965457883865043e-06, 0.9999731036263484, 8.965457883865043e-06;
    ( 1, 5, 0 ) 0.013219950159536064, 1.4556210261545985e-05, 0.9860173044227589, 0.0007481892074434637;
    ( 1, 5, 1 ) 0.034907557102707695, 0.0008036879728396488, 0.9640587232868504, 0.00023003163760217113;
    ( 1, 5, 2 ) 0.020604486569264516, 5.173626919415586e-06, 0.979124415380158, 0.00026592442365796115;
    ( 1, 6, 0 ) 0.0009881422924901185, 0.0009881422924901185, 0.9970355731225297, 0.0009881422924901185;
    ( 1, 6, 1 ) 0.25, 0.25, 0.25, 0.25;
    ( 1, 6, 2 ) 2.566524310118265e-05, 2.566524310118265e-05, 0.9999230042706964, 2.566524310118265e-05;
    ( 2, 0, 0 ) 8.333888925928396e-05, 8.333888925928396e-05, 0.9997499833322222, 8.333888925928396e-05;
    ( 2, 0, 1 ) 1.573356157486658e-05, 1.573356157486658e-05, 0.9999527993152754, 1.573356157486658e-05;
    ( 2, 0, 2 ) 1.9008544721022995e-06, 1.9008544721022995e-06, 0.9999942974365837, 1.9008544721022995e-06;
    ( 2, 1, 0 ) 0.32832728133880645, 0.029937638143353335, 0.6018511209346384, 0.039883959583201775;
    ( 2, 1, 1 ) 0.3572072912596161, 0.007363745120520149, 0.6334170478172914, 0.0020119158025722755;
    ( 2, 1, 2 ) 0.24634775198337358, 0.0330564678123904, 0.6767651807427978, 0.04383059946143835;
    ( 2, 2, 0 ) 0.25741991206030157, 0.00019629396984924627, 0.7421875000000001, 0.00019629396984924627;
    ( 2, 2, 1 ) 0.17240170976507863, 0.0018863508584398498, 0.8253287692745513, 0.00038317010192997125;
    ( 2, 2, 2 ) 0.10090909857207883, 0.0063830773639934595, 0.8895110170777348, 0.0031968069861928283;
    ( 2, 3, 0 ) 0.3539947177286233, 0.02121162099702872, 0.4163915483657972, 0.20840211290855068;
    ( 2, 3, 1 ) 0.6386803528993401, 0.013875796591800679, 0.32787831407589707, 0.01956553643296211;
    ( 2, 3, 2 ) 0.30534255348611783, 0.03773540815620024, 0.34176504188880424, 0.3151569964688777;
    ( 2, 4, 0 ) 0.0007911392405063291, 0.0007911392405063291, 0.997626582278481, 0.0007911392405063291;
    ( 2, 4, 1 ) 0.25, 0.25, 0.25, 0.25;
    ( 2, 4, 2 ) 7.768462528044149e-06, 7.768462528044149e-06, 0.9999766946124159, 7.768462528044149e-06;
    ( 2, 5, 0 ) 0.012896427137695704, 0.0002509032517061421, 0.986601766358892, 0.0002509032517061421;
    ( 2, 5, 1 ) 0.04933439367461891, 0.0002469633021797132, 0.9502945518871605, 0.00012409113604094178;
    ( 2, 5, 2 ) 0.019979098045747875, 0.0006837464469364397, 0.9793304389410393, 6.716566276389388e-06;
    ( 2, 6, 0 ) 0.009541984732824428, 0.009541984732824428, 0.9713740458015269, 0.009541984732824428;
    ( 2, 6, 1 ) 0.25, 0.25, 0.25, 0.25;
    ( 2, 6, 2 ) 2.2068429787083787e-05, 2.2068429787083787e-05, 0.9999337947106387, 2.2068429787083787e-05;

}
probability ( ESTADO_VICTIMA_G | ESTADO_AGRESOR_G, ESTADO_VICTIMA_U_A ) {
    ( 0, 0 ) 0.47939068100358423, 0.02060931899641577, 0.0014934289127837516, 0.49850657108721624;
    ( 0, 1 ) 0.030420860018298263, 0.13289112534309241, 0.01578225068618481, 0.8209057639524245;
    ( 0, 2 ) 0.010683760683760684, 0.14743589743589744, 0.2841880341880342, 0.5576923076923077;
    ( 0, 3 ) 0.003839646831795712, 0.002993734965238309, 0.0004559993655661001, 0.9927106188373999;
    ( 1, 0 ) 0.09530386740331492, 0.18370165745856354, 0.09530386740331492, 0.6256906077348067;
    ( 1, 1 ) 0.0005784922664718061, 0.23747325016963308, 0.0008568644849244045, 0.7610913930789707;
    ( 1, 2 ) 0.007575757575757576, 0.2015151515151515, 0.29848484848484846, 0.49242424242424243;
    ( 1, 3 ) 0.00018480708817664976, 0.00511172102497406, 4.709831354566624e-05, 0.9946563735733036;
    ( 2, 0 ) 0.02358490566037736, 0.02358490566037736, 0.6273584905660378, 0.32547169811320753;
    ( 2, 1 ) 0.0010955302366345311, 0.1693689745836985, 0.029141104294478526, 0.8003943908851884;
    ( 2, 2 ) 0.0014654161781946073, 0.02022274325908558, 0.414126611957796, 0.5641852286049238;
    ( 2, 3 ) 0.0012400231638844826, 0.0012400231638844826, 0.005268524813052345, 0.9922514288591787;
    ( 3, 0 ) 0.08269961977186312, 0.0015842839036755386, 0.0015842839036755386, 0.9141318124207858;
    ( 3, 1 ) 0.00039953857800314823, 0.024816452578075247, 1.5020247293351437e-05, 0.9747689885966283;
    ( 3, 2 ) 0.0010955302366345311, 0.0010955302366345311, 0.14132340052585451, 0.8564855390008764;
    ( 3, 3 ) 0.00024021405887142592, 0.0006705405572014116, 7.646149756001543e-05, 0.9990127838863672;

}
probability ( ESTADO_VICTIMA_U_A | ESTADO_AGRESOR_U_A, VIOLENCIA_FISICA, VIOLENCIA_PSICOLOGICA ) {
    ( 0, 0, 0 ) 0.03898007033997655, 0.0764947245017585, 0.02022274325908558, 0.8643024618991794;
    ( 0, 0, 1 ) 0.027305050750622988, 0.007855710204825868, 0.0029933750683765878, 0.9618458639761746;
    ( 0, 1, 0 ) 0.051036269430051816, 0.0344559585492228, 0.0012953367875647669, 0.9132124352331606;
    ( 0, 1, 1 ) 0.028442203415598236, 0.05438858764506157, 0.004928292707647088, 0.9122409162316931;
    ( 1, 0, 0 ) 5.068732006001379e-05, 0.11164389116418637, 0.0013482827135963668, 0.8869571388021572;
    ( 1, 0, 1 ) 0.000201640611876875, 0.03194216350311866, 6.837039679818308e-05, 0.9677878254882063;
    ( 1, 1, 0 ) 2.7564003616397274e-05, 0.1587962248340647, 2.7564003616397274e-05, 0.8411486471587025;
    ( 1, 1, 1 ) 0.00010622320526473882, 0.09870757215805138, 7.127058245269107e-05, 0.9011149340542312;
    ( 2, 0, 0 ) 0.001037344398340249, 0.04087136929460581, 0.09398340248962656, 0.8641078838174274;
    ( 2, 0, 1 ) 0.001986141807538379, 0.015366465563586404, 0.023012364852756706, 0.9596350277761185;
    ( 2, 1, 0 ) 0.0013397642015005359, 0.05278670953912112, 0.0013397642015005359, 0.9445337620578779;
    ( 2, 1, 1 ) 0.0024599170870585885, 0.030430547924679086, 0.028033065281454474, 0.9390764697068078;
    ( 3, 0, 0 ) 0.00017814963122122024, 0.002782570635876623, 0.0011620420107577056, 0.9958772377221444;
    ( 3, 0, 1 ) 7.820757393913647e-05, 0.002335323924733354, 0.00011266736555431536, 0.9974738011357732;
    ( 3, 1, 0 ) 1.3386020710851244e-05, 0.009437144601150128, 0.00018472708580974717, 0.9903647422923293;
    ( 3, 1, 1 ) 0.00016502395155922837, 0.00776057196446564, 0.00024163610730900488, 0.9918327679766661;

}
probability ( ESTUDIA | EDAD_VICTIMA, NIVEL_EDUCATIVO_VICTIMA, VIOLENCIA_FISICA ) {
    ( 0, 0, 0 ) 0.0018532246108228314, 0.9981467753891772;
    ( 0, 0, 1 ) 0.014450867052023123, 0.985549132947977;
    ( 0, 1, 0 ) 0.42431068661020005, 0.5756893133898;
    ( 0, 1, 1 ) 0.5, 0.5;
    ( 0, 2, 0 ) 0.5, 0.5;
    ( 0, 2, 1 ) 0.5, 0.5;
    ( 0, 3, 0 ) 0.4020891240025105, 0.5979108759974895;
    ( 0, 3, 1 ) 0.6348743857706416, 0.36512561422935846;
    ( 0, 4, 0 ) 0.22641065502484645, 0.7735893449751535;
    ( 0, 4, 1 ) 0.3766807742157411, 0.6233192257842589;
    ( 0, 5, 0 ) 0.6472721773928442, 0.35272782260715585;
    ( 0, 5, 1 ) 0.7763465767482773, 0.22365342325172263;
    ( 0, 6, 0 ) 0.0956197025919945, 0.9043802974080055;
    ( 0, 6, 1 ) 0.2452602764711027, 0.7547397235288973;
    ( 0, 7, 0 ) 0.35918444323372867, 0.6408155567662713;
    ( 0, 7, 1 ) 0.6289703483350926, 0.3710296516649074;
    ( 0, 8, 0 ) 0.5, 0.5;
    ( 0, 8, 1 ) 0.5, 0.5;
    ( 0, 9, 0 ) 0.09095939598140723, 0.9090406040185928;
    ( 0, 9, 1 ) 0.09266742588442746, 0.9073325741155724;
    ( 0, 10, 0 ) 0.5, 0.5;
    ( 0, 10, 1 ) 0.5, 0.5;
    ( 0, 11, 0 ) 0.06158864598832551, 0.9384113540116744;
    ( 0, 11, 1 ) 0.07012793811365665, 0.9298720618863434;
    ( 1, 0, 0 ) 0.6662543295398318, 0.33374567046016823;
    ( 1, 0, 1 ) 0.33497053045186637, 0.6650294695481336;
    ( 1, 1, 0 ) 0.9802520273029579, 0.019747972697042183;
    ( 1, 1, 1 ) 0.999829013063402, 0.00017098693659804392;
    ( 1, 2, 0 ) 0.7856805460428427, 0.21431945395715735;
    ( 1, 2, 1 ) 0.8619760939824552, 0.13802390601754477;
    ( 1, 3, 0 ) 0.9962411834875247, 0.0037588165124753494;
    ( 1, 3, 1 ) 0.9974845357534975, 0.0025154642465025326;
    ( 1, 4, 0 ) 0.9962311907779178, 0.00376880922208217;
    ( 1, 4, 1 ) 0.9974687232051648, 0.002531276794835217;
    ( 1, 5, 0 ) 0.9891723960770337, 0.010827603922966271;
    ( 1, 5, 1 ) 0.9893097409044278, 0.010690259095572143;
    ( 1, 6, 0 ) 0.9840487604468708, 0.015951239553129073;
    ( 1, 6, 1 ) 0.987228707281727, 0.012771292718272903;
    ( 1, 7, 0 ) 0.9976729412089659, 0.002327058791034264;
    ( 1, 7, 1 ) 0.9966532531742269, 0.003346746825773217;
    ( 1, 8, 0 ) 0.9596828411863331, 0.04031715881366681;
    ( 1, 8, 1 ) 0.9607717792559511, 0.03922822074404894;
    ( 1, 9, 0 ) 0.8943265361085875, 0.1056734638914126;
    ( 1, 9, 1 ) 0.8892104139138602, 0.11078958608613987;
    ( 1, 10, 0 ) 0.9325086713696651, 0.0674913286303349;
    ( 1, 10, 1 ) 0.93095507959606, 0.06904492040393996;
    ( 1, 11, 0 ) 0.8600377524696408, 0.13996224753035927;
    ( 1, 11, 1 ) 0.8364065625598384, 0.16359343744016167;
    ( 2, 0, 0 ) 0.5997032640949554, 0.4002967359050445;
    ( 2, 0, 1 ) 0.7493814943097477, 0.25061850569025235;
    ( 2, 1, 0 ) 0.8910513384197595, 0.10894866158024055;
    ( 2, 1, 1 ) 0.9185822215077962, 0.08141777849220384;
    ( 2, 2, 0 ) 0.7093484563348762, 0.29065154366512386;
    ( 2, 2, 1 ) 0.8034101774142144, 0.19658982258578564;
    ( 2, 3, 0 ) 0.9910496439064744, 0.00895035609352566;
    ( 2, 3, 1 ) 0.9947646313584214, 0.005235368641578609;
    ( 2, 4, 0 ) 0.9898337146515892, 0.010166285348410874;
    ( 2, 4, 1 ) 0.9929667608357754, 0.0070332391642246245;
    ( 2, 5, 0 ) 0.9721453953524162, 0.027854604647583808;
    ( 2, 5, 1 ) 0.971624083313911, 0.02837591668608898;
    ( 2, 6, 0 ) 0.960073438276401, 0.03992656172359907;
    ( 2, 6, 1 ) 0.9659808908535734, 0.03401910914642657;
    ( 2, 7, 0 ) 0.955078443887017, 0.044921556112982944;
    ( 2, 7, 1 ) 0.97929649478077, 0.020703505219230037;
    ( 2, 8, 0 ) 0.9293420651712108, 0.07065793482878932;
    ( 2, 8, 1 ) 0.9338012701881568, 0.06619872981184324;
    ( 2, 9, 0 ) 0.7067634400626116, 0.2932365599373885;
    ( 2, 9, 1 ) 0.7052408238482066, 0.2947591761517935;
    ( 2, 10, 0 ) 0.9005309945642004, 0.09946900543579969;
    ( 2, 10, 1 ) 0.9094258742931078, 0.0905741257068922;
    ( 2, 11, 0 ) 0.6012862352217939, 0.3987137647782061;
    ( 2, 11, 1 ) 0.639337332339941, 0.360662667660059;
    ( 3, 0, 0 ) 0.985549132947977, 0.014450867052023123;
    ( 3, 0, 1 ) 0.5, 0.5;
    ( 3, 1, 0 ) 0.9769501149114507, 0.023049885088549413;
    ( 3, 1, 1 ) 0.9992180168908351, 0.000781983109164842;
    ( 3, 2, 0 ) 0.9350661807020909, 0.06493381929790908;
    ( 3, 2, 1 ) 0.9950884086444007, 0.004911591355599213;
    ( 3, 3, 0 ) 0.9991728962215183, 0.0008271037784817188;
    ( 3, 3, 1 ) 0.9999673684622714, 3.2631537728583916e-05;
    ( 3, 4, 0 ) 0.9992470633245325, 0.0007529366754676106;
    ( 3, 4, 1 ) 0.9999843856372845, 1.561436271540013e-05;
    ( 3, 5, 0 ) 0.9974749649040712, 0.002525035095928872;
    ( 3, 5, 1 ) 0.9981206944061725, 0.0018793055938275006;
    ( 3, 6, 0 ) 0.9990757254606465, 0.0009242745393534957;
    ( 3, 6, 1 ) 0.9973082205838241, 0.002691779416175936;
    ( 3, 7, 0 ) 0.999991573781653, 8.42621834691078e-06;
    ( 3, 7, 1 ) 0.9999826163142413, 1.7383685758589277e-05;
    ( 3, 8, 0 ) 0.9970195380944414, 0.0029804619055585394;
    ( 3, 8, 1 ) 0.9954495716458939, 0.00455042835410606;
    ( 3, 9, 0 ) 0.9934536379343444, 0.006546362065655595;
    ( 3, 9, 1 ) 0.9758532785724402, 0.024146721427559838;
    ( 3, 10, 0 ) 0.9749054069476512, 0.025094593052348804;
    ( 3, 10, 1 ) 0.9949765770012668, 0.005023422998733095;
    ( 3, 11, 0 ) 0.9846983474819492, 0.015301652518050813;
    ( 3, 11, 1 ) 0.9997779948494806, 0.00022200515051949205;
    ( 4, 0, 0 ) 0.5, 0.5;
    ( 4, 0, 1 ) 0.5, 0.5;
    ( 4, 1, 0 ) 0.1202466451114481, 0.8797533548885519;
    ( 4, 1, 1 ) 0.20264366950365295, 0.7973563304963471;
    ( 4, 2, 0 ) 0.5, 0.5;
    ( 4, 2, 1 ) 0.5, 0.5;
    ( 4, 3, 0 ) 0.1040491461247199, 0.8959508538752802;
    ( 4, 3, 1 ) 0.14323635591420683, 0.8567636440857932;
    ( 4, 4, 0 ) 0.06853684490094207, 0.931463155099058;
    ( 4, 4, 1 ) 0.10169083622049495, 0.898309163779505;
    ( 4, 5, 0 ) 0.5, 0.5;
    ( 4, 5, 1 ) 0.5, 0.5;
    ( 4, 6, 0 ) 0.08468113634459064, 0.9153188636554094;
    ( 4, 6, 1 ) 0.03620726268846889, 0.9637927373115311;
    ( 4, 7, 0 ) 0.4864973476932969, 0.5135026523067031;
    ( 4, 7, 1 ) 0.7364716922114483, 0.2635283077885518;
    ( 4, 8, 0 ) 0.5, 0.5;
    ( 4, 8, 1 ) 0.5, 0.5;
    ( 4, 9, 0 ) 0.5, 0.5;
    ( 4, 9, 1 ) 0.5, 0.5;
    ( 4, 10, 0 ) 0.5, 0.5;
    ( 4, 10, 1 ) 0.5, 0.5;
    ( 4, 11, 0 ) 0.5, 0.5;
    ( 4, 11, 1 ) 0.5, 0.5;
    ( 5, 0, 0 ) 0.5, 0.5;
    ( 5, 0, 1 ) 0.40059171597633136, 0.5994082840236686;
    ( 5, 1, 0 ) 0.9085382329100243, 0.09146176708997569;
    ( 5, 1, 1 ) 0.799554234769688, 0.20044576523031205;
    ( 5, 2, 0 ) 0.007331378299120233, 0.9926686217008797;
    ( 5, 2, 1 ) 0.5, 0.5;
    ( 5, 3, 0 ) 0.9836266154315498, 0.01637338456845016;
    ( 5, 3, 1 ) 0.9870120976945903, 0.012987902305409724;
    ( 5, 4, 0 ) 0.966877385985797, 0.03312261401420303;
    ( 5, 4, 1 ) 0.9853051074857639, 0.014694892514236018;
    ( 5, 5, 0 ) 0.9202386048638403, 0.07976139513615968;
    ( 5, 5, 1 ) 0.9387611165959492, 0.061238883404050724;
    ( 5, 6, 0 ) 0.8739489618151468, 0.1260510381848532;
    ( 5, 6, 1 ) 0.9214928109851841, 0.0785071890148159;
    ( 5, 7, 0 ) 0.8295569759753141, 0.17044302402468592;
    ( 5, 7, 1 ) 0.8858289731197827, 0.11417102688021727;
    ( 5, 8, 0 ) 0.8916868257907435, 0.1083131742092564;
    ( 5, 8, 1 ) 0.9139599666512458, 0.08604003334875426;
    ( 5, 9, 0 ) 0.38696318695917287, 0.6130368130408271;
    ( 5, 9, 1 ) 0.4212502559659214, 0.5787497440340786;
    ( 5, 10, 0 ) 0.8602993169791675, 0.13970068302083252;
    ( 5, 10, 1 ) 0.8879378966617663, 0.1120621033382337;
    ( 5, 11, 0 ) 0.25405971275012684, 0.7459402872498733;
    ( 5, 11, 1 ) 0.3215848916421448, 0.6784151083578552;
    ( 6, 0, 0 ) 0.5, 0.5;
    ( 6, 0, 1 ) 0.5, 0.5;
    ( 6, 1, 0 ) 0.12501453161692333, 0.8749854683830767;
    ( 6, 1, 1 ) 0.11249611587828955, 0.8875038841217104;
    ( 6, 2, 0 ) 0.5, 0.5;
    ( 6, 2, 1 ) 0.5, 0.5;
    ( 6, 3, 0 ) 0.5, 0.5;
    ( 6, 3, 1 ) 0.5, 0.5;
    ( 6, 4, 0 ) 0.11831527437958757, 0.8816847256204124;
    ( 6, 4, 1 ) 0.33415597235932876, 0.6658440276406713;
    ( 6, 5, 0 ) 0.5, 0.5;
    ( 6, 5, 1 ) 0.5, 0.5;
    ( 6, 6, 0 ) 0.5, 0.5;
    ( 6, 6, 1 ) 0.5, 0.5;
    ( 6, 7, 0 ) 0.9210251523892812, 0.0789748476107188;
    ( 6, 7, 1 ) 0.9326776802156449, 0.06732231978435506;
    ( 6, 8, 0 ) 0.5, 0.5;
    ( 6, 8, 1 ) 0.5, 0.5;
    ( 6, 9, 0 ) 0.5, 0.5;
    ( 6, 9, 1 ) 0.5, 0.5;
    ( 6, 10, 0 ) 0.5, 0.5;
    ( 6, 10, 1 ) 0.5, 0.5;
    ( 6, 11, 0 ) 0.5, 0.5;
    ( 6, 11, 1 ) 0.5, 0.5;

}
probability ( ETNIA_VICTIMA | AREA_RESIDENCIA_DOMICILIO, ESTUDIA, NIVEL_EDUCATIVO_VICTIMA ) {
    ( 0, 0, 0 ) 0.004793863854266538, 0.004793863854266538, 0.6490891658676894, 0.004793863854266538, 0.3269415148609779, 0.004793863854266538, 0.004793863854266538;
    ( 0, 0, 1 ) 0.014381306425916094, 0.00010621348911311737, 0.7138608603292619, 0.00010621348911311737, 0.00010621348911311737, 0.007243759957514605, 0.26419543281996816;
    ( 0, 0, 2 ) 0.0020946795140343523, 0.0020946795140343523, 0.8466694595726852, 0.0020946795140343523, 0.0020946795140343523, 0.14285714285714282, 0.0020946795140343523;
    ( 0, 0, 3 ) 0.03837083989136582, 0.008606853492049964, 0.7294313582337751, 0.004516068631480487, 0.001553776146240521, 0.010722776695792798, 0.20679832690929534;
    ( 0, 0, 4 ) 0.028115981499923712, 0.005514256510546979, 0.6362677621896898, 0.0030887055360772817, 0.0014349207807570331, 0.012239647848849323, 0.3133387256341559;
    ( 0, 0, 5 ) 0.0460879304469848, 0.006281567789604141, 0.7389311989326078, 0.002127020230702762, 0.0014506985350676536, 0.0070545068703299785, 0.19806707719470268;
    ( 0, 0, 6 ) 0.03084016265208519, 0.006471232139928802, 0.7414209240463798, 0.0033442454812892663, 0.002050319967369458, 0.01337216821416778, 0.20250094749877973;
    ( 0, 0, 7 ) 0.041948049368892605, 0.0044532624947159465, 0.504277836673359, 0.0015934906144821344, 0.0028645003390304954, 0.012079320842006113, 0.43278353966751365;
    ( 0, 0, 8 ) 0.020663252831084996, 0.012212961863311512, 0.8032540885687738, 0.0028237496768965297, 0.00047644663029278406, 0.008926737598066269, 0.151642762831574;
    ( 0, 0, 9 ) 0.009983889296024543, 0.008986983856659239, 0.819471106060651, 0.005996267538563328, 1.4834902371507492e-05, 0.012974605614120453, 0.14257231273160992;
    ( 0, 0, 10 ) 0.013253309746428838, 0.020472621405115826, 0.8386612760563077, 1.7905038836029233e-05, 1.7905038836029233e-05, 0.015659746965991168, 0.11191723574848432;
    ( 0, 0, 11 ) 0.017488925659080955, 0.017488925659080955, 0.812793553509286, 0.005023335880864577, 0.005023335880864577, 0.012502689747794405, 0.12967923366302836;
    ( 0, 1, 0 ) 0.013477088948787066, 0.013477088948787066, 0.9191374663072779, 0.013477088948787066, 0.013477088948787066, 0.013477088948787066, 0.013477088948787066;
    ( 0, 1, 1 ) 0.00010697704272663087, 0.00010697704272663087, 0.8196367059629004, 0.00010697704272663087, 0.00010697704272663087, 0.00010697704272663087, 0.17982840882346648;
    ( 0, 1, 2 ) 0.32694151486097783, 0.0047938638542665375, 0.6490891658676893, 0.0047938638542665375, 0.0047938638542665375, 0.0047938638542665375, 0.0047938638542665375;
    ( 0, 1, 3 ) 0.02282199743168045, 0.007682429540180683, 0.8252190956811679, 0.00011264559443080181, 0.007682429540180683, 0.015252213485930567, 0.12122918872642892;
    ( 0, 1, 4 ) 0.00942164202851695, 0.011987709352144372, 0.8160221374220696, 0.003434151606719634, 0.003434151606719634, 0.01883055554848416, 0.13686965243534555;
    ( 0, 1, 5 ) 0.01556912785164515, 0.009359956387962337, 0.7886109750801554, 0.0031507849242795225, 4.6199192438116165e-05, 0.012464542119803744, 0.17079841444371546;
    ( 0, 1, 6 ) 0.01551836714080092, 0.009457914121937758, 0.7987713152986757, 0.0014581161370383867, 0.0036398792238291245, 0.01939705707287334, 0.15175735100484478;
    ( 0, 1, 7 ) 0.0004239084357778721, 0.028910555320050876, 0.911996608732514, 0.0004239084357778721, 0.0004239084357778721, 0.0004239084357778721, 0.057397202204323886;
    ( 0, 1, 8 ) 0.00817765414038706, 0.00817765414038706, 0.8622988560876761, 0.00011990695220508887, 0.00011990695220508887, 0.00817765414038706, 0.1129283675867527;
    ( 0, 1, 9 ) 0.019776323584611278, 0.009139709573404846, 0.7962491464026807, 0.003061644424144028, 2.2611849513619112e-05, 0.0076201932860896415, 0.1641303708795557;
    ( 0, 1, 10 ) 0.017171055944408077, 0.034090336874968534, 0.8631351024724307, 0.00025177501384762577, 0.00025177501384762577, 0.017171055944408077, 0.06792889873608944;
    ( 0, 1, 11 ) 0.014364998849095045, 0.011500524301144935, 0.8250112959189762, 4.262610934449568e-05, 0.002907100657294605, 0.014364998849095045, 0.13180845531504953;
    ( 1, 0, 0 ) 0.0005294927459493804, 0.036111405273747746, 0.8900773059409086, 0.0005294927459493804, 0.0005294927459493804, 0.0005294927459493804, 0.07169331780154613;
    ( 1, 0, 1 ) 0.007405674515853114, 0.00986204829406303, 0.8450291328854349, 3.655318122336186e-05, 3.655318122336186e-05, 3.655318122336186e-05, 0.1375934847609787;
    ( 1, 0, 2 ) 0.008841321544904605, 0.059490493449295107, 0.8941007609172952, 0.004437045727131519, 3.276990935843071e-05, 3.276990935843071e-05, 0.033064838542656586;
    ( 1, 0, 3 ) 0.02464661054963284, 0.008978139050382692, 0.7952454579504764, 0.0033464108602607526, 0.0008929847180294128, 0.002621534954601493, 0.16426886191661635;
    ( 1, 0, 4 ) 0.023899124104883186, 0.006294743516631077, 0.7543389477061502, 0.0023195608031547936, 0.0011837943135901416, 0.003313356481523864, 0.2086504730740666;
    ( 1, 0, 5 ) 0.017197392668674826, 0.00940216285348987, 0.8764551564513487, 0.002284779109190564, 0.0018454344336165326, 0.0007910072122388574, 0.09202406727144054;
    ( 1, 0, 6 ) 0.017336916891560018, 0.00816965349857984, 0.8626514347713499, 0.0028781698185811554, 0.0013696328045464429, 0.002344379798230411, 0.10524981241715219;
    ( 1, 0, 7 ) 0.02797789853669816, 0.007486475607835318, 0.672121323648343, 0.0017845144450213109, 0.0012499555860074978, 0.003210004735724813, 0.28616982744036995;
    ( 1, 0, 8 ) 0.00988016169664866, 0.014047093813880031, 0.8900773628792396, 0.001512693170917926, 0.001479088879649931, 0.0009078159280940175, 0.08209578363156973;
    ( 1, 0, 9 ) 0.009995715246207583, 0.012437139346687442, 0.8966141362360969, 0.0024425594353480145, 0.0008403748694081066, 0.0006877858631281153, 0.07698228900312375;
    ( 1, 0, 10 ) 0.00915223677761598, 0.02130660922373308, 0.8917503331884018, 0.000953993402195816, 0.001478299664577338, 0.0006680081681695312, 0.07469051957530623;
    ( 1, 0, 11 ) 0.009863706542973144, 0.019949882644806165, 0.9043954581522082, 0.0021309715315678294, 0.001906834284860429, 0.0010102852980308273, 0.06074286154555304;
    ( 1, 1, 0 ) 0.0005294927459493804, 0.036111405273747746, 0.8544953934131102, 0.0005294927459493804, 0.0005294927459493804, 0.0005294927459493804, 0.1072752303293445;
    ( 1, 1, 1 ) 0.0019297700523631845, 0.013422876184015118, 0.9405334374706045, 0.0019297700523631845, 1.4252363754528687e-05, 0.0019297700523631845, 0.040240123824536296;
    ( 1, 1, 2 ) 0.03370898823059047, 0.016916964441890104, 0.8733101776656089, 0.0001249406531897349, 0.0001249406531897349, 0.0001249406531897349, 0.07568904770234139;
    ( 1, 1, 3 ) 0.010502997234821745, 0.023607368088516902, 0.9133941490544182, 0.0013299376372351336, 1.9500551865617796e-05, 1.9500551865617796e-05, 0.051126546881276734;
    ( 1, 1, 4 ) 0.003799531440775954, 0.011220868503954403, 0.9325021997422464, 0.0019010498664744904, 0.00034774676022783843, 0.0019010498664744904, 0.048327553819846644;
    ( 1, 1, 5 ) 0.010723128612804894, 0.011353624931625865, 0.885221522817493, 0.00473341358400566, 0.0012656838304903144, 0.0006351875116693424, 0.08606743871191105;
    ( 1, 1, 6 ) 0.006942114139093345, 0.011087670570580693, 0.926821804628315, 0.0018806789611146054, 0.002555536984845104, 0.0009165960700710363, 0.04979559864598;
    ( 1, 1, 7 ) 0.00431672890689284, 0.017077030191784286, 0.931565288942338, 0.008570162668523323, 6.329514526235836e-05, 6.329514526235836e-05, 0.0383441989999367;
    ( 1, 1, 8 ) 0.0126517663881522, 0.020347862222869377, 0.8817608745801423, 0.0038562282913325663, 0.0005579015050252037, 0.0005579015050252037, 0.08026746550745315;
    ( 1, 1, 9 ) 0.00749739781833426, 0.01145717543439493, 0.8916591712330239, 0.0024062551691133986, 0.000992048877663159, 0.0024062551691133986, 0.08358169629835714;
    ( 1, 1, 10 ) 0.012280470510513753, 0.020817882829732934, 0.8911003511201383, 0.0010751168415385763, 0.0010751168415385763, 7.940301636178554e-06, 0.07364312155490163;
    ( 1, 1, 11 ) 0.005478460070342543, 0.01930015263004503, 0.9029757231687596, 0.0027402002236090314, 0.0018274469413645275, 0.00143626696325974, 0.06624175000261952;

}
probability ( FRECUENCIA_AGREDE ) {
    table 0.04745237364211881, 0.7619807886310803, 0.05458718949661535, 0.032931268915303305, 0.10304837931488223 ;
}
probability ( HIJOS_VIVIENTES | EDAD_VICTIMA, NIVEL_DE_RIESGO_VICTIMA, SEGURO_VICTIMA, VIOLENCIA_PSICOLOGICA ) {
    ( 0, 0, 0, 0 ) 0.6396447633213754, 0.36035523667862457;
    ( 0, 0, 0, 1 ) 0.6519819069158433, 0.3480180930841566;
    ( 0, 0, 1, 0 ) 0.32567844925883693, 0.6743215507411631;
    ( 0, 0, 1, 1 ) 0.38514717288810413, 0.6148528271118958;
    ( 0, 1, 0, 0 ) 0.4359063289031936, 0.5640936710968064;
    ( 0, 1, 0, 1 ) 0.6468871702651118, 0.35311282973488817;
    ( 0, 1, 1, 0 ) 0.23567358963501397, 0.764326410364986;
    ( 0, 1, 1, 1 ) 0.3240272729100844, 0.6759727270899157;
    ( 0, 2, 0, 0 ) 0.48746725904313515, 0.5125327409568649;
    ( 0, 2, 0, 1 ) 0.619029861877629, 0.38097013812237107;
    ( 0, 2, 1, 0 ) 0.2094088681894426, 0.7905911318105575;
    ( 0, 2, 1, 1 ) 0.33704443665644723, 0.6629555633435528;
    ( 1, 0, 0, 0 ) 0.23174702567313718, 0.7682529743268629;
    ( 1, 0, 0, 1 ) 0.293102115115099, 0.706897884884901;
    ( 1, 0, 1, 0 ) 0.156926182346394, 0.843073817653606;
    ( 1, 0, 1, 1 ) 0.17020584645732822, 0.8297941535426717;
    ( 1, 1, 0, 0 ) 0.2804349035092598, 0.7195650964907402;
    ( 1, 1, 0, 1 ) 0.24708840246240496, 0.7529115975375951;
    ( 1, 1, 1, 0 ) 0.1025328990954928, 0.8974671009045072;
    ( 1, 1, 1, 1 ) 0.1220190545949844, 0.8779809454050156;
    ( 1, 2, 0, 0 ) 0.13606990747540024, 0.8639300925245998;
    ( 1, 2, 0, 1 ) 0.24835532436600907, 0.751644675633991;
    ( 1, 2, 1, 0 ) 0.08823008513706687, 0.9117699148629331;
    ( 1, 2, 1, 1 ) 0.10923552187354403, 0.8907644781264559;
    ( 2, 0, 0, 0 ) 0.5624612715330276, 0.43753872846697234;
    ( 2, 0, 0, 1 ) 0.46563838490783965, 0.5343616150921604;
    ( 2, 0, 1, 0 ) 0.18375711638312434, 0.8162428836168756;
    ( 2, 0, 1, 1 ) 0.255462251153061, 0.744537748846939;
    ( 2, 1, 0, 0 ) 0.3834556329777394, 0.6165443670222606;
    ( 2, 1, 0, 1 ) 0.40786057374192236, 0.5921394262580776;
    ( 2, 1, 1, 0 ) 0.14725879846310932, 0.8527412015368907;
    ( 2, 1, 1, 1 ) 0.1986325397589247, 0.8013674602410753;
    ( 2, 2, 0, 0 ) 0.4687693642334862, 0.5312306357665139;
    ( 2, 2, 0, 1 ) 0.4036051122234339, 0.5963948877765661;
    ( 2, 2, 1, 0 ) 0.14099530357724951, 0.8590046964227505;
    ( 2, 2, 1, 1 ) 0.17747701934823032, 0.8225229806517697;
    ( 3, 0, 0, 0 ) 0.25123395853899305, 0.7487660414610069;
    ( 3, 0, 0, 1 ) 0.16715355688846067, 0.8328464431115392;
    ( 3, 0, 1, 0 ) 0.07945576628578162, 0.9205442337142185;
    ( 3, 0, 1, 1 ) 0.12068039966581104, 0.879319600334189;
    ( 3, 1, 0, 0 ) 0.20089020771513355, 0.7991097922848664;
    ( 3, 1, 0, 1 ) 0.14096828313493648, 0.8590317168650635;
    ( 3, 1, 1, 0 ) 0.07479381697861623, 0.9252061830213838;
    ( 3, 1, 1, 1 ) 0.08819006390806172, 0.9118099360919384;
    ( 3, 2, 0, 0 ) 0.00588235294117647, 0.9941176470588234;
    ( 3, 2, 0, 1 ) 0.16427852448339156, 0.8357214755166085;
    ( 3, 2, 1, 0 ) 0.059044095590440965, 0.9409559044095591;
    ( 3, 2, 1, 1 ) 0.07686689366568762, 0.9231331063343123;
    ( 4, 0, 0, 0 ) 0.9991969161580468, 0.0008030838419530998;
    ( 4, 0, 0, 1 ) 0.9998760228118027, 0.0001239771881973717;
    ( 4, 0, 1, 0 ) 0.9997904969412554, 0.00020950305874465767;
    ( 4, 0, 1, 1 ) 0.9999737794325869, 2.6220567413078816e-05;
    ( 4, 1, 0, 0 ) 0.9996658200775298, 0.00033417992247025804;
    ( 4, 1, 0, 1 ) 0.9999210684178953, 7.893158210463169e-05;
    ( 4, 1, 1, 0 ) 0.999938132594224, 6.186740577594099e-05;
    ( 4, 1, 1, 1 ) 0.9999827072193901, 1.7292780609950956e-05;
    ( 4, 2, 0, 0 ) 0.9993933511283669, 0.0006066488716330987;
    ( 4, 2, 0, 1 ) 0.9997271040279446, 0.00027289597205545246;
    ( 4, 2, 1, 0 ) 0.9999122221832097, 8.777781679014078e-05;
    ( 4, 2, 1, 1 ) 0.9999411889246983, 5.8811075301700805e-05;
    ( 5, 0, 0, 0 ) 0.5689301466817109, 0.4310698533182891;
    ( 5, 0, 0, 1 ) 0.6637693474480031, 0.3362306525519969;
    ( 5, 0, 1, 0 ) 0.30042202928432205, 0.6995779707156778;
    ( 5, 0, 1, 1 ) 0.399089193424005, 0.600910806575995;
    ( 5, 1, 0, 0 ) 0.4330865470221639, 0.5669134529778361;
    ( 5, 1, 0, 1 ) 0.6093551925265068, 0.3906448074734932;
    ( 5, 1, 1, 0 ) 0.23126873670408113, 0.7687312632959189;
    ( 5, 1, 1, 1 ) 0.3207386423999887, 0.6792613576000112;
    ( 5, 2, 0, 0 ) 0.3805938717489734, 0.6194061282510267;
    ( 5, 2, 0, 1 ) 0.6009412502310926, 0.3990587497689074;
    ( 5, 2, 1, 0 ) 0.20318176583292324, 0.7968182341670768;
    ( 5, 2, 1, 1 ) 0.2879782276278558, 0.7120217723721443;
    ( 6, 0, 0, 0 ) 0.9983520105471325, 0.0016479894528675014;
    ( 6, 0, 0, 1 ) 0.9996373132163064, 0.00036268678369360223;
    ( 6, 0, 1, 0 ) 0.9991746450973918, 0.0008253549026081214;
    ( 6, 0, 1, 1 ) 0.9999348839632224, 6.511603677753756e-05;
    ( 6, 1, 0, 0 ) 0.9977210574293528, 0.0022789425706472195;
    ( 6, 1, 0, 1 ) 0.9997139915341495, 0.0002860084658505892;
    ( 6, 1, 1, 0 ) 0.9996658200775298, 0.00033417992247025804;
    ( 6, 1, 1, 1 ) 0.9999514534827271, 4.854651727285084e-05;
    ( 6, 2, 0, 0 ) 0.9957841483979764, 0.0042158516020236085;
    ( 6, 2, 0, 1 ) 0.9993538382010856, 0.0006461617989144482;
    ( 6, 2, 1, 0 ) 0.9994873897888046, 0.000512610211195407;
    ( 6, 2, 1, 1 ) 0.9998481996478232, 0.00015180035217681706;

}
probability ( LENGUA_MATERNA_VICTIMA | ETNIA_VICTIMA, NIVEL_EDUCATIVO_VICTIMA ) {
    ( 0, 0 ) 0.25, 0.25, 0.25, 0.25;
    ( 0, 1 ) 0.710370994940978, 0.2854131534569983, 0.0021079258010118043, 0.0021079258010118043;
    ( 0, 2 ) 0.5535479632063075, 0.4431668856767411, 0.0016425755584756896, 0.0016425755584756896;
    ( 0, 3 ) 0.8813274772186191, 0.11449388391757655, 2.052376652163205e-05, 0.004158115097282654;
    ( 0, 4 ) 0.878893525676629, 0.11602518876563038, 0.0012797033790173677, 0.0038015821787231487;
    ( 0, 5 ) 0.7163161416154871, 0.2794264307670944, 0.0005380959294068636, 0.0037193316880116643;
    ( 0, 6 ) 0.7227815134917361, 0.2747772160884037, 0.0008177536475170025, 0.0016235167723431402;
    ( 0, 7 ) 0.9102093166427251, 0.0793453724604966, 5.13030987071619e-05, 0.010394007798071002;
    ( 0, 8 ) 0.5938661098872192, 0.3977657580639858, 0.0028030776312760984, 0.005565054417518824;
    ( 0, 9 ) 0.6134220663485309, 0.3767751394239061, 7.186799287069509e-05, 0.009730926234692117;
    ( 0, 10 ) 0.5021365280763382, 0.49332826508677186, 6.553767105332144e-05, 0.004469669165836522;
    ( 0, 11 ) 0.45765943182770463, 0.5421310651135506, 0.00010475152937232882, 0.00010475152937232882;
    ( 1, 0 ) 0.007225433526011558, 0.9783236994219651, 0.007225433526011558, 0.007225433526011558;
    ( 1, 1 ) 0.0008239947264337507, 0.9975280158206987, 0.0008239947264337507, 0.0008239947264337507;
    ( 1, 2 ) 0.0005120852109791069, 0.9640516181892667, 0.0005120852109791069, 0.03492421138877509;
    ( 1, 3 ) 6.173144352807544e-05, 0.9624796286236356, 0.004210084448614745, 0.03324855548422144;
    ( 1, 4 ) 5.678462726570662e-05, 0.9578544496433924, 0.003872711579521191, 0.03821605414982056;
    ( 1, 5 ) 0.0011896953542570856, 0.9753303934019006, 0.0011896953542570856, 0.022290215889585106;
    ( 1, 6 ) 2.1849708961876626e-05, 0.9749733433550665, 0.0029584505934380956, 0.022046356342533515;
    ( 1, 7 ) 0.00024371222460518624, 0.950136478845779, 0.00024371222460518624, 0.04937609670501074;
    ( 1, 8 ) 3.086953300570468e-05, 0.9853863630750993, 0.0021053021509890597, 0.012477465240905835;
    ( 1, 9 ) 5.74422131335876e-05, 0.9921074399154449, 0.0039175589357106745, 0.0039175589357106745;
    ( 1, 10 ) 2.946375957572186e-05, 0.9840718915733647, 0.007949322333529758, 0.007949322333529758;
    ( 1, 11 ) 4.414933069614664e-05, 0.9880002119167872, 0.0030109843534772006, 0.00894465439903931;
    ( 2, 0 ) 0.019494626114795337, 0.979933683969815, 0.00028584495769494635, 0.00028584495769494635;
    ( 2, 1 ) 0.001308313686082016, 0.9772446179414834, 0.0026069647895489508, 0.018840103582885633;
    ( 2, 2 ) 2.8724406553760595e-05, 0.9941229864191006, 2.8724406553760595e-05, 0.005819564767791897;
    ( 2, 3 ) 0.0043487633824506, 0.943028743924554, 0.002174749320767657, 0.05044774337222755;
    ( 2, 4 ) 0.005059661528504057, 0.926961654006821, 0.001960052881664763, 0.06601863158301016;
    ( 2, 5 ) 0.0034149738946024602, 0.9700610582032325, 0.0007079774351918113, 0.025815990466973148;
    ( 2, 6 ) 0.002433823099416512, 0.9698497348846516, 0.0011419122248139523, 0.026574529791117827;
    ( 2, 7 ) 0.005706691848189371, 0.883593990387166, 0.00802395781387601, 0.10267535995076872;
    ( 2, 8 ) 0.001371319647136697, 0.9799711307411634, 0.0006691912507796451, 0.017988358360920265;
    ( 2, 9 ) 0.0016499913796118306, 0.9786093197133244, 0.0007738408952441839, 0.01896684801181944;
    ( 2, 10 ) 0.001231353607115226, 0.9873600657698629, 0.00047403099049796773, 0.01093454963252385;
    ( 2, 11 ) 0.0010259990954581471, 0.9880169178308383, 0.000705672301113288, 0.010251410772590093;
    ( 3, 0 ) 0.25, 0.25, 0.25, 0.25;
    ( 3, 1 ) 0.007225433526011558, 0.9783236994219651, 0.007225433526011558, 0.007225433526011558;
    ( 3, 2 ) 0.007225433526011558, 0.9783236994219651, 0.007225433526011558, 0.007225433526011558;
    ( 3, 3 ) 0.00015990789305360113, 0.9457912242548293, 0.00015990789305360113, 0.053888959959063586;
    ( 3, 4 ) 0.011024182076813657, 0.9234773050562525, 0.021886719255140314, 0.04361179361179362;
    ( 3, 5 ) 0.009156072491209087, 0.9725317825263726, 0.00461184744387341, 0.013700297538544765;
    ( 3, 6 ) 7.438262421898242e-05, 0.9747842903897648, 7.438262421898242e-05, 0.02506694436179708;
    ( 3, 7 ) 0.0008722958827634332, 0.8801465457083042, 0.0008722958827634332, 0.11810886252616888;
    ( 3, 8 ) 0.00025630510559770356, 0.9820073815870414, 0.00025630510559770356, 0.017480008201763382;
    ( 3, 9 ) 0.00026079699561861055, 0.9816920509075737, 0.017786355101189238, 0.00026079699561861055;
    ( 3, 10 ) 0.0006745817593092282, 0.9979762547220723, 0.0006745817593092282, 0.0006745817593092282;
    ( 3, 11 ) 0.00035380696292103037, 0.9751627512029439, 0.02412963487121427, 0.00035380696292103037;
    ( 4, 0 ) 0.01404494382022472, 0.01404494382022472, 0.957865168539326, 0.01404494382022472;
    ( 4, 1 ) 0.25, 0.25, 0.25, 0.25;
    ( 4, 2 ) 0.25, 0.25, 0.25, 0.25;
    ( 4, 3 ) 0.0005303351718285957, 0.535108188375053, 0.28563852354688163, 0.17872295290623674;
    ( 4, 4 ) 0.0003377465549851392, 0.7266279383950285, 0.18191029451499602, 0.09112402053499058;
    ( 4, 5 ) 8.961215857767579e-05, 0.8792924223958705, 0.06633091977919563, 0.054287045666356;
    ( 4, 6 ) 0.00010188279403374357, 0.835377781400277, 0.1164927866981824, 0.04802754910750672;
    ( 4, 7 ) 0.0009266123054114157, 0.6236100815418829, 0.31226834692364713, 0.06319495922905856;
    ( 4, 8 ) 0.00032308089945722415, 0.9121866115275267, 0.06545619023003363, 0.02203411734298269;
    ( 4, 9 ) 0.0008239947264337507, 0.8867831245880026, 0.11156888595912987, 0.0008239947264337507;
    ( 4, 10 ) 0.00045012603528988133, 0.9684011523226507, 0.030698595606769907, 0.00045012603528988133;
    ( 4, 11 ) 0.0004369101712687873, 0.9399685424676689, 0.029797273680531294, 0.029797273680531294;
    ( 5, 0 ) 0.25, 0.25, 0.25, 0.25;
    ( 5, 1 ) 0.004863813229571984, 0.33171206225680927, 0.6585603112840467, 0.004863813229571984;
    ( 5, 2 ) 0.01404494382022472, 0.01404494382022472, 0.957865168539326, 0.01404494382022472;
    ( 5, 3 ) 0.00011899095668729176, 0.12006187529747739, 0.879700142789148, 0.00011899095668729176;
    ( 5, 4 ) 6.95178243701685e-05, 0.2663505922918636, 0.7241671764640454, 0.009412713419720817;
    ( 5, 5 ) 0.00010475152937232884, 0.33799128467275624, 0.6617992122684991, 0.00010475152937232884;
    ( 5, 6 ) 4.592042908048932e-05, 0.14508100363689796, 0.8486554498365232, 0.006217626097498255;
    ( 5, 7 ) 0.00026544913994478657, 0.07161817795710342, 0.8921745593544276, 0.035941813548524104;
    ( 5, 8 ) 0.00030963586821897447, 0.3748451820658905, 0.6245355461976715, 0.00030963586821897447;
    ( 5, 9 ) 0.00033774655498513916, 0.20460686300999734, 0.7720210753850311, 0.023034315049986494;
    ( 5, 10 ) 0.0005303351718285957, 0.3925540941875265, 0.6063852354688163, 0.0005303351718285957;
    ( 5, 11 ) 0.0004950495049504951, 0.566039603960396, 0.43297029702970297, 0.0004950495049504951;
    ( 6, 0 ) 0.002941176470588235, 0.9911764705882352, 0.002941176470588235, 0.002941176470588235;
    ( 6, 1 ) 0.006340647080699145, 0.27499070286351807, 9.297136481963555e-05, 0.7185756786909632;
    ( 6, 2 ) 0.0006185056902523503, 0.8318901533894112, 0.0006185056902523503, 0.16687283523008412;
    ( 6, 3 ) 0.0008987748945321973, 0.1314096841162691, 0.0004510530790202355, 0.8672404879101784;
    ( 6, 4 ) 0.0006520403251146585, 0.12001140780343286, 0.0007820614225855934, 0.8785544904488668;
    ( 6, 5 ) 0.0006195122130656077, 0.2901429200268282, 0.00041351903781568764, 0.7088240487222905;
    ( 6, 6 ) 0.0004973799983187156, 0.2757678971997764, 0.0006212641194714868, 0.7231134586824335;
    ( 6, 7 ) 0.0013477008164129779, 0.06277648346993499, 0.0010120244084702347, 0.9348637913051817;
    ( 6, 8 ) 0.00034684221018841364, 0.4025942983616028, 0.00034684221018841364, 0.5967120172180204;
    ( 6, 9 ) 8.039153895130845e-06, 0.4257101788550959, 8.039153895130845e-06, 0.5742737428371139;
    ( 6, 10 ) 8.257747418628156e-06, 0.566027296809867, 8.257747418628156e-06, 0.4339561876952957;
    ( 6, 11 ) 1.2961830003007144e-05, 0.5478939618611114, 1.2961830003007144e-05, 0.4520801144788826;

}
probability ( NIVEL_DE_RIESGO_VICTIMA | FRECUENCIA_AGREDE, VIOLENCIA_FISICA ) {
    ( 0, 0 ) 0.17856027626237578, 0.5238515089730167, 0.29758821476460756;
    ( 0, 1 ) 0.07242528012672676, 0.4581964730822093, 0.4693782467910639;
    ( 1, 0 ) 0.28787072075774195, 0.5317093623108653, 0.18041991693139278;
    ( 1, 1 ) 0.13502373720421731, 0.561530949529607, 0.30344531326617574;
    ( 2, 0 ) 0.32779256523077477, 0.51183298024517, 0.16037445452405527;
    ( 2, 1 ) 0.16148007255948293, 0.5464327856149064, 0.2920871418256107;
    ( 3, 0 ) 0.260199672180003, 0.5579198331098196, 0.1818804947101773;
    ( 3, 1 ) 0.10638798247934855, 0.5334097657053826, 0.3602022518152688;
    ( 4, 0 ) 0.19573659273001753, 0.551560126956411, 0.2527032803135714;
    ( 4, 1 ) 0.08082808635588795, 0.49461507385182335, 0.4245568397922887;

}
probability ( NIVEL_EDUCATIVO_AGRESOR | AREA_RESIDENCIA_DOMICILIO, NIVEL_EDUCATIVO_VICTIMA, VINCULO_AGRESOR_VICTIMA ) {
    ( 0, 0, 0 ) 0.00279642058165548, 0.00279642058165548, 0.00279642058165548, 0.48601789709172244, 0.00279642058165548, 0.00279642058165548, 0.48601789709172244, 0.00279642058165548, 0.00279642058165548, 0.00279642058165548, 0.00279642058165548, 0.00279642058165548;
    ( 0, 0, 1 ) 0.0027964205816554794, 0.0027964205816554794, 0.0027964205816554794, 0.48601789709172233, 0.0027964205816554794, 0.48601789709172233, 0.0027964205816554794, 0.0027964205816554794, 0.0027964205816554794, 0.0027964205816554794, 0.0027964205816554794, 0.0027964205816554794;
    ( 0, 0, 2 ) 0.08333333333333334, 0.08333333333333334, 0.08333333333333334, 0.08333333333333334, 0.08333333333333334, 0.08333333333333334, 0.08333333333333334, 0.08333333333333334, 0.08333333333333334, 0.08333333333333334, 0.08333333333333334, 0.08333333333333334;
    ( 0, 1, 0 ) 0.0003840245775729647, 0.0003840245775729647, 0.0003840245775729647, 0.3321812596006145, 0.1994623655913979, 0.3321812596006145, 0.1331029185867896, 0.0003840245775729647, 0.0003840245775729647, 0.0003840245775729647, 0.0003840245775729647, 0.0003840245775729647;
    ( 0, 1, 1 ) 6.425083526085838e-05, 0.04447442816756617, 6.425083526085838e-05, 0.2776278591621691, 0.15549987149832944, 0.26652531482909275, 0.18880750449755845, 0.03337188383448984, 6.425083526085838e-05, 0.011166795168337186, 0.022269339501413517, 6.425083526085838e-05;
    ( 0, 1, 2 ) 3.3245565041623446e-05, 0.011522912843426688, 3.3245565041623446e-05, 0.1379092529056624, 0.18386792201920263, 0.22982659113274287, 0.2700404266070906, 0.01726774648261922, 0.08046091651373706, 0.02875741376100428, 0.02875741376100428, 0.011522912843426688;
    ( 0, 2, 0 ) 0.005411255411255414, 0.005411255411255414, 0.005411255411255414, 0.005411255411255414, 0.005411255411255414, 0.9404761904761908, 0.005411255411255414, 0.005411255411255414, 0.005411255411255414, 0.005411255411255414, 0.005411255411255414, 0.005411255411255414;
    ( 0, 2, 1 ) 0.0014220705346985206, 0.0014220705346985206, 0.0014220705346985206, 0.0014220705346985206, 0.0014220705346985206, 0.0014220705346985206, 0.0014220705346985206, 0.0014220705346985206, 0.4928896473265073, 0.0014220705346985206, 0.4928896473265073, 0.0014220705346985206;
    ( 0, 2, 2 ) 0.0011415525114155248, 0.0011415525114155248, 0.0011415525114155248, 0.0011415525114155248, 0.0011415525114155248, 0.395662100456621, 0.0011415525114155248, 0.0011415525114155248, 0.395662100456621, 0.0011415525114155248, 0.19840182648401822, 0.0011415525114155248;
    ( 0, 3, 0 ) 2.482966847426653e-05, 2.482966847426653e-05, 2.482966847426653e-05, 0.27891166597143596, 0.18880976501201754, 0.24029656556025664, 0.163066364737898, 0.034349363367300316, 0.04722106350436008, 0.004315396380827522, 0.03863993007965357, 0.004315396380827522;
    ( 0, 3, 1 ) 9.414302358772282e-07, 0.0014650537330721425, 9.414302358772282e-07, 0.30404826298590026, 0.13518731072545104, 0.298679851208834, 0.19798146060265084, 0.022938700841337367, 0.02082387195946276, 0.008622936102493884, 0.006833465510138448, 0.0034172034701871632;
    ( 0, 3, 2 ) 6.880569821270316e-06, 6.880569821270316e-06, 0.001195843034936781, 0.2687123976859267, 0.1593278508952997, 0.2817909848021973, 0.17359540047668584, 0.03567575452328659, 0.04043160438374863, 0.020219242476784954, 0.014274430151207397, 0.004762730430283313;
    ( 0, 4, 0 ) 9.908131801932479e-06, 9.908131801932479e-06, 9.908131801932479e-06, 0.21744980540429137, 0.21744980540429137, 0.24826805856102216, 0.17122242566919518, 0.027403910937784853, 0.056510038919141706, 0.0068584088332976625, 0.04623728786689811, 0.008570534008671596;
    ( 0, 4, 1 ) 7.704677848927907e-07, 0.002130959799456481, 7.704677848927907e-07, 0.2238037871265311, 0.27958812024968077, 0.22979494462185743, 0.19824151514647204, 0.03980868360339769, 0.014113274790109162, 0.005725654296652285, 0.003728601798210172, 0.0030629176320628006;
    ( 0, 4, 2 ) 2.6990902986057585e-06, 0.00046910189389768084, 2.6990902986057585e-06, 0.20428712706669347, 0.2336705036934352, 0.2639866859273751, 0.18050058408314065, 0.04944139627180057, 0.038247728985422766, 0.011662769180275484, 0.01212917198387456, 0.005599532733487507;
    ( 0, 5, 0 ) 2.9819413631050354e-05, 2.9819413631050354e-05, 2.9819413631050354e-05, 0.09793291824709559, 0.1030857129225411, 0.4174061881247167, 0.1752248383787781, 0.04125217681719506, 0.056710560843531564, 0.010335408764522054, 0.07732173954531357, 0.020640998115413058;
    ( 0, 5, 1 ) 0.00010591614171750398, 0.00031652959728464656, 0.00010591614171750398, 0.0848778320074924, 0.05907768370051743, 0.5165301091923511, 0.18670943777420582, 0.007266773631000352, 0.07540022650697098, 0.02706443845431175, 0.025590144265341754, 0.01695499258708891;
    ( 0, 5, 2 ) 5.892696356427988e-06, 5.892696356427988e-06, 5.892696356427988e-06, 0.12830639192559173, 0.1242333602040287, 0.4052725489918774, 0.18532883602747408, 0.03666317819042366, 0.053973563007066516, 0.01629801958260853, 0.03768143612081441, 0.012224987861045504;
    ( 0, 6, 0 ) 4.875061913286299e-06, 0.0008472857605291588, 4.875061913286299e-06, 0.11373031937505608, 0.1036213909916656, 0.3049575479608591, 0.18786246085325287, 0.029489249513468825, 0.08171871282765292, 0.0117986248425355, 0.15837808640169732, 0.007586571349456138;
    ( 0, 6, 1 ) 6.613704124041344e-07, 0.0006863702139930108, 6.613704124041344e-07, 0.12297111398586784, 0.10297127271476683, 0.39519752488736865, 0.2927983375793314, 0.013943407856551404, 0.03600037565839425, 0.016457673616346962, 0.010514863638648371, 0.008457737107906552;
    ( 0, 6, 2 ) 1.6715542914147636e-06, 0.0008682052989608284, 1.6715542914147636e-06, 0.17388610965128706, 0.16810921802015763, 0.31830840042952263, 0.22010124270032244, 0.04101760213531032, 0.03755146715663267, 0.015599278958340857, 0.016176968121453802, 0.008378164419429079;
    ( 0, 7, 0 ) 3.1784778905077934e-05, 3.1784778905077934e-05, 3.1784778905077934e-05, 0.22522058636560124, 0.2911295039031708, 0.20874335698120883, 0.12635721005924683, 0.12086480026444936, 0.005524194573702544, 0.005524194573702544, 0.01650901416329748, 3.1784778905077934e-05;
    ( 0, 7, 1 ) 2.8380774636215236e-06, 0.003435776577460217, 2.8380774636215236e-06, 0.24374147157722187, 0.34084458914855414, 0.15546591014873798, 0.11328980857735127, 0.12947366150590664, 0.006868715077456812, 0.004416616148887815, 0.0009836776488912203, 0.0014740974346050195;
    ( 0, 7, 2 ) 6.021455650774839e-06, 0.0020870365285585593, 6.021455650774839e-06, 0.2351607246942304, 0.17273027250699688, 0.2580518904962161, 0.18625687048089748, 0.08844916205423162, 0.026018709866998082, 0.006249066674374129, 0.021856679721182513, 0.003127544065012452;
    ( 0, 8, 0 ) 9.175658812302721e-05, 9.175658812302721e-05, 9.175658812302721e-05, 0.09522498715407765, 0.09522498715407765, 0.36476914042428243, 0.12693606400939586, 0.01594729501578213, 0.15864714086471407, 9.175658812302721e-05, 0.12693606400939586, 0.01594729501578213;
    ( 0, 8, 1 ) 2.937478703279401e-06, 2.937478703279401e-06, 0.0010181301185566405, 0.04873218419166461, 0.02741313875474403, 0.380192581103787, 0.09999941250425935, 0.007616882277603487, 0.26243023488079714, 0.055330936350711464, 0.0908626787455791, 0.02639794611489067;
    ( 0, 8, 2 ) 2.617746225209943e-05, 2.617746225209943e-05, 2.617746225209943e-05, 0.11311281439132165, 0.09501895248267052, 0.3528564846809491, 0.15834746916294945, 0.013596573893740445, 0.15834746916294945, 0.022643504848066008, 0.06335469414253105, 0.022643504848066008;
    ( 0, 9, 0 ) 0.00013436525851875738, 0.00013436525851875738, 0.00013436525851875738, 0.04657099860260131, 0.11622594861872514, 0.3019724819950553, 0.1394442652907664, 0.02335268193056003, 0.1394442652907664, 0.04657099860260131, 0.18588089863484894, 0.00013436525851875738;
    ( 0, 9, 1 ) 4.151182754990552e-06, 0.0007214755628173579, 4.151182754990552e-06, 0.047347560266871244, 0.03371839704568626, 0.42322553541955177, 0.13916508091485427, 0.005742746223253929, 0.17216200239772317, 0.09684294249117459, 0.04519558712668414, 0.035870370185873364;
    ( 0, 9, 2 ) 2.5826979896278844e-05, 2.5826979896278844e-05, 2.5826979896278844e-05, 0.12052418438397487, 0.16515320564474473, 0.3168918779313622, 0.19639352052728362, 0.02680323973635819, 0.08482096737535899, 0.02680323973635819, 0.031266141862435176, 0.031266141862435176;
    ( 0, 10, 0 ) 0.0001284026707755521, 0.0001284026707755521, 0.0001284026707755521, 0.08888032871083718, 0.022316384180790957, 0.2663841807909604, 0.08888032871083718, 0.022316384180790957, 0.022316384180790957, 0.0001284026707755521, 0.4882639958911145, 0.0001284026707755521;
    ( 0, 10, 1 ) 8.059160686769436e-06, 8.059160686769436e-06, 0.0027933050940342867, 0.023682649594140664, 0.011149042894076837, 0.26878429172872215, 0.04735724002759456, 0.004185928060708045, 0.20472363526172926, 0.04178674816089953, 0.3203113414956512, 0.07520969936106973;
    ( 0, 10, 2 ) 4.554231792181294e-05, 4.554231792181294e-05, 4.554231792181294e-05, 0.1023518052974824, 0.08661238022370385, 0.4564888694574999, 0.07874266768681458, 0.023654679928589644, 0.09448209276059313, 0.015784967391700367, 0.12596094290815024, 0.015784967391700367;
    ( 0, 11, 0 ) 0.00024043085208693972, 0.00024043085208693972, 0.00024043085208693972, 0.04178688209271012, 0.08333333333333331, 0.3741584920176956, 0.12487978457395651, 0.04178688209271012, 0.04178688209271012, 0.00024043085208693972, 0.29106558953644923, 0.00024043085208693972;
    ( 0, 11, 1 ) 1.013368355343694e-05, 0.0017612342015873401, 0.0017612342015873401, 0.028027741972095892, 0.0315299430081637, 0.40276325283135117, 0.09281846113935031, 0.008765636273722953, 0.16111138134267253, 0.057796450778672244, 0.12083606942789277, 0.09281846113935031;
    ( 0, 11, 2 ) 3.731900283624421e-05, 3.731900283624421e-05, 3.731900283624421e-05, 0.12901179280489625, 0.07742200328407224, 0.4192043588595312, 0.11611434542469025, 0.006486042692939243, 0.14190924018510226, 0.019383490073145247, 0.05807583221376324, 0.03228093745335125;
    ( 1, 0, 0 ) 0.0008185985592665356, 0.0008185985592665356, 0.0008185985592665356, 0.0008185985592665356, 0.0008185985592665356, 0.5666339227242959, 0.1422724296005239, 0.0008185985592665356, 0.1422724296005239, 0.0008185985592665356, 0.0008185985592665356, 0.1422724296005239;
    ( 1, 0, 1 ) 0.06065378692426151, 0.00017499650006999856, 0.00017499650006999856, 0.00017499650006999856, 0.06065378692426151, 0.33280834383312324, 0.12113257734845302, 0.03041439171216575, 0.06065378692426151, 0.03041439171216575, 0.242090158196836, 0.06065378692426151;
    ( 1, 0, 2 ) 0.00036012676462114667, 0.00036012676462114667, 0.00036012676462114667, 0.00036012676462114667, 0.06259003169115529, 0.37373955632382605, 0.24927974647075773, 0.06259003169115529, 0.06259003169115529, 0.06259003169115529, 0.12481993661768945, 0.00036012676462114667;
    ( 1, 1, 0 ) 0.0001862613619430785, 0.0001862613619430785, 0.0001862613619430785, 0.22548800476829084, 0.0001862613619430785, 0.5795336015496945, 0.09674415139323497, 0.0001862613619430785, 0.03237222470570704, 0.0001862613619430785, 0.06455818804947101, 0.0001862613619430785;
    ( 1, 1, 1 ) 2.8082945788681445e-05, 0.0194390150749253, 2.8082945788681445e-05, 0.16987373907573408, 0.11649367572060838, 0.33486666217339534, 0.15531553997888162, 0.0194390150749253, 0.09708274359147177, 0.0194390150749253, 0.04855541326863022, 0.0194390150749253;
    ( 1, 1, 2 ) 4.766644168106194e-06, 0.0032994710931631074, 0.002475794980914357, 0.07084091229756063, 0.03459916335861562, 0.4480845717074883, 0.14826646684894315, 0.010712556103401858, 0.10873001346100314, 0.04942533337909312, 0.08237237786904313, 0.04118857225660562;
    ( 1, 2, 0 ) 0.00011331701568307496, 0.00011331701568307496, 0.019694497325718426, 0.00011331701568307496, 0.00011331701568307496, 0.274249841356178, 0.019694497325718426, 0.00011331701568307496, 0.039275677635753785, 0.00011331701568307496, 0.5875487263167437, 0.05885685794578914;
    ( 1, 2, 1 ) 1.312046687869341e-05, 1.312046687869341e-05, 0.21086427139423328, 0.002280337143516915, 0.004547553820155137, 0.12471003768198087, 0.020418070556622685, 0.004547553820155137, 0.14964942112500132, 0.02495250390989913, 0.3741038721121852, 0.0839001375024929;
    ( 1, 2, 2 ) 7.138370167323395e-05, 7.138370167323395e-05, 0.037076694649077716, 0.01240648735080806, 0.02474159099994289, 0.35778938952658323, 0.061746901947347374, 7.138370167323395e-05, 0.13575752384215634, 0.01240648735080806, 0.2837787676317743, 0.0740820055964822;
    ( 1, 3, 0 ) 1.5266429731677237e-05, 1.5266429731677237e-05, 1.5266429731677237e-05, 0.1398313364843245, 0.08707055533164795, 0.40363524224770714, 0.16621172706066276, 0.026395657006069943, 0.05277604758240821, 0.015843500775534636, 0.08443251627401413, 0.023757617948436116;
    ( 1, 3, 1 ) 6.548063084446655e-05, 0.0006514154817611201, 3.7675852039393874e-07, 0.22311134721311726, 0.08736977341742584, 0.39557150499958565, 0.20240831581406216, 0.017252902924399637, 0.03476584457957518, 0.013476878329603427, 0.01653676032883484, 0.008789399522270197;
    ( 1, 3, 2 ) 1.9563560442793805e-06, 0.0010161313293987103, 0.0006780730049472333, 0.1315066445676688, 0.07234643778866034, 0.4009391291554959, 0.17241170182629753, 0.01859516420087551, 0.08215012919775318, 0.025018272365453575, 0.07234643778866034, 0.022989922418744712;
    ( 1, 4, 0 ) 6.002718030724311e-06, 6.002718030724311e-06, 6.002718030724311e-06, 0.09958389158611018, 0.10165843093752851, 0.40454117624460345, 0.1846400049942614, 0.03734771104356052, 0.060167643909162065, 0.014527778177958977, 0.0912857341804369, 0.00622962077228569;
    ( 1, 4, 1 ) 3.4865723730141533e-07, 0.0008438202457168854, 0.0002413405396600397, 0.1558016006435376, 0.18640756971122538, 0.3672719774694905, 0.21026576607107647, 0.02367780110527134, 0.025967223988287352, 0.010664239454443471, 0.010302751630809364, 0.00855556048324451;
    ( 1, 4, 2 ) 0.00010742065334502229, 0.0005346309847148693, 0.0007482361503997928, 0.07753929321412979, 0.09313247030912922, 0.42977421142856864, 0.18957520261587216, 0.01708903132529644, 0.07828691129402703, 0.028623710272282308, 0.063014141947555, 0.021574739804679836;
    ( 1, 5, 0 ) 0.000776028662158735, 4.465067101028394e-06, 4.465067101028394e-06, 0.06018642548160214, 0.027780754489178466, 0.5555302535086498, 0.10956649556529537, 0.023922936513889933, 0.07638926097781398, 0.014664173373197455, 0.1134243135405839, 0.01775042775342828;
    ( 1, 5, 1 ) 4.128200643077331e-05, 0.00021982628684295884, 0.00028849716392456866, 0.0478362124552312, 0.034390454722652, 0.5583355126799185, 0.15530613508795055, 0.0050542560333882896, 0.09597449728943969, 0.03348399914517475, 0.04394944081241209, 0.025119886316634674;
    ( 1, 5, 2 ) 6.629615073941422e-07, 0.0006880214523736409, 0.0004589019554182253, 0.06701811582096645, 0.050750631537131934, 0.48642135499785466, 0.16886173221764864, 0.012487675545577542, 0.0795051284050366, 0.030473556056577658, 0.0721733045024633, 0.031160914547443908;
    ( 1, 6, 0 ) 1.6273689609965228e-06, 1.6273689609965228e-06, 0.0002828367254211957, 0.04921326474949585, 0.032621912718344095, 0.4268774304755433, 0.16113458862065513, 0.022779585242237128, 0.08464564366348093, 0.016311770043652547, 0.18250649971163024, 0.023623213311617725;
    ( 1, 6, 1 ) 2.5002741957777422e-05, 0.0006713336917155588, 4.9861624640769016e-05, 0.08056778263485052, 0.06356430687968428, 0.44716172556092754, 0.2931609473397946, 0.009645390340275523, 0.048723553917938305, 0.02219912609518628, 0.018868035815665405, 0.01536293335736359;
    ( 1, 6, 2 ) 0.00010003890722646894, 0.0005489151580014386, 0.0012471671036513915, 0.07620950098307132, 0.06578559693729703, 0.44902616482117114, 0.19172032284916352, 0.015561331989475423, 0.08184539168724594, 0.030523873681974414, 0.06189533609724729, 0.02553635978447475;
    ( 1, 7, 0 ) 4.102261166354894e-05, 4.102261166354894e-05, 4.102261166354894e-05, 0.17016999770273375, 0.177258704998195, 0.3261215582028814, 0.13472646122542745, 0.06383938827081487, 0.0567506809753536, 0.014218437202586065, 0.0567506809753536, 4.102261166354894e-05;
    ( 1, 7, 1 ) 1.8727854312275737e-06, 0.0006491074304634772, 0.0006491074304634772, 0.21973803477387993, 0.21585462690368645, 0.2792836221168469, 0.15242563169052598, 0.07767003018930116, 0.02071338142646321, 0.008092305848334347, 0.016829973556269716, 0.008092305848334347;
    ( 1, 7, 2 ) 2.2121113983906453e-06, 0.0011489706603241012, 0.0007667178106821977, 0.09671218307079997, 0.09059613747652952, 0.40863050837859316, 0.21215254366265485, 0.02484864733812212, 0.0665142079490896, 0.02523090018776402, 0.05313535821162298, 0.020261613142419276;
    ( 1, 8, 0 ) 8.834234425244708e-06, 8.834234425244708e-06, 0.009168168486518958, 0.03511961553411781, 0.016800947029930385, 0.4060726527439132, 0.0900756210466801, 0.0152743913212481, 0.20151418778048694, 0.02138061415597724, 0.17556274073288808, 0.02901339269938867;
    ( 1, 8, 1 ) 0.00010920179667861707, 0.00014553231355590824, 0.002361693843070669, 0.021326223653016656, 0.014859391648858827, 0.370498821360662, 0.07422345622635258, 0.0035606009000212773, 0.2703719168468476, 0.058456011901608214, 0.13355119028696905, 0.05053595922235874;
    ( 1, 8, 2 ) 1.703538044093016e-06, 1.703538044093016e-06, 0.0011791890341211859, 0.05063357986935908, 0.04003621040466525, 0.41094414166894944, 0.10833036917713662, 0.011187815750776474, 0.16779338672902983, 0.044451781014954346, 0.11922211001584973, 0.046218009259069985;
    ( 1, 9, 0 ) 1.1784559398893194e-05, 0.0020481564235276368, 0.0020481564235276368, 0.03666647811371629, 0.020375503200686332, 0.4643045695807525, 0.10386674962996484, 0.00815727201591387, 0.08961214658106363, 0.040739221841973774, 0.1995762272440158, 0.032593734385458796;
    ( 1, 9, 1 ) 0.00011698232318118479, 5.865991854844176e-05, 0.0014583976297342742, 0.026420386812548283, 0.019421698256619123, 0.4036496999771301, 0.11396231616629555, 0.003966261028942224, 0.16971853499519787, 0.11944462220177339, 0.08386795537580015, 0.05791448531422952;
    ( 1, 9, 2 ) 2.2774021582484775e-06, 0.0003958124951035854, 0.0019699528668849333, 0.05549072550745076, 0.05549072550745076, 0.46043833614820245, 0.1294753229811741, 0.009053584539900999, 0.10271493666089118, 0.05942607643690413, 0.0846123223854057, 0.040929927068473294;
    ( 1, 10, 0 ) 0.0013077974223297758, 7.524726250459009e-06, 0.01951161516744021, 0.02471270595175748, 0.013010251687043626, 0.2652631547264311, 0.032514342128233384, 0.01561079707920226, 0.09752797693219922, 0.018211342471360893, 0.47980814957951834, 0.032514342128233384;
    ( 1, 10, 1 ) 5.265881571595992e-05, 0.00010501464630121813, 0.0067542051306290095, 0.008063100895260463, 0.005707088518923845, 0.21884767483151, 0.03293212042325811, 0.004031701940195583, 0.16942377075902623, 0.044607470643770686, 0.42601969645737664, 0.08345549693803227;
    ( 1, 10, 2 ) 1.9386607731379165e-06, 1.9386607731379165e-06, 0.004691946803148386, 0.032161994494203414, 0.02077197471986352, 0.34706254119654145, 0.06365204916443722, 0.008376953200728938, 0.1242871544337172, 0.04388701485014153, 0.27939242371369866, 0.07571207010197357;
    ( 1, 11, 0 ) 1.210501341235486e-05, 1.210501341235486e-05, 0.016746075554651713, 0.025113060825271392, 0.016746075554651713, 0.3848934274619176, 0.06903973349602471, 0.008379090284032034, 0.09414068930788376, 0.029296553460581232, 0.26357214103793225, 0.09204894299022884;
    ( 1, 11, 1 ) 0.00023022143454637072, 0.00015362870468573758, 0.004596007036602461, 0.015701952866394267, 0.010263869046289313, 0.32498339604363097, 0.0693934564986981, 0.003906672467856762, 0.15732191037870497, 0.06510426362650265, 0.18252091850285326, 0.16582370339323524;
    ( 1, 11, 2 ) 1.892382479263273e-06, 1.892382479263273e-06, 0.006214962538396442, 0.04316637978148282, 0.0287782173151483, 0.3910983085128448, 0.10006502226198749, 0.009484999462563377, 0.13374640258090695, 0.04676342039806645, 0.16710077920740968, 0.07357772317623533;

}
probability ( NIVEL_EDUCATIVO_VICTIMA | AREA_RESIDENCIA_DOMICILIO, EDAD_VICTIMA, TRABAJA_VICTIMA ) {
    ( 0, 0, 0 ) 0.00016942415660555477, 0.0020057634023947935, 2.4842251701694247e-06, 0.04858200427286731, 0.13355442937347844, 0.049416703930044235, 0.7482272569185673, 0.008349480796939436, 2.4842251701694247e-06, 0.0063462016197148126, 2.4842251701694247e-06, 0.0033412828538778765;
    ( 0, 0, 1 ) 6.170097240732512e-05, 6.170097240732512e-05, 6.170097240732512e-05, 0.12859716669134702, 0.161767609457525, 0.13688977738289151, 0.5266424798854829, 0.01664692235549632, 6.170097240732512e-05, 0.01664692235549632, 6.170097240732512e-05, 0.01250061700972407;
    ( 0, 1, 0 ) 1.6111590162391933e-06, 0.004224136708775917, 1.6111590162391933e-06, 0.20852941138560957, 0.3041317206276043, 0.1663041558880128, 0.1431344003072802, 0.11184440328470208, 0.029451020121442715, 0.014184966210773108, 0.011045139519926167, 0.007147423627840309;
    ( 0, 1, 1 ) 1.7656190189655733e-06, 0.0026120567766576694, 0.0005950136093913983, 0.1795186075057171, 0.26708201088468814, 0.18284079625180272, 0.15033080637939342, 0.08922626337103284, 0.06371659978501823, 0.021240043674352057, 0.03476609785484352, 0.00806993828808405;
    ( 0, 2, 0 ) 0.0001203295547735899, 0.0018988074317791415, 1.764362973219793e-06, 0.17132846651450803, 0.16765294556869656, 0.2757844004906341, 0.22966254088029012, 0.026560367326256124, 0.05383036144034125, 0.039483973232496465, 0.016719456406825407, 0.016956586790426147;
    ( 0, 2, 1 ) 0.00017368645164182086, 0.0010293850990267448, 0.00017368645164182086, 0.14752499353132573, 0.15026322920295748, 0.2697187603778929, 0.2187191209937514, 0.021052733447833965, 0.08950862523862788, 0.041076081796641184, 0.040220383149256266, 0.02053931425940301;
    ( 0, 3, 0 ) 1.0758518595023538e-05, 0.007963455464036423, 0.0014567034177661873, 0.10122690146057649, 0.3195645812354222, 0.03615938099787411, 0.04700396774165784, 0.45259151195916925, 0.015193179959892241, 0.0036256207665229328, 0.013747235060721077, 0.0014567034177661873;
    ( 0, 3, 1 ) 2.2138391513026223e-05, 0.005972938030214476, 0.0015098383011883886, 0.13242743035262028, 0.36302091635230144, 0.07738253369463187, 0.09225953279138549, 0.270783521952429, 0.019362237217292737, 0.010436037759240563, 0.020849937126968098, 0.005972938030214476;
    ( 0, 4, 0 ) 2.1686705182255063e-05, 0.052486163882093706, 2.1686705182255063e-05, 0.010223112822915038, 0.9035765714186573, 2.1686705182255063e-05, 0.01750984576415274, 0.0160524991759052, 2.1686705182255063e-05, 2.1686705182255063e-05, 2.1686705182255063e-05, 2.1686705182255063e-05;
    ( 0, 4, 1 ) 0.01262626262626263, 0.01262626262626263, 0.01262626262626263, 0.01262626262626263, 0.8611111111111114, 0.01262626262626263, 0.01262626262626263, 0.01262626262626263, 0.01262626262626263, 0.01262626262626263, 0.01262626262626263, 0.01262626262626263;
    ( 0, 5, 0 ) 0.0001498824675313259, 0.0011836759092723188, 0.0001498824675313259, 0.1005755310937992, 0.07901355359462992, 0.34499383767684816, 0.311026338876787, 0.010783186439724394, 0.036184968151074505, 0.07532143415984066, 0.006500327895368853, 0.03411738126759252;
    ( 0, 5, 1 ) 5.5626015174776955e-06, 0.0018745967113899835, 5.5626015174776955e-06, 0.08822397258749975, 0.07588834746234122, 0.34615067974990554, 0.27699641768462285, 0.009724539972854508, 0.07065505195469819, 0.08000022250406072, 0.015705449124446526, 0.03476959704514608;
    ( 0, 6, 0 ) 7.43383883437407e-05, 0.5945435622955694, 7.43383883437407e-05, 7.43383883437407e-05, 0.015060957478441868, 7.43383883437407e-05, 7.43383883437407e-05, 0.38972643473089497, 7.43383883437407e-05, 7.43383883437407e-05, 7.43383883437407e-05, 7.43383883437407e-05;
    ( 0, 6, 1 ) 0.012626262626262633, 0.8611111111111115, 0.012626262626262633, 0.012626262626262633, 0.012626262626262633, 0.012626262626262633, 0.012626262626262633, 0.012626262626262633, 0.012626262626262633, 0.012626262626262633, 0.012626262626262633, 0.012626262626262633;
    ( 1, 0, 0 ) 0.00029514023599820963, 0.00136303717605263, 5.479766728522272e-07, 0.03402595392875163, 0.09198698095101568, 0.06547367761173353, 0.7783501211466827, 0.005303208644529285, 5.479766728522272e-07, 0.011415998025530451, 5.479766728522272e-07, 0.011784238349687148;
    ( 1, 0, 1 ) 1.4473120520569195e-05, 1.4473120520569195e-05, 1.4473120520569195e-05, 0.04572637697268632, 0.04669897067166857, 0.2587243970497991, 0.5757899429180126, 0.005850035314414069, 1.4473120520569195e-05, 0.050589345467597566, 1.4473120520569195e-05, 0.01654856600321882;
    ( 1, 1, 0 ) 0.00012704849678631393, 0.0014697663785493277, 0.0012924262809579862, 0.105771078061914, 0.12565850329180014, 0.3042146472666251, 0.1605691682176385, 0.028906812905895442, 0.1155754520287496, 0.053506417871780086, 0.06779496287771103, 0.035113716321592395;
    ( 1, 1, 1 ) 0.00015008023606082418, 0.0010492236414059105, 0.004675768709631092, 0.07906489977851457, 0.09961032659064978, 0.2874263982438159, 0.14846378494773282, 0.019856306536540632, 0.14674042675415475, 0.051745925979446356, 0.1266595573681145, 0.034557301213932794;
    ( 1, 2, 0 ) 0.00030498353829254546, 0.0007872760595854883, 0.000634973158124559, 0.0665567456737968, 0.059093903502211255, 0.3473779121508403, 0.17573254220437295, 0.00812319914662025, 0.11714669277573549, 0.08465540713073723, 0.07155735760509731, 0.06802900705458577;
    ( 1, 2, 1 ) 0.00016269516472145355, 0.0006092761738640398, 0.00298427517703143, 0.048840025161263345, 0.04212101088734534, 0.3110439749382991, 0.14690515494161943, 0.0053998724537572375, 0.15973420938607918, 0.0825771904883078, 0.1329596479743032, 0.06666266725340837;
    ( 1, 3, 0 ) 0.00012828441972555414, 0.004805210830365111, 0.0013923185847632723, 0.13436871274673123, 0.253567134509788, 0.16382070879211005, 0.11174250119255606, 0.17228973769786277, 0.06598446441819067, 0.01377985340213291, 0.05840025942796436, 0.019720813977810187;
    ( 1, 3, 1 ) 3.804723335737919e-06, 0.0025605788049516197, 0.005117352886567501, 0.09997367131451672, 0.23957353617074387, 0.18715966749761828, 0.11863812211031265, 0.115314315804212, 0.08770115572276048, 0.01943528774361644, 0.09843960686554719, 0.026082900355817732;
    ( 1, 4, 0 ) 3.2906600537562237e-06, 0.0550652472075459, 3.2906600537562237e-06, 0.021453129154458326, 0.8947048014678979, 3.2906600537562237e-06, 0.018799540887109306, 0.009954246662612576, 3.2906600537562237e-06, 3.2906600537562237e-06, 3.2906600537562237e-06, 3.2906600537562237e-06;
    ( 1, 4, 1 ) 0.0009197939661515818, 0.1245401030169242, 0.0009197939661515818, 0.06272994849153789, 0.680831493745401, 0.0009197939661515818, 0.1245401030169242, 0.0009197939661515818, 0.0009197939661515818, 0.0009197939661515818, 0.0009197939661515818, 0.0009197939661515818;
    ( 1, 5, 0 ) 0.00033195736266632885, 0.0007628607089149245, 4.932501674091067e-07, 0.03709132743879653, 0.02989855619756997, 0.36500877393397785, 0.21581677689821405, 0.004276380301403474, 0.056183660318734306, 0.13185691720223766, 0.020252950523851405, 0.13851934586346595;
    ( 1, 5, 1 ) 9.911763345157172e-05, 0.00029588882895956637, 0.00034508162783656503, 0.028335784188848807, 0.02198991313371598, 0.37170152035029946, 0.18462130622107356, 0.0027555287728094997, 0.10719184078867766, 0.13208339702043898, 0.04422505822611938, 0.10635556320776868;
    ( 1, 6, 0 ) 9.808306458573636e-06, 0.5912388283389436, 9.808306458573636e-06, 9.808306458573636e-06, 0.01319217218678154, 9.808306458573636e-06, 9.808306458573636e-06, 0.3954807247161476, 9.808306458573636e-06, 9.808306458573636e-06, 9.808306458573636e-06, 9.808306458573636e-06;
    ( 1, 6, 1 ) 0.012626262626262628, 0.012626262626262628, 0.012626262626262628, 0.012626262626262628, 0.012626262626262628, 0.012626262626262628, 0.012626262626262628, 0.8611111111111112, 0.012626262626262628, 0.012626262626262628, 0.012626262626262628, 0.012626262626262628;

}
probability ( REDES_FAM_SOC | AGRESOR_VIVE_CASA_VICTIMA, ESTUDIA, NIVEL_DE_RIESGO_VICTIMA ) {
    ( 0, 0, 0 ) 0.05208254305439647, 0.9479174569456035;
    ( 0, 0, 1 ) 0.06745471823077144, 0.9325452817692286;
    ( 0, 0, 2 ) 0.07985109665302836, 0.9201489033469716;
    ( 0, 1, 0 ) 0.03689668927004388, 0.9631033107299561;
    ( 0, 1, 1 ) 0.040480356290758704, 0.9595196437092413;
    ( 0, 1, 2 ) 0.05923658624414837, 0.9407634137558517;
    ( 1, 0, 0 ) 0.05403172380281201, 0.9459682761971879;
    ( 1, 0, 1 ) 0.05917303526738339, 0.9408269647326166;
    ( 1, 0, 2 ) 0.06824929085254873, 0.9317507091474512;
    ( 1, 1, 0 ) 0.028534527294644396, 0.9714654727053557;
    ( 1, 1, 1 ) 0.03666845772767808, 0.9633315422723219;
    ( 1, 1, 2 ) 0.045760675565618705, 0.9542393244343813;
    ( 2, 0, 0 ) 0.06882444019341864, 0.9311755598065813;
