network unknown {
}
variable CONDICION {
    type discrete [ 5 ] { 0, 1, 2, 3, 4 };
}
variable EDAD_AGRESOR {
    type discrete [ 5 ] { 0, 1, 2, 3, 4 };
}
variable EDAD_VICTIMA {
    type discrete [ 7 ] { 0, 1, 2, 3, 4, 5, 6 };
}
variable ESTADO_AGRESOR_G {
    type discrete [ 4 ] { 0, 1, 2, 3 };
}
variable ESTADO_AGRESOR_U_A {
    type discrete [ 4 ] { 0, 1, 2, 3 };
}
variable ESTADO_VICTIMA_G {
    type discrete [ 4 ] { 0, 1, 2, 3 };
}
variable ESTADO_VICTIMA_U_A {
    type discrete [ 4 ] { 0, 1, 2, 3 };
}
variable ESTUDIA {
    type discrete [ 2 ] { 0, 1 };
}
variable ETNIA_VICTIMA {
    type discrete [ 5 ] { 0, 1, 2, 3, 4 };
}
variable LENGUA_MATERNA_VICTIMA {
    type discrete [ 4 ] { 0, 1, 2, 3 };
}
variable NIVEL_EDUCATIVO_VICTIMA {
    type discrete [ 8 ] { 0, 1, 2, 3, 4, 5, 6, 7 };
}
variable REDES_FAM_SOC {
    type discrete [ 2 ] { 0, 1 };
}
variable SEXO_AGRESOR {
    type discrete [ 2 ] { 0, 1 };
}
variable TRATAMIENTO_VICTIMA {
    type discrete [ 2 ] { 0, 1 };
}
variable VINCULO_AFECTIVO {
    type discrete [ 2 ] { 0, 1 };
}
variable VINCULO_AGRESOR_VICTIMA {
    type discrete [ 3 ] { 0, 1, 2 };
}
variable VIOLENCIA_ECONOMICA {
    type discrete [ 2 ] { 0, 1 };
}
variable VIOLENCIA_SEXUAL {
    type discrete [ 2 ] { 0, 1 };
}
probability ( CONDICION | TRATAMIENTO_VICTIMA, VIOLENCIA_ECONOMICA ) {
    ( 0, 0 ) 0.0022948858127204838, 0.03999339838673076, 0.7333212303756731, 0.14397210818393744, 0.08041837724093825;
    ( 0, 1 ) 0.003868764886484105, 0.032285600209271265, 0.7207330001514463, 0.1685872812633376, 0.07452535348946071;
    ( 1, 0 ) 0.01002451578123195, 0.0680922614845525, 0.5448022693142, 0.2858848143346725, 0.09119613908534316;
    ( 1, 1 ) 0.01453436210299659, 0.05185716849093845, 0.5040373228063879, 0.34397990310425264, 0.08559124349542437;

}
probability ( EDAD_AGRESOR ) {
    table 0.002619997953126599, 0.5390002485489129, 0.30620348845709605, 0.04549029928213226, 0.10668596575873211 ;
}
probability ( EDAD_VICTIMA | EDAD_AGRESOR, NIVEL_EDUCATIVO_VICTIMA ) {
    ( 0, 0 ) 0.14285714285714288, 0.14285714285714288, 0.14285714285714288, 0.14285714285714288, 0.14285714285714288, 0.14285714285714288, 0.14285714285714288;
    ( 0, 1 ) 0.5896398219344394, 0.1817078106029947, 0.02306758397409955, 0.000404694455685957, 0.02306758397409955, 0.1817078106029947, 0.000404694455685957;
    ( 0, 2 ) 0.4886605931382052, 0.2498546229889514, 0.021903469664663697, 0.03275828648962978, 0.1304516379143245, 0.0761775537894941, 0.00019383601473153714;
    ( 0, 3 ) 0.27597153804050356, 0.04915161466885604, 0.012370005473453748, 0.00010946907498631636, 0.00010946907498631636, 0.6621784345922277, 0.00010946907498631636;
    ( 0, 4 ) 0.7917512297478586, 0.03278181005125382, 0.02122390010663547, 3.4398541501840314e-05, 3.4398541501840314e-05, 0.15413986446974645, 3.4398541501840314e-05;
    ( 0, 5 ) 0.11133004926108377, 0.5527093596059114, 0.0009852216748768474, 0.11133004926108377, 0.0009852216748768474, 0.16650246305418723, 0.056157635467980305;
    ( 0, 6 ) 0.0011806375442739079, 0.2656434474616293, 0.2656434474616293, 0.06729634002361275, 0.0011806375442739079, 0.397874852420307, 0.0011806375442739079;
    ( 0, 7 ) 0.2043707001214083, 0.000404694455685957, 0.000404694455685957, 0.000404694455685957, 0.000404694455685957, 0.7936058276001619, 0.000404694455685957;
    ( 1, 0 ) 4.600874166091556e-05, 0.7729928686450424, 0.1700943179204048, 0.05415228893489761, 4.600874166091556e-05, 0.002622498274672187, 4.600874166091556e-05;
    ( 1, 1 ) 0.036117369152284105, 0.6533384053527295, 0.22061644711599954, 0.057664706724688826, 0.003980004875260023, 0.028281973671409666, 1.093107628470207e-06;
    ( 1, 2 ) 0.07750490816702674, 0.5622174605399687, 0.14566371694543273, 0.08560421816811703, 0.10886377509432504, 0.019771365082331856, 0.0003745560027976736;
    ( 1, 3 ) 0.02794519619624669, 0.6119615620231497, 0.2711901148926946, 0.02399928536197225, 3.8504204081522644e-07, 0.06490307144185539, 3.8504204081522644e-07;
    ( 1, 4 ) 0.3712960272241589, 0.3812122973320658, 0.18583232193865187, 0.018679353040517592, 0.0016449682511923062, 0.04133459390585943, 4.383075542745287e-07;
    ( 1, 5 ) 0.022970169406663882, 0.5166224130262833, 0.08396828651857455, 0.24071405934160173, 0.022671890105383143, 0.015960605826566568, 0.09709257577492697;
    ( 1, 6 ) 5.463719536348758e-07, 0.6772307683901969, 0.26432655558924845, 0.02643620697662347, 5.463719536348758e-07, 0.032004829928070126, 5.463719536348758e-07;
    ( 1, 7 ) 0.028844166810903238, 0.4693038356437409, 0.29307297321395787, 0.01280715832979298, 1.0489932287487083e-06, 0.19596976801514748, 1.0489932287487083e-06;
    ( 2, 0 ) 0.0001382934587194026, 0.20923800304245613, 0.7358594938459412, 0.02337159452357904, 0.0001382934587194026, 0.031116028211865588, 0.0001382934587194026;
    ( 2, 1 ) 0.054447901896274596, 0.17535038039708387, 0.5290096304117092, 0.029175383809653815, 0.0048388849114263995, 0.2071750328024582, 2.7857713940278634e-06;
    ( 2, 2 ) 0.10941495494450992, 0.17494240583649484, 0.3431495687683974, 0.05086106763369039, 0.1983880075317922, 0.12167880813897315, 0.0015651871461421034;
    ( 2, 3 ) 0.010457377178904893, 0.11260253711944773, 0.5890249060805814, 0.005770941938187103, 5.692948543146002e-07, 0.2821430990931702, 5.692948543146002e-07;
    ( 2, 4 ) 0.2610131961093893, 0.08522932382121902, 0.3884193906789076, 0.007074050250472681, 0.0010050094536381887, 0.25725825000487296, 7.79681500107206e-07;
    ( 2, 5 ) 0.0271435839868199, 0.17050951761789007, 0.18362501312357157, 0.15015788666079807, 0.068299104366717, 0.056992642723888126, 0.34327225152031526;
    ( 2, 6 ) 9.509545206000521e-07, 0.1418681501557188, 0.7036388274730759, 0.008787770724865081, 9.509545206000521e-07, 0.1457023987827782, 9.509545206000521e-07;
    ( 2, 7 ) 0.007808840561453803, 0.07252988089225024, 0.5668068629741104, 0.0036310802861325518, 1.2229977386771813e-06, 0.3492208892905757, 1.2229977386771813e-06;
    ( 3, 0 ) 0.0003239390994493035, 0.6896663427275672, 0.16358924522189824, 0.14544865565273726, 0.0003239390994493035, 0.0003239390994493035, 0.0003239390994493035;
    ( 3, 1 ) 0.03652014342456328, 0.548309207905253, 0.05409810336709687, 0.3468387439485217, 0.0027163743043063593, 0.011505354275573157, 1.207277468580604e-05;
    ( 3, 2 ) 0.06424632063281963, 0.4645110459802716, 0.028949607639217164, 0.3688569537676089, 0.06318741924301155, 0.009889382622671833, 0.00035927011439916795;
    ( 3, 3 ) 0.022971287314814282, 0.5904127768885952, 0.07847146673349774, 0.2551789345378117, 5.695831221129254e-06, 0.05295414286283868, 5.695831221129254e-06;
    ( 3, 4 ) 0.39007250280166667, 0.3526261369194667, 0.048201051321581805, 0.17961005751930206, 0.0024332707988929544, 0.02705078911033923, 6.191528750363751e-06;
    ( 3, 5 ) 0.011936697182598825, 0.39266198282591736, 0.02783336881697538, 0.5261940245546803, 0.008757362855723512, 0.008757362855723512, 0.02385920090838124;
    ( 3, 6 ) 6.547973729529395e-06, 0.5958721573609046, 0.10487889522587235, 0.26475422180606206, 6.547973729529395e-06, 0.03447508168597227, 6.547973729529395e-06;
    ( 3, 7 ) 0.029547817439390067, 0.4531318275649043, 0.14767881627917492, 0.15780433046544218, 1.5067729443850108e-05, 0.21180707279220098, 1.5067729443850108e-05;
    ( 4, 0 ) 0.001605136436597111, 0.27126805778491175, 0.27126805778491175, 0.18138041733547353, 0.001605136436597111, 0.27126805778491175, 0.001605136436597111;
    ( 4, 1 ) 0.16615954348085024, 0.16615954348085024, 0.15706381089538826, 0.024872497320007365, 0.0024363569425344613, 0.4832974196272915, 1.0828253077930937e-05;
    ( 4, 2 ) 0.20692957256028555, 0.18255419169495954, 0.1354284553553292, 0.05255216041322074, 0.11701150092374955, 0.30551444628227076, 9.672770184653182e-06;
    ( 4, 3 ) 0.050698822380078584, 0.03954860529176927, 0.1290712115547419, 0.002889258461860213, 1.4324533772237048e-06, 0.7777892374047956, 1.4324533772237048e-06;
    ( 4, 4 ) 0.362982079959044, 0.03112557353423323, 0.07442401120681948, 0.0033399548010316174, 0.00019811805381447388, 0.527928509187944, 1.7532571134024236e-06;
    ( 4, 5 ) 0.0494604060480082, 0.17543210228081665, 0.05424414134798827, 0.12121643554770921, 0.04627124918135482, 0.14672969048093623, 0.40664597511318656;
    ( 4, 6 ) 5.2955162863603375e-06, 0.07681146373365672, 0.3155333379227807, 0.008012116141263192, 5.2955162863603375e-06, 0.5996271956534401, 5.2955162863603375e-06;
    ( 4, 7 ) 0.018175661375661376, 0.018333686067019402, 0.12057566137566139, 0.0004768959435626103, 2.8218694885361557e-06, 0.8424324514991183, 2.8218694885361557e-06;

}
probability ( ESTADO_AGRESOR_G | ESTADO_AGRESOR_U_A ) {
    ( 0 ) 0.5705978318071782, 0.12432901799810546, 0.07591306178297022, 0.22916008841174612;
    ( 1 ) 0.004233015764334571, 0.5145256747852717, 0.0018694207550841912, 0.4793718886953096;
    ( 2 ) 0.05154241645244216, 0.05688946015424164, 0.5944730077120822, 0.2970951156812339;
    ( 3 ) 0.0024302110610521063, 0.05932615519737163, 0.0034060905724617647, 0.9348375431691145;

}
probability ( ESTADO_AGRESOR_U_A ) {
    table 0.0069454800649151275, 0.3117600187142711, 0.00710922993698554, 0.6741852712838282 ;
}
probability ( ESTADO_VICTIMA_G | ESTADO_VICTIMA_U_A ) {
    ( 0 ) 0.260752688172043, 0.02849462365591398, 0.02849462365591398, 0.682258064516129;
    ( 1 ) 0.0007066297260235636, 0.11231214843422047, 0.0007066297260235636, 0.8862745921137324;
    ( 2 ) 0.0021968365553602814, 0.03031634446397188, 0.2623022847100176, 0.7051845342706503;
    ( 3 ) 0.0002623625929912941, 0.0015634707134234243, 0.00011211916107072485, 0.9980620475325146;

}
probability ( ESTADO_VICTIMA_U_A ) {
    table 0.0003399271897890258, 0.026121759726303786, 0.0004159539161074316, 0.9731223591677998 ;
}
probability ( ESTUDIA ) {
    table 0.8320057897276196, 0.16799421027238037 ;
}
probability ( ETNIA_VICTIMA ) {
    table 0.017222977615977308, 0.01090983522669123, 0.006880418731815723, 0.8455809465327426, 0.11940582189277307 ;
}
probability ( LENGUA_MATERNA_VICTIMA | ETNIA_VICTIMA ) {
    ( 0 ) 0.7435059422750424, 0.2518251273344652, 0.0007215619694397284, 0.003947368421052632;
    ( 1 ) 0.0003350308228357009, 0.977552934870008, 0.003283302063789869, 0.01882873224336639;
    ( 2 ) 0.0013812154696132596, 0.6167658308542286, 0.3583722906927327, 0.023480662983425413;
    ( 3 ) 0.0028261335657177636, 0.9661737142778101, 0.0011662447782665227, 0.02983390737820566;
    ( 4 ) 0.000618342108485368, 0.2552773356189543, 0.0005203869229827354, 0.7435839353495776;

}
probability ( NIVEL_EDUCATIVO_VICTIMA | ESTUDIA ) {
    ( 0 ) 0.0016212941534125157, 0.0879450486498075, 0.10614325729659249, 0.3163575202919867, 0.18402863810412481, 0.0328162149623858, 0.18872755756352064, 0.08236046897816952;
    ( 1 ) 0.002128969652663551, 0.015583796767708415, 0.12120331932151467, 0.06082195417003908, 0.4328923091651219, 0.025801110501901602, 0.067471040790928, 0.2740974996301228;

}
probability ( REDES_FAM_SOC | VINCULO_AFECTIVO ) {
    ( 0 ) 0.7598950151346795, 0.2401049848653205;
    ( 1 ) 0.03927289696612254, 0.9607271030338774;

}
probability ( SEXO_AGRESOR ) {
    table 0.9592277439068965, 0.0407722560931035 ;
}
probability ( TRATAMIENTO_VICTIMA ) {
    table 0.9389724695527581, 0.06102753044724184 ;
}
probability ( VINCULO_AFECTIVO ) {
    table 0.0381581063496937, 0.9618418936503063 ;
}
probability ( VINCULO_AGRESOR_VICTIMA | SEXO_AGRESOR, VIOLENCIA_SEXUAL ) {
    ( 0, 0 ) 0.020425206926167443, 0.8311446232772585, 0.148430169796574;
    ( 0, 1 ) 0.3125098595993059, 0.28411421359835937, 0.40337592680233475;
    ( 1, 0 ) 0.01130157812659935, 0.0009693948206619581, 0.9877290270527387;
    ( 1, 1 ) 0.5948345439870864, 0.033091202582728005, 0.37207425343018563;

}
probability ( VIOLENCIA_ECONOMICA ) {
    table 0.942829363860988, 0.057170636139011945 ;
}
probability ( VIOLENCIA_SEXUAL ) {
    table 0.9549029928213226, 0.04509700717867743 ;
}
